tree
version=v2
num_class=1
num_tree_per_iteration=1
label_index=0
max_feature_idx=22846
objective=regression
feature_names=TSPAN6 DPM1 SCYL3 C1orf112 FGR CFH FUCA2 GCLC NFYA STPG1 NIPAL3 LAS1L ENPP4 SEMA3F ANKIB1 CYP51A1 KRIT1 RAD52 BAD LAP3 CD99 HS3ST1 AOC1 MAD1L1 LASP1 SNX11 TMEM176A M6PR KLHL13 ICA1 DBNDD1 ALS2 CASP10 CFLAR TFPI NDUFAF7 RBM5 MTMR7 SLC7A2 ARF5 SARM1 POLDIP2 PLXND1 AK2 CD38 FKBP4 KDM1A RBM6 CAMKK1 RECQL CCDC132 HSPB6 ARHGAP33 NDUFAB1 PDK4 SLC22A16 ZMYND10 SLC25A13 ST7 CDC27 SLC4A1 HCCS DVL2 UPF1 SKAP2 SLC25A5 CCDC109B HOXA11 POLR2J DHX33 MEOX1 THSD7A LIG3 RPAP3 ACSM3 AC004381.6 CIAPIN1 SPPL2B FAM214B COPZ2 PRKAR2B MSL3 CREBBP BZRAP1 MPO GCFC2 WDR54 CROT ABCB4 KMT2E RHBDD2 SOX8 IBTK ZNF195 MYCBP2 FBXL3 ITGAL PDK2 ITGA3 ZFX LAMP2 GGNBP2 ITGA2B GDE1 C19orf60 OSBPL7 TMEM98 YBX2 MAP3K14 CCL18 CCL3 SYNRG TMEM132A AP2B1 ZNF263 SPATA20 TNFRSF12A MAP3K9 RALA BAIAP2L1 KDM7A ETV1 AGK ALDH3B1 TTC22 PHTF2 FARP2 GGCT DBF4 TBXA2R IFRD1 COX10 GTF2IRD1 PAF1 VPS41 ARHGAP44 ELAC2 SCIN ARSD PNPLA4 ADIPOR2 CDKL3 UPP2 PRSS21 MARK4 PROM1 CCDC124 CEACAM21 PAFAH1B1 NOS2 KIAA0100 GAS7 TRAPPC6A MATK CD79B SCN4A ST7L TKTL1 RPUSD1 RHBDF1 LUC7L CACNA2D2 BAIAP3 TSR3 PIGQ CRAMP1L TEAD3 DNAJC11 MYLIP E2F2 PSMB1 SYN1 JARID2 CDKL5 CDK11A NADK DLEC1 CYTH3 ADAM22 SYPL1 CYB561 SPAG9 CELSR3 AASS PLEKHG6 SS18L2 MPND MGST1 CRY1 PGLYRP1 NFIX ST3GAL1 MMP25 IL32 PKD1 MAPK8IP2 MED24 RHOBTB2 HEATR5B SEC62 RPS20 CSDE1 UBE3C REV3L TENM1 MASP2 FAM76A TRAF3IP3 POMT2 VTA1 MLXIPL BAZ1B RANBP9 ETV7 SPRTN METTL13 DYRK4 ZNF207 UQCRC1 STARD3NL CD9 NCAPD2 IFFO1 GIPR PHF7 SEMA3G NISCH STAB1 FUZ SLC6A13 IDS ZNF200 CD4 LRRC23 BTK HFE SCMH1 FYN HIVEP2 TCEB3 LYPLA2 CLCN6 MRC2 TSPAN9 BTBD7 APBA3 MKS1 ABHD5 KAL1 AKAP8L MBTD1 UTP18 RNF216 TTC19 PTBP1 DPF1 LARS2 PIK3C2A PLAUR ANLN WIZ RABGAP1 DCN QPCTL PPP5C CEP68 MAP4K3 ZBTB32 TYROBP TMEM159 BRCA1 ERCC1 CD22 SEMA3B MBTPS2 PRICKLE3 LTF EXTL3 ELOVL5 ALOX5 KDM5D CALCOCO1 UBR7 MAP4K5 EHD3 PSMC4 MAN2B2 SLC25A39 MVP NUB1 PGM3 RWDD2A CLK1 POLR3B ANGEL1 RNF14 DNASE1L1 DDX11 HEBP1 GPRC5A MAMLD1 CD6 TACC3 UFL1 POLA2 ZC3H3 CAPN1 ACPP MDH1 SLC30A9 MTMR11 COX15 CCDC88C YAF2 ZMYND11 WAS DPEP1 BID MATR3 NPC1L1 XYLT2 RGPD5 NUDCD3 CHDH GLT8D1 ATP2C1 SRCIN1 IGF1 SLC38A5 MAGIX RALBP1 RUFY3 CNTN1 SLC11A1 WWTR1 AGPS CXorf56 TTC27 ZNF582 VSIG2 PHLDB1 MARCO PRDM11 SNAI2 CD74 HGF ZRANB1 NCDN GPR124 ZFP64 MNAT1 SAMD4A RUNX3 MRE11A PLEKHB1 SERPINB1 SLC7A9 SPAST NRXN3 OSBPL5 AQR CPS1 FHL1 RTFDC1 NLRP2 SLC45A4 RNF10 ZNF839 ZDHHC6 GRAMD1B RNH1 NDUFS1 RB1CC1 ERP44 ALAS1 BIRC3 AKAP11 GLRX2 SNAPC1 DERA STRAP ABCC2 DEF6 PLEKHO1 GCLM UBR2 EHD2 DEPDC1 CCDC28A RRAGD HSF2 PHF20 HSD17B6 NR1H3 TYMP NCAPH2 TOMM34 SEC63 KPNA6 VIM RTEL1-TNFRSF6B FAS RNASET2 CD44 KCNG1 AGPAT4 SLAMF7 BTN3A1 MIPEP PRKCH INSRR IFNGR1 B4GALT7 SH2D2A VRK2 TNFRSF1B VEZT POU2F2 BRD9 SNX1 TBPL1 ARNTL2 BCLAF1 SLC39A9 ANK1 TFB1M RABEP1 HMGB3 NUP160 BAK1 IKZF2 GRN FAM13B ARHGAP31 CENPQ SARS RANBP3 ARID4A TSSC1 PNPLA6 IFT88 ALG1 ZCCHC8 ABCF2 CHPF2 LRRC7 FUT8 UBA6 GAB2 ATP6V0A1 PIAS1 SLC4A7 APBA2 UHRF1 MAP2K3 EFCAB1 TMSB10 ASTE1 RNF19A PEX3 GABARAPL2 SH3YL1 FAM136A VCL DEPDC1B DAPK2 NSMAF ADSS STAP1 TIMP2 RFC1 TBC1D23 CUL3 MYOM2 CYP46A1 ZZZ3 SLC18A1 USP2 TUBG2 RPL26L1 FLT4 NSUN2 FBXO42 MFAP3 MRI1 METTL1 AGA PI4K2B BOD1L1 MAT2B EDC4 TRIO VCAN CLEC16A MSR1 CDH1 SKIV2L2 ZFYVE16 FAM65A RAI14 PNKP PHLPP2 SPDL1 STAU2 PQLC2 CTNS RTN4R PHF23 INPP4A RAB27B PSMA4 MYO16 LSG1 PARP3 TNC THAP3 FAM65C TDP1 AIFM2 SPATA7 MED17 RETSAT CAPG AP2S1 TG ADAM28 DCUN1D1 JADE2 LCP2 TRIT1 ADRB1 CUL7 CTNNA1 PHKA2 CNTLN HSPA5 DSG2 GEMIN8 OFD1 GPM6B PREX2 WDR37 YTHDC2 CTPS2 ATP6V1H POLR2B FAM214A ARAP2 TPR CP KIAA0556 DTNBP1 XK ANO2 C12orf4 SCML1 WWC3 ARHGAP6 FAM184B MAP4 GOPC USP28 HDAC9 TSPAN17 NOP16 CC2D2A RRM2B ZNF800 TNFRSF17 SNX29 MRPS10 RSF1 VPS13D CELF2 FAM120A R3HDM1 COL9A2 KITLG ERCC8 ADAMTS6 H6PD VAMP3 PER3 UTS2 TNFRSF9 EPN3 LTBP1 RCN1 ELN RFC2 ARID1B CLPTM1L NEDD4L FOXP3 PPP1R3F HEXB PTCD2 KIAA2022 JKAMP DKK3 ARHGEF5 NFE2L3 MCUR1 LIMA1 LETMD1 SLC4A8 LAMC3 PTGER3 TNIP3 MAPK9 COL23A1 BCAR1 FAM160A2 HERPUD1 HOMER3 RAD51 POLQ PIK3CB CYBA THOC3 HEBP2 MPHOSPH9 PLEKHA5 PRSS8 SIKE1 RRP12 FNIP2 MSMO1 TTC17 FSTL4 FOXN3 METTL24 AKR7A2 MRTO4 NNAT USE1 MCF2L2 LAMA3 AP5M1 ANAPC4 KCNQ1 TRAPPC3 THRAP3 PHPT1 ENTPD2 LY75 ARID4B OPN3 SDCCAG8 PTPRN HHAT KIF1B FOXC1 TBC1D22A SYNE2 PLEKHH1 ATP9A FAM168A RELT GALC NOP58 SZRD1 KCNH2 CUL1 FAM114A2 CYFIP2 TAB2 GINM1 EIF2AK2 USP36 KMT2C MCOLN3 PUM2 MRPL43 ITIH4 ITIH1 C4orf27 ZFR ZNF280C TRAF1 RC3H2 PCGF2 IL17RB TRAF3IP2 GYG2 DCBLD2 SOAT1 PKP2 MSH4 F7 GDI2 PRDM1 ATG5 TMCC3 PITHD1 MTA3 USP13 ATP11B LAMC2 CDK14 SEC61A1 PPP1R12A RASGRF1 CAMK2B CROCC POLR3E ATP2B4 ZC3H11A RIOK2 YIPF1 NDC1 DGKG FLYWCH1 UNKL TBXAS1 PARP12 ALDH18A1 TARBP1 PET112 MXD1 CDK17 DNAJC25 SLC2A3 PSD CTDP1 YBX3 STYK1 WNK1 CCAR1 OGFR GNA15 CREB3L3 PIGV PTPRU SNRNP40 RIMBP2 QSER1 MPC1 ACAA1 BCAT1 HDAC7 LZTS1 SPAG4 NCKAP1 MRPS35 GUCY1B3 SFSWAP TNK2 MON2 CDH3 GPBP1 DGAT2 ZNF112 CS LTK MRPS24 ELMO2 WAPAL VMP1 APPBP2 POLD1 SEZ6 EIF4B SLC6A16 GLTSCR1 SPHK2 RPL18 CA11 ISOC2 U2AF2 EPN1 MED29 AHRR ZNF275 MTMR1 GPC1 ADCK1 HAGH RNF4 CASP8 LIMCH1 ASUN TM7SF3 SPA17 TSPAN32 ST3GAL6 ATP2C2 NGFR CDON TAF2 HIPK2 TNPO3 RFXANK TMEM161A LPAR2 CTSA SUGP2 SLC12A2 SNX24 CNN2 ABCA7 SNCAIP DDX20 BTBD1 FAR2 BCAS1 CHI3L2 SBNO2 PMS1 HMG20B CALCRL TAF11 ANKS1A AP3D1 ZNF76 SLC9A3R2 NTHL1 UHRF1BP1 GNAI3 IPO5 OAT WDR3 PKN2 WDR18 TRAM2 NTN1 MCM10 DGKA ERBB3 ANKRD44 KARS ADAT1 PDIA5 TBC1D22B NDUFB4 SPEN MYLK ZC3H15 MAP2K4 TMEM206 SLK CYB5R4 COL17A1 GSTO2 SEC61A2 PRKCQ TLE2 ASB1 FAM107B ME1 TBC1D1 CDK13 MTHFD2 SLC9A7 FOXJ2 YBX1 PDE4A PPP2R5A ELAVL1 TIE1 DIP2B SMARCD1 KDM4A NFYC ZMYND12 SLC9A3 NGEF ASPM CD84 ELOVL1 SPI1 ZNRD1 MPPED2 ZBTB11 ATXN3 GOLGA5 FGFR2 LRRC40 ISOC1 TRMT11 THUMPD1 MSANTD3 KIF26A ATG2B ARFGEF1 ZFAT MTFR1 STAG3 FECH MYO9A DDX3Y PFKP IDI1 SP100 KLF6 PPAP2A NEO1 TRAM1 PHKA1 TNFRSF1A CACNB1 EVI5 STOML1 PKM DHX29 DNTTIP2 METTL22 TP53BP1 TRO RRP15 RHOA DHX8 PMS2P4 PRKCZ ZFY IARS2 SYT1 NAV3 IDH3G ROGDI PDZD4 ROCK1 CBFB PDK3 HYAL2 HDAC4 RASSF1 FGFR3 IFI35 HEATR6 COASY PLEKHH3 MEF2A OTUD5 TFE3 TBC1D25 ACSL4 INPP5A GPKOW GRIPAP1 FTSJ1 PRR11 REEP1 ATP11A POLR1A LAPTM4A TTC7A IP6K2 SRBD1 CYFIP1 KIF2A RASGRP2 PSME4 IFT80 SIRT2 ERLEC1 PPP2R5B PYGM PITX1 MAST4 GPR116 SDK2 NUP133 NUCKS1 VPS35 DNAJA2 BCL3 KCNAB2 GAL CLEC2D FUNDC1 MAOB RORA DRD4 TGFBR3 KIAA1107 HES2 ATP1B3 NEDD4 PIGB MAPK6 GNB5 RAB27A CECR5 UFD1L LRP6 SCT PHRF1 IKBKAP NUCB2 PFN2 PTPN3 SPTB DAPP1 FGF10 SLC44A1 TMEM260 SMG6 EXOC5 CLTCL1 FSTL3 DGCR2 RNF126 MNT ZXDC JMJD6 POLB ST6GALNAC1 WIPI1 GBA2 NDST1 ASNS AP3M2 ST6GALNAC2 PABPC1 TESK2 C16orf80 CSNK2A2 PTPN21 EIF2B3 CAMK2A TCOF1 CDC42 OSBPL3 SLC12A3 RAD18 ATP2B1 TRPM5 NCK2 MAP4K4 MGAT4A RPL31 WDR1 SNX13 ARHGAP10 RPS6KA2 ING3 VASH1 LMCD1 WBSCR22 SEL1L TRIP13 ATP6AP1 TCF3 TRIB2 DAZAP1 MBD3 HLTF FAM50A FAM3A CPSF1 MYO3B CYBRD1 PDCD2 RDH11 PRKACA LPHN1 ACTN1 ZFYVE26 RPS6KA6 EPN2 PTPN18 LIMS2 ASIC4 SPEG LNX1 ALDH3A2 TFRC SREBF1 AFF4 UBE2D1 MPP5 RHOBTB1 SMC1A HSD17B10 MARK2 HMMR CHFR TRHDE P4HA2 FCGR2B NFATC3 TRNT1 ACADVL STK10 FBXW11 ACAP1 EVC DERL2 SIDT1 NDE1 MRVI1 TMEM38A AP1M1 PVR IKBKG XRCC1 SCARB1 MCM2 MOV10L1 PANX2 SELO TP63 ALPK1 LLGL2 PDE8A CLCN4 NLE1 SDHA SMARCE1 GSDMB KDM5A ADAM11 PPP2R3A FERMT2 ABCB11 DHRS9 CD5L PTGS2 IGF2BP2 MAP3K13 ST6GAL1 TBX21 VDAC1P1 FRY PICALM NSF GLI2 CLASP1 MRPS34 NOTCH3 CLNS1A PPP2R2C TEAD2 EED CDHR2 TSG101 C17orf85 ATP2A3 CA12 MGLL NTN4 BCS1L NUAK1 DPP8 SLC24A1 ZNF532 SCARF1 LMAN1 PTPLAD1 IPCEF1 ZZEF1 ENO1 C19orf10 ANO8 TUBE1 ARHGEF10L TXK KCNQ2 TACR2 ACTR6 TIPIN SRI EIF4G3 NUP37 SEMA3A GTSE1 SEMA3C TTC38 ACAT1 GRAMD4 CELSR1 ZNF638 SLC25A40 TIMM21 ADD2 RASAL2 VPS9D1 ZNF37A MARK3 SLC25A3 FNDC3B FOSL2 CACNG4 FRYL TMEM131 FSCN1 ACTB MOCOS PLD1 WDR62 DLG1 RAB7A BCAP29 SEC31B SART3 ARHGAP15 EXOSC7 KIFAP3 MKRN2 MCM6 REXO2 RBM7 RBMS2 BAZ2A PTPN23 MLH1 UNG FMO4 KLHL20 RGS11 SLC46A1 PLXNA2 SPAG5 ANKRD13A TPD52 ACACB TRAF4 PAG1 GPATCH1 ICAM3 NT5C2 MCAM GPC4 MBNL3 CAMSAP3 RAP1GAP XAB2 ARHGEF1 STXBP2 MAP2K7 DGKD CTTNBP2 RARB TOP2B TM9SF3 NFKB2 UBE2T PPP1R12B DNAJC10 GTF3C1 IL4R USP33 PAK3 CAPN6 SNRPA SPAG6 EXOSC5 DYNC1I2 APBB1IP LRCH4 FAM76B SIRT6 POLD3 CAPZB GPR137B NAALAD2 JADE1 SLC25A43 UBE2A FGFR1 GTF2I SMC1B FBLN1 ITGA8 CST7 MAP2 PIAS2 AMPH ARAF MCCC1 LAMP3 NEBL ACER3 UBE2K PIK3C3 N4BP2 C12orf5 TULP3 SYNJ2 ADCY2 PPP2R5C PMS2P1 GNB1 HOXA9 EDN1 MLLT10 ZCWPW1 P2RY10 ITM2A NRD1 VDAC3 PCM1 TNRC6C CBFA2T2 ITCH TP53INP2 SDF4 MYH7B TP73 TOLLIP UBE2D4 THOC1 FKBP7 OSBPL6 SLC1A3 XRCC5 LXN SP140 MKNK1 TNS1 REXO1 SAR1A CDC14A RAPGEF3 CEACAM1 SENP1 DUSP13 CIC LIPE FDFT1 PAFAH1B3 OPHN1 KIF22 LRRC16A PGM1 DDX1 DNM2 EPB41L2 MOXD1 STX7 RABL2B KEAP1 DDX43 PTPRH DCT SLC35C2 CRYBG3 RFX3 RIF1 RAB21 SLC4A4 SMARCA2 SESN1 MID2 COL5A3 SRCAP KIAA0020 CNOT4 PSEN1 CPOX CLDND1 MOK HSP90AA1 RBL1 DLGAP4 IGSF9B CROCCP3 NDC80 AP4E1 RSBN1 MAGI3 CXCL2 COL4A4 TCF7 OSTM1 IMPG2 PCNP EXD2 ARG2 MEF2C PTPRC PKP1 UBA5 STK17B CDC14B ZNF510 LRP2 ZNF506 JMJD4 DUSP12 AACS KIAA0141 PCDHGA2 HSPB11 PHLPP1 ATP8B1 IL12RB2 SMARCD3 WDR70 FYB STRADB BZW1 C1QTNF3 ME2 C5orf22 CCNT2 FAM135A COL19A1 EPB41L3 COBLL1 DLG3 TRAF5 MRPL22 GEMIN5 NFE2L1 GSK3B ITGB5 ERC1 XPO1 RNF13 PALB2 DOPEY1 LYRM2 BCKDHB KAT6A ZCCHC6 ULK2 TNPO1 PLOD1 P2RX5 ITGAE DIS3 PIBF1 TDRD3 NUFIP1 PDS5B OXCT1 RRAGB CYLD SLC27A5 ZNF324 ZNF671 ZNF416 ZNF586 ZNF446 ZNF264 RPS5 FAT1 YTHDC1 CHMP2B SMAP2 PPIE ZMPSTE24 STARD7 NOA1 REST HAL SSH1 GSTP1 APLP2 KIAA1467 WBP11 EIF3I COL16A1 TXLNA NCOA1 AGBL5 EFR3B KIF3C RAB10 HADHA MAPRE3 CAD CD59 CD82 BCORL1 ATRX TAF9 FCN1 MYNN MECOM SCAMP1 PREP HACE1 SEH1L WDR47 WDFY1 OVGP1 SLC25A24 MAP3K4 PILRA IGSF9 ABCB1 ZNF213 AKR1B1 CPNE3 RRN3 CTTN WNT11 MTIF2 DDHD2 TTC39A EPS15 ORC1 MGST2 CHERP ATG16L1 USP40 POMGNT1 RAD54L MAST2 DNAJA1 B4GALT1 CHMP5 NFX1 DIMT1 IPO11 FOLH1 EIF2AK1 NME8 EPDR1 SNX10 SEPHS1 MRPL28 HBQ1 ITPKC CEACAM6 RBM22 TMED2 ERO1LB ZFAND6 TXLNG PPEF1 LAT2 HUWE1 ZW10 ALG9 MYBPC2 ACOX3 MTMR2 PPP1R15A HSD17B14 TRIP6 ACHE FTL SRRT BAX NLK PIGS ADAMTS2 ATXN7L3 PGS1 PSMC5 UIMC1 CETP MMP2 LPCAT2 GNAO1 OGFOD1 SH3BP2 NOP14 ADD1 L2HGDH TXNDC16 C14orf166 NID2 GMCL1 SF3B2 KLHL42 GNAS DNM1L PTHLH PHACTR3 ERGIC2 AURKA CASS4 PIR AAMDC RFX2 METTL2A ALG6 CNOT3 GP6 PTPN4 DDX18 KHSRP GNA11 ASAP3 EDEM2 DNMT3B TPX2 FER1L4 PDRG1 EPB41L1 DOCK9 ANKRD10 TGDS DOCK3 C3orf18 COQ9 TMEM40 KIF9 CRLS1 PPP1R13B ATRN SMOX SIGLEC1 FKBP1A NSFL1C SLC4A11 C20orf194 ZNF343 EBF4 CPXM1 MAVS LZTS3 XRN2 PLK1S1 DYNLL1 TESC SNX5 RPL6 SIRPG MAPKAPK5 P2RX7 ESF1 RBBP9 ANAPC5 SLC23A2 SLC8B1 TMEM230 DZANK1 KDM2B TASP1 OAS1 GCN1L1 RPLP0 PXN SIRT4 RPH3A KIF16B TRMT6 CHGB PEBP1 BRAP ERP29 FUS IGBP1 FXYD5 ZNF302 GRAMD1A FXYD3 HEPH CDIP1 CMTM1 KCNH4 GANAB GMIP RBM41 BIRC5 LAG3 MLF2 OTUB2 DDX24 ZBTB25 NECAP1 ARHGAP4 ANKRD24 DHX32 RCOR1 GPATCH2L LTBP4 BLVRB SLC9A1 SPTLC1 PAPOLA CCNK PCBP4 RGS1 YPEL3 MRPS33 NDUFB2 NUDC MAEA ICAM1 STRN4 IRAK3 LYZ MUL1 TFAP4 PDCD7 SPG21 DNAJB11 LEPREL1 FLT3LG RAB11FIP3 GNPTG ZNF268 GOLGA3 PABPC4 CD209 CERS4 MCOLN1 USP48 EFNB1 PDPR AARS GLG1 KIF4A TNRC6A FCGBP PLEKHG2 DLL3 NAT14 PITPNM2 EXOC1 RBM27 OSBPL8 DTX2 NLRC4 PUS7 NRCAM LAMB1 SLC26A4 DLD WDR7 TXNL1 IL5RA ABCC6 CMTM6 ITGA6 RAPGEF4 MLTK FH SEL1L3 TF CDV3 MYO15A ALKBH5 NLRP1 PITPNM3 SPAG7 ORC6 ZC3HC1 ESR1 ANGPT2 TMEM101 CD200 CCDC80 PSME1 PPP2R3C HAUS4 JPH4 CEBPE SLC7A8 OSGEP SLC22A17 RNF31 SCFD1 G2E3 HECTD1 HNRNPC RPGRIP1 SUPT16H TOX4 GEMIN2 TGM1 TINF2 TBL1Y SEMA6A TRPM7 TYRO3 WDR76 CAPN3 SNAP23 TBX15 PHGDH COL9A3 EZR MYL6 AGO1 TEKT2 CLSPN RFFL UNC13D MFSD11 DPYSL2 TGFB2 GPATCH2 NUP50 CDC45 COMT CECR1 VNN3 ECHDC1 LRRFIP2 SEC22C XYLB HDAC6 CDC6 UPRT CDC23 AAAS CBX5 FMO2 SUCO MSH2 MAP3K1 DHPS HOOK2 ARCN1 EPB41L4B TMEM38B PSMD5 PTGS1 NUP188 CRAT SH2D3C NANS TBC1D2 DFNB31 CWF19L1 SEMA4G BTAF1 IKZF5 BLNK SORBS1 BAMBI IL11 WAC CREM NUBP2 TPSD1 C19orf77 HIVEP1 TREM2 CRISP3 FKBP5 SRPK1 BRPF3 MRPS18A TMEM14A EFHC1 NCR2 HSP90AB1 CDC5L ITPR3 ZNF184 DSP SIRT1 HNRNPH3 IFT74 JAK2 IL12RB1 ABL1 ACOT7 SH3GLB1 CDC7 SYDE2 PCSK5 SCD TMED1 ABLIM1 ERMP1 RAB18 NRP1 HSD17B7P2 PRTFDC1 TSPAN15 H2AFY2 FAM21A MAST3 MZF1 OCEL1 MYO9B KCNK6 CATSPERG PSMD8 FBXL19 STX1B HSD3B7 SETD1A BCL7C CIRBP ATP5D C19orf26 PRKY IGFALS HNRNPM 2-Mar 2-Mar NDUFB7 TECR TIMM13 CDC34 MTAP MISP CEP170B POLR2E POLRMT HCN2 CDHR5 IZUMO4 RASSF7 GADD45B PALM MADCAM1 MKNK2 ARVCF TRMT2A RANBP1 ZDHHC8 KLHL22 MED15 SNAP29 CRKL LZTR1 MMP11 CECR2 SMARCB1 P2RX6 DERL3 BCL2L13 DDTL DDT OSM CABIN1 TBC1D10A SUSD2 SF3A1 GGT5 RNF215 SEC14L2 SPECC1L PPIL2 UPB1 YPEL1 SNRPD3 PES1 MAPK1 GGT1 PRODH PPM1F SLC35E4 TOP3B CYTH4 DGCR14 CRYBB2P1 MFNG CARD10 LRP5L SLC25A1 ADRBK2 LGALS2 GGA1 HIRA SH3BP1 SEZ6L LGALS1 HPS4 PIK3IP1 NOL12 SRRD PATZ1 TRIOBP TFIP11 GCAT GGTLC2 CRYBB1 ANKRD54 EIF3L NHP2L1 MICALL1 POLR2F CCDC134 DEPDC5 PICK1 TTC28 CENPM 3-Sep TPTEP1 KDELR3 CYP2D6 DDX17 DMC1 TCF20 HSCB CBY1 TOMM22 XBP1 RTCB JOSD1 FBXO7 GTPBP1 POLDIP3 RAB36 TIMP3 PPP6R2 SBF1 SUN2 CYB5R3 DNAL4 LMF2 RHBDD3 PACSIN2 TTLL1 RASL10A AP1B1 HMGXB4 TOM1 NEFH CHKB BIK HMOX1 MCAT THOC5 MCM5 APOBEC3H ARSA TSPO RASD2 TTLL12 CBX7 PDGFB ACR CABP7 RPL3 ZMAT5 RBFOX2 SYNGR1 TAB1 ASCC2 MTMR3 MIEF1 APOL4 APOL1 PNPLA3 MYH9 CACNA1I SAMM50 TXN2 FOXRED2 GRAP2 EIF3D TNRC6B SGSM3 IFT27 KIAA0930 NCF4 CSF2RB SLC25A17 UPK3A FAM118A KCTD17 ST13 IL2RB RBX1 EP300 L3MBTL2 CHADL RANGAP1 ZC3H7B PHF5A ACO2 POLR3H TRMU PMM1 DESI1 CERK BRD1 ZBED4 MLC1 HDAC10 KCNK10 ABHD4 KHNYN FKBP3 SDR39U1 CTSG GZMH GZMB RBM23 PRMT5 COCH AP4S1 POLE2 VCPKMT SOS2 CDKL1 NIN PYGL TRIM9 PSMC6 GNPNAT1 DDHD1 CDKN3 CNIH1 CGRRF1 ATP6V1D PLEK2 PIGH PSMA3 VTI1B TIMM9 GSTZ1 KIAA0586 TMED8 SAMD15 AHSA1 DAAM1 SPTLC2 RIN3 LGMN ALKBH1 SNW1 ITPK1 DHRS7 PPM1A ASB2 CEP128 ERH HIF1A KIAA0247 SRSF5 EIF5 SLC8A3 DICER1 ZFYVE21 MTHFD1 TCL1A ZC3H14 TELO2 PCNX GSKIP VRK1 PSMC1 PAPLN RPS6KA5 SMEK1 C14orf93 PSMB5 YY1 ACIN1 CCNB1IP1 TRIP11 APEX1 PABPN1 ARHGAP5 CINP DHRS2 SRP54 CHD8 PCK2 KIAA0391 DCAF11 PSMA6 NFKBIA EMC9 PSME2 BRMS1L REC8 TM9SF1 SEC23A GMPR2 PNN RABGGTA NFATC4 PLTP PCIF1 GSS MMP9 TRPC4AP PYGB ABHD12 PROCR GINS1 NINL CD40 UQCC1 ZMYND8 SGK2 IFT52 MYBL2 NDRG3 SLA2 C20orf24 NFATC2 PABPC1L STK4 SALL4 ADNP PFDN4 CSTF1 RAE1 TPD52L2 DNAJC5 NELFCD CTSZ PRPF6 TUBB1 SLMO2 MTG2 PSMA7 SLCO4A1 NTSR1 MRGBP TCFL5 DIDO1 GID8 SLC17A9 ARFGAP1 AVP EEF1A2 PTK6 GMEB2 C20orf27 CDC25B ISM1 RNF24 ARFRP1 NDUFAF5 TRIB3 RASSF2 CSNK2A1 SLC52A3 RPS10L RSPO4 CDS2 PROKR2 HM13 SNPH MYLK2 SIRPB1 SEC23B FERMT1 PLCB4 MYL9 HCK TM9SF4 TLDC2 CRNKL1 POFUT1 SAMHD1 KIF3B MROH8 NOP56 MANBAL IDH3B MAPRE1 JAG1 CDK5RAP1 SNTA1 OXT TTI1 E2F1 RPRD1B PXMP4 CHMP4B BPI CST3 ACTR5 WFDC2 AHCY PPP1R16B FAM83D DHX35 DNTTIP1 MAP1LC3A PIGU TNNC2 ACOT8 APMAP ZNF516 ADNP2 RBFA USP14 VAPA METTL4 LPIN2 SMCHD1 MYOM1 MYL12A CEP76 ST8SIA5 CEP192 RNMT SMAD7 RNF125 ANKRD12 POLI MIB1 RBBP8 RIOK3 CSTF2 MXRA5 VSIG1 PSMD10 ATG4A STS TBL1X PGRMC1 POLA1 MID1 NKAP RHOXF1 NXT2 RP3-324O17.4 ALG13 PRPS2 TLR8 MOSPD1 AMMECR1 CHRDL1 WDR13 SUV39H1 SRPX XIAP STAG2 ATP11C MCF2 ABCD1 CCDC22 CACNA1F SYP PLP2 BMX PLS3 NAA10 RENBP ELF4 SMARCA1 MTMR8 ASB9 ZC3H12B RBBP7 KCND1 UBE2NL SLC25A14 FMR1 PIM2 SCML2 SLC35A2 PQBP1 PCSK1N EMD TAZ PGK1 GATA1 MAGT1 SMS PHEX UBL4A CD99L2 EEA1 RP2 JADE3 CDK16 USP11 PCYT1B HTATSF1 CD40LG TIMP1 KLHL4 GABRE FGD1 PIN4 PORCN MAGED2 RBM3 KLF8 SYTL4 ZDHHC15 CENPI DRP2 TAF7L PBDC1 GLA ARMCX3 BEX4 KIAA0226L HTR2A NDFIP2 TNFSF13B FNDC3A MLNR CDADC1 CAB39L KLF5 STK24 ACP5 DNAJC3 UGGT2 ARHGEF7 FGF9 PARP4 SUPT20H MRPS31 SLC25A15 KPNA3 FLT1 RGCC VWA8 DGKH KATNAL1 INTS6 DHRS12 TSC22D1 CLN5 OLFM4 MSLN MGRN1 ZNF629 TRADD HSF4 CORO1A MAPK3 GDPD3 ELMO3 PHKB LYRM1 NUTF2 NUP93 CENPT TSNAXIP1 NFAT5 LONP2 N4BP1 ARL2BP PLLP ZNF423 CCL22 DHODH CTCF ACD POLR2C PARD6A ZNF821 MMP15 USB1 CYB5B CCDC113 NME3 NDRG4 PSMD7 SETD6 SLC38A7 VAC14 HAS3 TANGO6 COG4 SMPD3 SLC7A6OS SLC7A6 PLA2G15 FA2H WDR59 MON1B CMC2 AXIN1 HCFC1R1 NPRL3 MLYCD MPG NECAB2 HSDL1 TAF1C NAGPA WFDC1 SEC14L5 COTL1 USP10 CRISPLD2 TSC2 ZNF500 NME4 ABCC1 NOMO3 LMF1 NARFL MTHFSD CLCN7 HAGHL FAM173A SLC7A5 METRN FBXO31 STUB1 RHBDL1 NUBP1 UBE2I MEFV CRYM EEF2K CAPN15 PIEZO1 GSPT1 ZNF174 CLUAP1 UBFD1 PRSS33 EARS2 TCEB2 GGA2 AQP8 CPPED1 USP31 HMOX2 DNAJA3 BFAR RRN3P2 RBL2 QPRT XYLT1 PYCARD RPGRIP1L MAZ STX4 CDIPT BCKDK KAT8 NOMO1 IL21R SYT17 TMC5 CCP110 C16orf62 RNF40 KNOP1 AQP9 AAGAB IQCH LACTB CORO2B CSK HERC1 TRIP4 MTFMT AP3B2 ACSBG1 IGDCC4 RAB11A CTSH GOLGA8UP TTC23 CD276 FAH KIAA1199 RPAP1 HOMER2 EHD4 TMEM87A ZNF106 CEP152 ATP8B4 DTWD1 TGM5 GABPB1 TJP1 BMF DMXL2 DNAJC17 EIF3J SPG11 RHOV VPS18 OIP5 SLC30A4 BLOC1S6 MYEF2 SGK3 CSPP1 ZDHHC2 BRF2 TRIM35 ZFAND1 CA2 FZD3 INTS9 RIPK2 EYA1 NBN CPQ DECR1 IMPAD1 SFRP1 LAPTM4B UBE2W POP1 NIPAL2 IKBKB PLAT JPH1 STK3 GDAP1 RAB2A EIF3E EMC2 ESRP1 NDRG1 ZC2HC1A IL7 ARMC1 TRPS1 SPAG1 CHRAC1 NCALD SNX16 UBR5 GSDMD TSTA3 PYCRL EEF1D SQLE SH2D4A INTS10 ERI1 SLC39A14 MTMR9 LEPROTL1 DCTN6 R3HCC1 GSR TNFRSF10A UBXN8 PPP2CB ERICH1 TUSC3 NEFL ARHGEF10 KLHDC4 MCM4 KCTD9 ASAH1 BNIP3L MAN2B1 KCNN4 NUCB1 DHDH GYS1 MAP4K1 ECH1 HNRNPL NFKBIB TUBB4A SARS2 SNRNP70 CLPTM1 RELB CLASRP LIN7B PPP1R37 FCGRT PIH1D1 CKM ARHGEF18 PPP1R13L PEX11G ERCC2 DOT1L PLEKHJ1 SLC17A7 RNASEH2A KLC3 CD37 SF3A2 AMH LYL1 OAZ1 TRMT1 STX10 RETN FCER2 DMPK TBC1D17 IL4I1 TLE6 CCDC130 PTOV1 AES SGTA KIR3DX1 LILRB1 MED25 LILRA1 SNAPC2 C19orf53 TIMM44 CCDC61 IL27RA ASF1B TNNT1 VRK3 FAM32A PPP6R1 C19orf44 MED26 OLFM2 RASAL3 AKAP8 EPHX3 ILVBL ZNF419 SYDE1 AURKC POP4 CCNE1 URI1 PDCD5 ANKRD27 RPS16 TIMM50 FBL DYRK1B CLC CNTD2 GPI AKT2 PLD3 PRX PIAS4 NUMBL EBI3 CCDC94 SHD TBCB FSD1 POLR2I CLIP3 ZFR2 SLC1A5 PRKD2 TJP3 CACTIN CCDC9 HNRNPUL1 FZR1 BBC3 TGFB1 DENND3 ATP5SL CEACAM4 PLIN3 MYH14 MRPL4 SIGLEC8 CD79A ICAM4 RPS19 GLTSCR2 NKG7 ICAM5 ETFB CD33 BABAM1 TYK2 CDC37 NAPA RABAC1 ATP1A3 MEIS3 PTPRS CNFN MEGF8 KDELR1 CYTH2 GRWD1 GRIN2D CLEC11A CCDC114 CARD8 LIG1 SIGLEC6 ZNF175 PLA2G4C SIGLEC5 CABP5 HAS1 RAB3D DBP TMEM205 CAPS DKFZP761J1410 RASIP1 BCAT2 MIER2 PLEKHA4 PPP2R1A TNPO2 WDR83OS GCDH LILRB5 KLF1 DNASE2 MAST1 LENG1 PRPF31 TFPT JAK3 RPL18A SLC5A5 KCNN1 ARRDC2 PIK3R2 RAB3A PDE4C ISYNA1 ELL CRTC1 KMT2B COPE DDX49 ETV2 ARMC6 TMEM147 MAG HAMP USF2 LSR KXD1 FKBP8 SUGP1 HPN ZNF14 SCN1B PBX4 ERF GSK3A ATP13A1 ZNF574 GRIK5 SIPA1L3 ZNF85 ETHE1 CADM4 SMG9 AVL9 RUNDC3B C7orf63 GTPBP10 RASA4 CDK6 PMPCB DNAJC2 TFPI2 BET1 NAMPT TWISTNB PIK3CG PON2 ITGB8 HBP1 DUS4L SP4 WDR91 DNAH11 CBLL1 MTPN MPP6 DFNA5 ZC3HAV1 TTC26 OGDH ADAP1 TFEC H2AFV CAV2 CAV1 MET RNF32 LMBR1 NHP2P1 HOXA1 DNAJB6 HOXA2 HOXA3 LFNG HOXA5 HOXA6 BRAT1 IQCE VIPR2 TSPAN12 SSBP1 HOXA13 CPED1 HIBADH TAX1BP1 CPVL CHN2 GRB10 ABHD11 COBL FKBP14 PLEKHA8 STX1A NOD1 GARS EPHB6 FAM188B NSUN5P2 CASP2 CHCHD2 CCL24 HSPB1 NPTX2 PDAP1 BUD31 PTCD1 ZKSCAN1 EIF3B SNX8 NUDT1 TAF6 WASL AIMP2 TFR2 FSCN3 MOSPD3 PCOLCE FBXO24 PPP1R17 RBM28 USP42 IMPDH1 AGFG2 LSM5 SERPINE1 AP1S1 C1GALT1 PLOD3 RPA3 ZNHIT1 CLDN15 GLCCI1 PHF14 NRF1 TMEM106B EZH2 CEP41 ZNF862 SFRP4 MEST ANKMY2 ACTR3C TSPAN13 RARRES2 AGR2 AHR CHCHD3 GIMAP2 TMEM176B GLI3 PSMA2 MRPL32 COA1 BLVRA URGCP TMEM248 STAG3L4 RHEB PRKAG2 AEBP1 POLD2 BCL7B YKT6 TBL2 CLIP2 EIF4H LIMK1 SPATA6L FKTN FSD1L CNTNAP3 SPIN1 NMRK1 TMEM245 PRUNE2 MEGF9 TRIM14 CORO2A TGFBR1 SEC61B C5 OGN ECM2 TLE4 LHX6 PTGR1 SUSD1 AKNA TNFSF8 DNM1 ENG AK1 CDC37L1 RLN2 RLN1 PLGRKT TBC1D13 KIAA1432 KDM4C DOCK8 KANK1 NCS1 TESK1 FUBP3 CREB3 RGP1 MPDZ DDX58 EDF1 PIP5K1B GLIS3 BAG1 RAPGEF1 NPDC1 APBA1 SETX PTGDS ABCA2 SHB UBE2R2 ABHD17B EXOSC3 ZFAND5 DVL1 PDLIM1 CCNJ DNTT GATA3 HPS1 PHYH RASSF4 DNMBP RAB11FIP2 CXCL12 ERLIN1 EIF3A PKD2L1 CUBN TRDMT1 GDF10 DDX50 MAPK8 SEC23IP ATE1 NSMCE4A PLEKHA1 PALD1 UNC5B CDH23 C10orf54 SPOCK2 MICU1 PPP3CB CCSER2 BMPR1A MINPP1 ACTA2 LIPA C10orf2 LZTS2 SFXN3 KAZALD1 FBXW4 NPM3 TNKS2 GBF1 ARHGAP21 CPEB3 FBXL15 CUEDC2 SUFU ANKRD26 ACBD5 LHPP LARP4B GTPBP4 EDRF1 BCCIP MTPAP NEURL1 SH3PXD2A PITRM1 OBFC1 MAP3K8 DKK1 EBF3 GLRX3 SORCS1 FAM208B XPNPEP1 SMC3 SHOC2 TFAM CCDC6 CUL2 CCNY UBE2S RPL28 ZMIZ1 DNAJC12 PPIF PBLD TSPAN14 TBC1D12 KRT23 NUFIP2 GIT1 TADA2A AATF DHRS11 ZNHIT3 MLLT6 PSMB3 CWC25 RPL19 FBXL20 RUNDC3A UBTF CSF3 PSMD3 CASC3 RAPGEFL1 RGS9 RNF43 WNT3 ASPA RAD51C 4-Sep MTMR4 TRIM37 P2RX1 DHX40 TUBD1 KPNB1 GOSR2 PNPO RPS6KB1 TRIM16L CDK5RAP3 CBX1 RECQL5 PIGL GALK1 INTS2 CAMTA2 MED13 HOXB6 ENO3 PFN1 RNF167 SLC25A11 RASD1 CHRNE RAI1 NUP88 C1QBP SLC6A4 BLMH CPD GOSR1 CCDC47 MED31 DRG2 FTSJ3 AKAP10 ALDH3A1 SMARCD2 ICAM2 SYNGR2 B9D1 UTP6 DDX5 C17orf75 CYTH1 PSMD11 LGALS3BP CCL7 CCL2 CCL8 CCL1 PEX12 DHX58 KAT2A RAB5C NAGLU HSD17B1P1 HSD17B1 MLX CNTNAP1 ABI3 EZH1 DLX4 PPP1R9B COL1A1 SGCA MRPL27 VAT1 LRRC59 RND2 ALOX12 HDAC5 ABCC3 LUC7L3 MPP2 SMURF2 DUSP3 EFTUD2 HLF SLC16A6 PRKAR1A EFNB3 FAM20A YWHAE AC016292.3 MMD RANGRF DPH1 MAP2K6 DHRS7B WSB1 RCVRN SLC9A3R1 MYH3 NAT9 TMEM104 TNFAIP1 IFT20 TMEM97 CDR2L PMP22 UNC119 ALDOC SUPT6H RAB34 PHF12 TMEM33 GABRA4 SLAIN2 OCIAD1 DCUN1D4 USP46 CHIC2 NMU KIAA1211 LAMTOR3 PF4V1 NFKB1 AREG MANBA UBE2D3 MAPK10 ELF2 NDUFC1 TBC1D9 ZNF330 INPP4B GAB1 KLHL2 CPE RPL34 WFS1 GRPEL1 GAR1 FRG1 CLCN3 AADAT GALNT7 DHX15 SEPSECS TRIM2 SLC2A9 FBXW7 NEIL3 TBC1D19 CLNK WHSC1 SH3D19 STIM2 MFSD10 GLRB BST1 RAPGEF2 HGFAC SNX25 LRP2BP UFSP2 KLF3 KLHL5 NCAPG UGDH PPARGC1A HTATIP2 CTSC CCDC34 ZBTB16 ELP4 ZNF259 MTCH2 FNBP4 TECTA SC5D CRTAM C11orf63 B3GAT1 HSPA8 VWA5A DNAJC4 SIAE SNX15 LPXN DTX4 ATG2A EHD1 OSBP UNC93B1 PUS3 DCPS SUV420H1 FOXRED1 PPP6R3 NRXN2 MS4A6A MS4A4A ST3GAL4 CPT1A CCND1 CCDC86 PRPF19 TMEM109 HPX TRIM3 CHORDC1 ANAPC15 FOLR3 PANX1 ARHGEF17 CEP164 RNF141 KIAA1377 EIF4G2 IL10RA GALNT18 BIRC2 UBE4A DDX6 CBL PVRL1 HIPK3 KIAA1549L FBXO3 PDHX COMMD9 SLC15A3 CD5 ACCS MDK AMBRA1 MADD PTPMT1 NAA40 CARS SLC22A18 CD81 SLC35F2 C11orf21 SOX6 C11orf58 PITPNM1 RPS13 AIP NUP98 NDUFS8 TCIRG1 CHKA EXPH5 HPS5 GTF2H1 POU2AF1 VWF PSMD9 LEPREL2 PPFIBP1 PRPF40B CD69 PRDM4 CLEC2B COQ5 SELPLG CORO1C ASIC1 CAPRIN2 KCTD10 SLC11A2 MLEC MVK CSRNP2 CAMKK2 BIN2 IL23A ATP5B PTGES3 BCL7A RSRC2 CYP27B1 LIN7A KRT18 ACSS3 TENC1 GLI1 PPM1H METAP2 LTA4H ELK3 SLC6A12 WNT5B MAGOHB TRPV4 ITFG2 FOXM1 PRR4 PARP11 ARPC3 GPN3 VPS29 RAD51AP1 CUX2 SH2B3 AKAP3 MANSC1 DUSP16 CREBL2 ACAD10 ALDH2 CDKN1B GPRC5D NAA25 SCNN1A LTBR OGFOD2 CDK2AP1 OAS3 OAS2 ART4 MGP RASAL1 ARHGDIB GTF2H3 EIF2B1 DDX55 SLC38A1 ENDOU C12orf49 VDR RFC5 STX2 GPR133 COPZ1 TBC1D30 CAND1 IFNG RAB5B MDM1 NUP107 CNOT2 TIMELESS CPSF6 KRR1 MRPL51 GAPDH NOP2 CHD4 ACRBP UHRF1BP1L COPS7A ING4 GNB3 CDCA3 CHPT1 USP5 TPI1 GNPTAB SPSB2 ENO2 ATN1 C12orf57 PTPN6 LPCAT3 NT5DC3 SUDS3 GOLT1B GYS2 LDHB PRKAB1 CMAS HCFC2 ST8SIA1 CLEC4A C2CD5 RAB35 PHC1 COX6A1 RIC8B SRSF9 RP11-22B23.1 FGFR1OP2 KLRB1 COL12A1 BTN3A3 TDP2 FRK DSE RWDD1 RSPH4A MAK TMEM14C PAK1IP1 GCNT2 SMIM8 NEDD9 CEP85L ADTRP ASF1A MCM9 FAM184A RNGTT MAN1A1 GABRR2 SERINC1 HDDC2 TPD52L1 HINT3 NCOA7 FAM65B SASH1 UST ULBP1 FBXO5 MTRF1L PPARD FANCE SLC26A8 MAPK14 RHAG KCTD20 STK38 SRSF3 SOD2 MRPL18 MCM3 RNF8 PHACTR1 MDGA1 ICK FBXO9 CD83 MDN1 GLP1R SAYSD1 BACH2 TREML2 ZNF451 BAG2 RAB23 TSPO2 GPR63 KHDRBS2 FBXL4 CCNC E2F3 PTP4A1 ASCC3 BVES MED23 WASF1 GPLD1 ALDH5A1 AIM1 VNN1 VNN2 ACOT13 SMAP1 RPS12 C6orf62 GMNN SOBP SNX3 HBS1L TRIM38 PEX7 ZBTB24 FIG4 PERP KIAA1244 SLC16A10 HECA GPR126 PHACTR2 EPM2A SLC39A7 CCR6 PHF1 CUTA QKI MDFI TFEB CCND3 BYSL FAM120B TBP GUCA1B GLTSCR1L PPP2R5D MRPL2 PTK7 SRF CUL9 DNPH1 DUSP22 EXOC2 COX7A2 TMEM30A GMDS SENP6 VEGFA PRPF4B TTK SLC29A1 BTN2A1 LAMA4 FAM46A CLIC5 FBRSL1 ENPP5 LY86 PRSS16 TBX18 ERBB2IP PCDHB2 HARS2 NUDT12 CEP72 MAN2A1 SEMA5A C7 PAPD7 GHR HMGCS1 DAP BRD8 KIF20A NNT MRPS30 HSPA9 MRPS27 PFDN1 HBEGF LOX GZMK CDH9 APBB3 TMCO6 SPARC IK HMGCR COL4A3BP FAF2 PCDHB5 PDE8B CLK4 PCDHB15 HAVCR1 ITK RNF130 THG1L ARSB CLINT1 THBS4 CNOT6 IL12B BTNL8 TTC1 MSH3 RASGRF2 CCNG1 POLR3G DROSHA CDH6 LMNB1 ARRDC3 GOLPH3 SUB1 NPR3 FAM172A SLC27A6 TARS LNPEP PDE4D RAD1 BRIX1 PRLR SLC12A7 RAD50 ST8SIA4 GNPDA1 PCDH12 SKP1 NUP155 PPP2CA NR3C1 C5orf15 PPWD1 LIFR TRIM23 TRAPPC13 SEC24A TXNDC15 TTC33 RARS WWC1 H2AFY TCERG1 DPYSL3 SMAD5 CSNK1A1 HMGXB3 ERGIC1 PDGFRB ATP6V0E1 BNIP1 STC2 CPEB4 HRH2 DBN1 ZNF346 EHHADH SMC4 SELK ACTR8 TBCCD1 TIMMDC1 CRBN BCL6 HGD ARL6 NPHP3 CD86 AMOTL2 NIT2 FAM162A OGG1 KPNA1 PCCB UBE3A ARMC8 CEP70 SLC25A36 GRK7 RNF7 TFDP2 XRN1 KAT2B SERPINI2 PDCD10 WNT5A PFKFB4 COL7A1 PRKAR2A HES1 USP4 ACAP2 ECT2 GNAI2 TFG USP9Y HYAL1 TUSC2 NPRL2 RPL24 CYB561D2 C3orf14 FXR1 CBLB BBX IFT57 GNB4 HHLA2 IQCG GBE1 MORC1 UMPS NCBP2 SNX4 C3orf52 FRMD4B SLC41A3 PLXNA1 ATP6V1A ABTB1 PODXL2 CSPG5 KLHL18 SCAP EFCC1 KIAA1257 NEK11 MRPL3 PLSCR4 HEMK1 CISH MAPKAPK3 ACVR2B WDR48 COMMD2 GORASP1 RRP9 ABCC5 ABHD14B EIF1B ARHGEF26 KLHL24 PLCH1 VIPR1 DNAH1 SSR3 ZBTB47 TNNC1 NKTR CLCN2 FOXP1 EIF4G1 SPCS1 NEK4 SLC4A3 INO80D EEF1B2 ADAM23 DGUOK MOB1A KANSL3 LMAN2L RTKN TTL IL1A CCL20 PIKFYVE KCNIP3 FAHD2A NCL ACTR1B SLC35F5 ZAP70 ACTR3 STEAP3 EPB41L5 TFCP2L1 SF3B14 TP53I3 DNAJC27 POMC STAM2 OTOF GPD2 CENPA CYTIP ACVR1 TANC1 SLC30A3 MPV17 GTF3C2 EIF2B4 NRBP1 ITGB6 ITGA4 PSMD14 SNX17 GPR75-ASB3 PPM1G PDE1A REEP6 PCSK4 APC2 IFIH1 RPS15 GCA INO80B MOGS TTC31 NDUFS7 PCGF1 CLIP4 TLX2 SPTBN1 AUP1 RTN4 HTRA2 LOXL3 DOK1 GALNT3 POLE4 CCDC88A MRPL19 LANCL1 WDR75 EFEMP1 FANCL FN1 STAT1 GLS PAPOLG DNAH6 PECR UNC50 IGFBP2 ELMOD3 IGFBP5 USP34 EFHD1 CCT4 GGCX EHBP1 OTX1 TXNDC9 COQ10B GNLY SF3B1 ST3GAL5 CHST10 PDCL3 MOB4 HSPE1 KDM3A PLCD4 CHMP3 ZNF142 IL1R2 IL1R1 WNT6 IL1RL2 IL1RL1 IL18R1 IL18RAP FHL2 CNPPD1 UXS1 ABCB6 STK16 HDLBP PPP1R7 PASK STK25 PROC ID2 TAF1B HPCAL1 ODC1 BIRC6 NOL10 PLEKHB2 GORASP2 STRN CEBPZ PRKD3 DCAF17 QPCT RAB3GAP1 SLC25A12 RMDN2 DLX2 LCT DARS SRSF7 SDC1 PLCL1 SLC1A4 SOS1 KYNU WIPF1 ORC2 COX7A2L PNO1 ORC4 PLEK RND3 ATF2 THADA AAK1 TRAK2 C2orf42 TIA1 PCYOX1 KISS1R EPAS1 ARID3A SUMO1 GRIN3B NFE2L2 MSH6 PLEKHA3 SPR EPHA4 PARD3B FARSB ALMS1 BCL9 DHCR24 DNAJC16 TNR MORN1 GPX7 CACYBP SCP2 TPSG1 RALGPS2 CEP104 FAM20B TCEANC2 TMEM59 LRRC42 WRAP73 MRPL37 ICMT RPL22 CHD5 QSOX1 STXBP3 PHF13 ERRFI1 PARK7 KIAA1324 AMPD2 SRSF4 MECR KCNC4 EDEM3 WDR77 ATP5F1 RAP1A HDAC1 CAPZA1 S100PBP RNF19B SCAMP3 TRIM62 ASH1L DLGAP3 SFPQ RHOU GON4L ARHGEF2 LAMTOR2 MEF2D DOCK7 SRM DLEU2L FBXO2 FBXO6 C1orf21 SWT1 MAD2L2 DNAJC6 LEPR IVNS1ABP KIAA2013 MFN2 PRG4 MIIP SMG7 NCF2 SLC35D1 PLA2G4A GADD45A WLS PRDM2 RGS2 TROVE2 AMPD1 UCHL5 BCAS2 SRSF11 CTH AGMAT OLFML3 PLEKHM2 CRYZ PHTF1 ZBTB17 CD58 TFAP2E CD2 TTF2 NR5A2 KIF21B TMEM9 ADPRHL2 MAP7D1 WARS2 RP11-268J15.5 OSCP1 MRPS15 EXOC8 GNPAT TSNAX C1orf109 RRAGC TBCE NID1 LGALS8 HPCAL4 MTR BMP8B MYCL SIPA1L2 RLF KMO ZNF684 KCNQ4 RIMS3 AKT3 ETV3 ACADM SLAMF1 CD48 LPHN2 PADI2 SDHB MFAP2 RPF1 KDM5B UAP1 CTBS KLHL12 SSX2IP ZNHIT6 PLA2G2D RBBP5 GBP3 GBP1 PINK1-AS KIF17 GPR89A CDK18 RAB7L1 CD160 TXNIP ECE1 HMGCL GALE ID3 CR2 CD46 PRPF3 APH1A LEPRE1 SLC2A1 EBNA1BP2 CDC20 MPL ARTN IPO13 ATP6V0B B4GALT2 ERI3 PTCH2 AKR1A1 PRDX1 PIK3R3 BLZF1 CCDC181 SLC19A2 FAAH NSUN4 TMED5 DR1 CNN3 PRRC2C F3 ABCD3 VAMP4 DPH5 FASLG PTBP2 TNFSF4 PRDX6 DARS2 IRF6 DIEXF RCAN3 SYF2 C1orf63 SLC35A3 RCOR3 STMN1 MTFR1L MAN1C1 NEK2 RPS6KA1 DHDDS NENF NSL1 ARID1A CENPF RPA2 PPP1R8 STX12 2-Mar 2-Mar SLC5A9 OSBPL9 TXNDC12 ESYT2 CD3EAP MESDC2 RCN2 CHRNB4 CTSD COLEC11 STAG1 STK11 KMT2A IFT46 MMP8 APOA1 ZNF541 KPTN RPS25 KIF14 DDX59 CAMSAP2 ATF6 CRYGD MREG FASTKD2 NRP2 CREB1 KLF7 B4GALT6 C1orf54 CASC1 LRMP SPCS2 USP35 ELOVL4 CASP8AP2 HMGN3 UBE3D CNR1 ANKRD13C SGIP1 PHF3 PLAGL1 FBXO30 TNFAIP3 AKAP7 RAB32 MYB ALDH8A1 SGK1 RNF146 ARG1 CTGF PMFBP1 FBXL5 MED28 SLC16A7 TMEM5 ZNF430 VAMP8 DCLRE1B MYL12B FOXO3 ARMC2 RPN2 TGIF2 PKD2 ABCG2 SPP1 FAM47E-STBD1 CCNI RARRES1 MFSD1 RAB3GAP2 FAM86A PPL UBN1 KLF12 UCHL3 PCDH17 HS1BP3 C2orf43 WDR35 CCND2 HIN1L ELL2 DNAH7 CYP20A1 NDUFB3 GTF3C3 SATB2 UBE2B TRPM6 GDA KLF9 TJP2 ITGB1BP1 CPSF3 PIGZ SENP5 CCDC92 C1orf198 HEATR1 PTBP3 RAD23B FKBP15 CTNNAL1 FAM206A WDR34 SET PPP2R4 GLE1 RAB14 CNTRL TRIM32 FBXW2 PHF19 NEK6 BSPRY PPP6C NDUFA8 HDHD3 RBM18 SLC46A2 HSDL2 MAPKAP1 NR4A3 INVS GALNT12 DENND1A ALG2 CSF3R KDSR VPS4B ONECUT2 C19orf25 ZBTB45 YLPM1 DCAF4 PROX2 FCF1 PGF IFI27L2 CCDC176 NEK9 ACYP1 IFT43 NPC2 DNAL1 IRF2BPL ACOT2 LTBP2 AREL1 MLH3 TTLL5 FLVCR2 ABCD4 DLST PPP4R4 TGFB3 ZC2HC1C SLIRP RBM25 ALDH6A1 GPR68 ESRRB EIF2B2 NRDE2 COQ6 ZNF410 RHOQ GPR75 SUPT7L KLHL29 DNMT3A TMEM214 ATAD2B FKBP1B ATL2 YPEL5 FAM98A YIPF4 AFTPH LGALSL CNRIP1 BCL11A CRIPT EPCAM SLC17A5 OGFRL1 FAM178A IDE ELOVL3 IFIT3 NKX2-3 IFIT2 GPAM CUTC PYROXD2 CNNM1 MXI1 SMNDC1 C10orf88 HELLS TCTN3 FAM45A AVPI1 WDR11 C10orf76 KCNIP2 CCDC147 GOT1 SFRP5 GNA13 HOXB8 KANSL1 HOXB5 HOXB3 DUSP1 PANK3 MSX2 TEK RCL1 CAAP1 MOB3B CD274 NUP43 MTHFD1L LRP11 CCDC170 PCMT1 PLEKHG1 MYCT1 CXorf21 CYSTM1 WDR55 ARAP3 PCDHB10 PCDHB14 PCDHB12 TNN MRPS14 CENPL SEC16B GORAB ACAT2 TCP1 SNX19 KCNJ5 MSANTD2 PDZD11 SLC10A7 NUDCD1 ENY2 MASTL KIAA1217 SEPT7P9 MRC1 PLXDC2 EPC1 IQSEC3 CCDC77 TAF12 ENOX1 TNFSF11 MTRF1 SPG20OS SOHLH2 DNAJC15 PROSER1 UFM1 WBP4 ELF1 SMAD9 HSPH1 KBTBD7 ALG5 EXOSC8 ETF1 TGFBI FAM53C SIL1 PAIP2 KDM3B EGR1 SERP1 PLS1 ZFP30 NR2C1 UTP20 TMPO ARL1 MTERFD3 SOCS2 NFYB CCDC53 APAF1 DUSP4 CLU TNFRSF10B SORBS3 PTK2B PPP3CC PDLIM2 EPHX2 RNF170 UBIAD1 TARDBP TNFRSF8 ZNF706 LYPLA1 CRISPLD1 COPS5 RDH10 EPX AKAP1 COIL TRIM25 SCPEP1 SPOP SLC35B1 NACA3P TEX14 FAM117A NCAPH KIAA0922 MND1 TRIM6 PAPD5 ADCY7 CEP89 TSHZ3 ECHDC2 PLBD1 TAS2R10 PYROXD1 BCL2L14 PSPC1 ZNF549 A1BG ZSCAN18 ZNF211 LHX4 RNF2 TRMT1L SEC22A CSTA DPPA4 POPDC2 B4GALT4 NAA50 CD80 KIF18A DESI2 MAPK8IP1 CRY2 PEX16 DEPDC7 CAT PILRB ZMYM2 GJB6 GJA3 TBC1D15 BAI2 ZCCHC17 FABP3 KHDRBS1 TMEM39B CCRL2 CCR2 RNF115 POLR3GL TNFSF10 ZNF639 PIK3CA PDS5A TMEM156 LIAS ZSCAN20 LRIF1 ADORA3 CLCC1 GPSM2 GTDC1 CXCR4 ZRANB3 ACVR2A POLK SV2C FLT3 RPL21 MTIF3 GTF3A RASL11A UBL3 FYTTD1 MTERFD2 XPNPEP2 SASH3 OCRL MRPS2 FMOD LAX1 KIAA1191 COPA CD244 LY9 HS3ST2 RBBP6 ZC3H7A SERAC1 ANXA11 FAM35A FAM213A ZNF205 NAA60 RPL5 ODF2L PTGFR SPATA1 TRMT13 LRRC39 RWDD3 ZNF644 CCDC18 RPAP2 PQLC1 NBPF14 BBS9 PMS2 ZMIZ2 OCM 7-Sep EEPD1 KIAA0087 KLHL7 HERPUD2 CBX3 HNRNPA2B1 WIPF3 FAM126A HOXA7 INHBA FKBP9 NT5C3A ARL4A CCZ1 POLM RAMP3 FTSJ2 TWIST1 SMU1 GLIPR2 SLC25A51 CLTA RECK ACO1 KIAA1045 DCAF10 KIAA1549 TRIM24 C7orf49 CALD1 NUDT10 PLAU SRGN CHST3 BICC1 CISD1 EGR2 ECD P4HA1 SLC25A16 ZWINT VPS26A RBM19 CIT IFT81 ACADS HVCN1 NME2P1 DDX54 MED13L CDKN2C RNF11 RASSF8 BHLHE41 SSPN ITPR2 CCDC91 NECAB1 WWP1 ACOT9 PRDX4 DDX39A PKN1 C19orf43 CD97 WDR83 GIPC1 SPRYD7 EBPL ATP7B ZC3H13 GUCY1B2 NLN CENPK OPTN ITIH5 ATF1 TSFM ARHGAP9 NCKAP1L MMP19 PFDN5 SPATS2 ORMDL2 NR4A1 PDE1B CDK2 LRP1 C12orf44 NFE2 IKZF4 SMUG1 TUBA1B METTL21B KBTBD4 SARDH ATPAF1 STIL HJURP AMD1 NDUFAF4 USP45 MORF4L2 RAB9B FAM199X RAB9A METTL8 TTC21B NMI TNFAIP6 ACVR1C BAZ2B SLC36A1 LPGAT1 BATF3 G0S2 KCNJ2 RAP2C EXOSC9 PLA2G12A B9D2 ADCK4 PFKFB2 C4BPA C4BPB ZNF137P RAB38 GPR83 AGO2 MXD4 PMS2P5 CKS2 ACSL3 CHPF DNPEP INHA OBSL1 FAM124B SLC12A4 ENKD1 HMGB1P1 FAM210B PI3 FAM209A SNX21 SLPI WFDC3 TTPAL PREX1 KCNS1 SLC12A5 SDC4 NCOA3 PIGT MATN4 NCOA5 VAPB PARD6B ATP5E CHD6 PLCG1 TOX2 SRSF6 ARFGEF2 ZNFX1 ZNF831 CSE1L RAB22A PTGIS STAU1 CDH26 SNAI1 MOCS3 STX16 PPP4R1L PMEPA1 RNF114 DDX27 BCAS4 ZBP1 NEURL2 MTRR FASTKD3 PEPD IQSEC2 VAMP7 IL9R XG STAMBP NAGK MCEE PAIP2B SNRNP27 MPHOSPH10 RP11-663P9.2 ATP8A1 USP22 ZNF576 ZNF45 LYPD3 CEACAM8 USP9X CRISP2 F13A1 TRERF1 PACSIN1 BTN2A2 SIRT5 HIST1H4B MRS2 WRNIP1 RRP36 BTN2A3P SNRPC SERPINB6 XPO5 ABCC10 HIST1H1D PEX6 NQO2 PRICKLE4 OARD1 UNC5CL AARS2 ZNF391 RPS10 MOCS1 HIST1H2BJ MED20 OR2B6 TBCC SPDEF TCP11 MAD2L1BP HIST1H3B KLHDC3 GNMT DNAH8 TREM1 MEA1 KLHL31 CDKN1A SOX4 GLO1 CPNE5 KCNK17 RREB1 SSR1 RIOK1 NRN1 SLC35B3 RPP40 ATXN1 NUP153 DEK EEF1E1 RUNX2 LRRFIP1 RAB17 CXCL6 EREG MYRF AHNAK EMC3 WNT1 SH3TC1 CNOT1 LRRC29 BBS2 MT1G MT2A C16orf70 GOT2 DOK4 GPR18 CLYBL TMTC4 RAP2A ABCC4 EFNB2 TM9SF2 C17orf53 IRF1 UPF3B RNF113A 6-Sep TMEM255A NDUFA1 ATP5S BMP4 PTGER2 FAM193A GRK4 SOX9 HS3ST3B1 SLC25A35 MRPS7 GGA3 ARMC7 NUP85 SLC25A19 MIF4GD NT5C MSTO1 C1orf61 TTF1 GTF3C4 DDX31 PPP1R12C MBOAT7 OPRL1 SLC2A4RG C20orf195 BHLHE23 PPDPF IL1B PLGLB2 CHCHD5 PAX8 INSIG2 POLR1B CCDC93 PSD4 SLC25A23 PSPN GTF2F1 ALKBH7 CLPP TNFSF9 THOC2 MED1 RPL23 ATG4C CD70 C3 SH2D3A TRIP10 GPR108 TNFSF14 FOSB OPA3 SNRPD2 RTN2 EML2 VASP SYMPK GPCPD1 SDCBP2 PANK2 TGM3 GNRH2 CD93 GZF1 NAPB CENPB PSMF1 DTD1 RBCK1 TMX4 STK35 SNRPB NRSN2 AP5S1 RRBP1 BMP2 ZNF133 FLRT3 MKKS BFSP1 DSTN LAMP5 SNRPB2 MGME1 TBC1D20 ITPA TCF15 MCM8 FAM110A SIRPD MRPS26 S1PR4 NCLN CITED1 HNRNPR ZNF436 MAX ARMCX5 NECAB3 ID1 RALY DYNLRB1 EIF2S2 ERGIC3 ROMO1 CEP250 PLAGL2 MMP24-AS1 GRPR KDM5C AMOT TMEM115 PSMB2 AGO3 UROD ST3GAL3 TMEM53 HECTD3 KLC1 XRCC3 TUBGCP3 MCF2L PCID2 LRFN3 IGFLR1 CAPNS1 PDCD2L RBM42 KIRREL2 UBA2 FFAR2 HCST FFAR1 COX6B1 THRA CCR7 NR1D1 FRMD8 PRDX5 BCL2L12 IRF3 PRMT1 RRAS PRRG2 SCAF1 PRR12 TSKS FLRT1 ASL SBDS CSN1S1 STAT5A WNK4 BECN1 PRKCG TRAP1 GLIS2 NSRP1 DNAJC8 AHDC1 IFI6 ZNF384 EMG1 UXT CFP ELK1 TIMM17B PCNXL4 ATG14 KTN1 DLGAP5 L3HYPDH HSPA2 ZBTB1 TRMT5 SGPP1 PLEKHG3 RHOT1 EVI2A OMG WDR60 AIF1L FAM78A NUP214 AVPR2 SLC10A3 MAP2K2 HNRNPH2 ARMCX1 TIMM8A ZC4H2 CANX CPSF3L RGS13 IPPK ZNF484 FGD3 HIVEP3 PPCS BCL11B COX7C TRAF2 ABHD8 ATP13A4 HELB RAP1B BEST3 RAB3IP PTPRB DYRK2 YEATS4 TAS2R3 TAS2R4 TAS2R5 LRRC61 TRPV5 IDUA FGFRL1 TMEM175 AUNIP PIN1 FBXL12 EMC1 UBR4 HP1BP3 EMR2 SIN3B SLC35E1 EPS15L1 KLF2 F2RL3 UQCR11 GFER SYNGR3 PKMYT1 WFIKKN1 WDR24 FBXL16 CHTF18 TUBBP1 MACF1 SMARCA4 KDM4B TICAM1 METTL25 EMC6 METTL16 TUBA4A VIL1 AAMP PNKD TNFRSF19 RNF6 ECHS1 ZNF835 AKAP9 GNG11 SHFM1 HIP1 PTPN12 POR FGL2 STYXL1 STEAP4 GNAI1 PMS2P3 PEX1 MTERF SGCE RBM48 CASD1 ZNF780B LRFN1 ZFP36 SRD5A3 SPINK2 PAICS KDR PPAT TUBGCP6 ADM2 DGCR6L DGCR8 ASPHD2 VPREB3 SDF2L1 GAL3ST1 YWHAH RFPL2 C22orf24 GNAZ MGAT3 ADORA2A ATF4 A4GALT CDC42EP1 APOL3 MCHR1 TPST2 BAIAP2L2 MPST TST IGLL1 APOL2 RAC2 LIF APOBEC3A APOBEC3F RIBC2 KRT17 TBC1D27 EMC4 RNF112 SPECC1 DOCK4 POT1 ATP6V1F NAA38 CDHR3 PRKRIP1 PODXL FOXP2 STRIP2 RABL5 MKLN1 DNAJB9 FLNC LRRC4 CALU CCDC136 SMO IRF5 LRRC17 KLHDC10 NDUFA5 MRPS12 MYO1B MTX2 CHN1 GAD1 EIF2S2P4 OSGEPL1 ORMDL1 HAT1 HERC2 SNRPN PSMG2 TWSG1 ARHGAP22 WDFY4 EIF2AK4 MYO5C CGNL1 TMOD2 TTBK2 ELL3 C15orf57 INO80 NARG2 DLL4 ALDH1A2 FAM63B IVD KNSTRN DUT CHAC1 CLN6 ARPP19 VPS13C CALML4 THAP10 LOXL1 ACKR4 ANAPC13 MBD4 COPB1 PSMA1 SUMF2 PALLD SPCS3 SERGEF TPH1 E2F8 DCTD SOX15 FAM64A RPAIN USP6 PLD2 CD68 TXNDC17 ATP1B2 FXR2 KIF1C MPDU1 MMP28 CCL4 MRM1 PHF20L1 LRRC6 CCNT1 PUS7L KRI1 ILF3 SLC44A2 AP1M2 CDKN2D MTUS1 KLK14 SIGLEC9 KLK10 NGDN RIPK3 ADCY4 RAB2B BCL2L2 AJUBA DTD2 PARP2 HEATR5A FOXA1 SNX6 EAPP EGLN3 MIS18BP1 NRL RNASE1 NEDD8 DAD1 TEP1 EPB41L4A CDO1 REEP5 ITFG1 QRICH2 FOXJ1 SEC14L1 RHBDF2 ARHGEF6 MAP7D3 FGF13 ASH2L TTI2 CHRNA10 CDKN1C SGOL1 RPS4Y1 KLF16 TMEM8A DOHH MAU2 SHC2 LPPR3 ABHD17A LBP TNNI3 CBFA2T3 GAMT HDHD1 ERMARD PHF10 KCNA5 EFCAB4B NXNL2 STARD8 FAM155B SAT1 GNL3L SH3BP4 MOSPD2 DOCK6 ECSIT LDLR ELOF1 PRKCSH CDC16 ZSCAN10 THEM6 EXOC3L2 PVRL2 APOE TOMM40 APOC1 GADD45G LRCH2 XPO7 FAM98C SAFB2 RPL36 ATP8B3 KIF1A GTPBP3 PLVAP BST2 SLC27A1 NSUN5 COLGALT1 DDA1 MRPL34 PGLS LSM7 TULP4 SNX9 RTN4IP1 QRSL1 C6orf203 RSPH3 MAS1 MLLT1 FUT5 MLLT4 ACTN4 STK33 NDUFA10 ARPC1B CACNG6 ZSWIM6 FCHO1 UNC13A MAP1S KLHDC7B SCO2 PXDN SSBP4 GDF15 PGPEP1 KIAA1683 LSM4 JUND TRPM4 SULT4A1 ZNF557 CRB3 OLFM1 CAMSAP1 UBAC1 SAG ZBTB46 HELZ2 SAMD10 LSP1 TNNT3 TNNI2 H19 COL5A1 ATXN10 TUBGCP2 CALY CYP2E1 PNPLA7 HBZ PAK4 MNX1 ZNF337 CEP85 TAF4 GATA5 LAMA5 OSBPL2 ADRM1 ASS1 EXOSC2 POMT1 UCK1 FIBCD1 PRRC2B CHMP2A UBE2M TRIM28 C16orf13 YIPF2 ATG4D EIF2S3 TMEM160 ZC3H4 NPAS1 GMFG MAP3K10 ARHGEF16 LRRC47 SESN2 SMPDL3B ATPIF1 MED18 THEMIS2 CLIP1 CCDC62 HIP1R ZNF317 PPAN EIF3G ANGPTL6 C19orf66 DNMT1 ZNF426 SLC6A8 DKC1 PLXNA3 MPP1 ZNF331 ZNF236 SLC7A10 LRP3 C12orf65 NOL11 UBE4B CASZ1 PKDREJ HSD17B3 HABP4 SLC35D2 PRRG1 UBA1 POLN TXLNG2P PPIL4 ULBP2 AKAP12 SYNE1 ULBP3 LATS1 EPS8L1 LILRB2 AAR2 TTLL9 RBM39 ZNF341 GGT7 ACSS2 EDA2R ARHGEF9 C1QL1 ATP6V1E1 ZNF227 ZNF428 ZNF141 CCL25 COX4I1 EMC8 GSE1 GINS2 CHMP1A SH3BGRL COX7B SLC34A1 F12 PRR7 NFATC1 IDO1 CAP1 PPT1 RAB11FIP4 RLIM ABCB7 TRAF3 HAUS8 EMR3 MRPS25 SH3BP5 HACL1 TBC1D5 CAPN7 RFTN1 C3orf20 ZFYVE20 SLC6A6 KCNC3 NAPSA NAPSB NR1H2 PDLIM4 KIF3A MGAT1 GFPT2 TUBG1 PSME3 RPL27 PSMC3IP AOC3 ACLY VPS25 AOC2 NDUFA2 ANKHD1 DIAPH1 NDFIP1 UBE2D2 EXOC4 ACAP3 C1orf159 ANO1 PPFIA1 TMEM204 KREMEN2 THOC6 TRAF7 NINJ1 CA6 NPHP4 MAP1B IL13RA1 WDR44 ZCCHC9 TNS4 TOP2A STARD3 RARA PPP1R1B KHDRBS3 CHD1L PEX11B FMO5 PIAS3 PRKAB2 RBM8A CLUHP3 PDHA1 RAI2 MCCC2 ZNF304 ZSCAN5A ZNF132 VIMP CHSY1 SNRPA1 KRT17P1 LLGL1 THAP1 RHPN2 C19orf12 C19orf40 ACTR10 ABHD12B GCH1 LGALS3 UBE2L2 PODNL1 DNAJB1 ZSWIM4 FBXW9 RFX1 ZNF20 C19orf57 DCAF15 CC2D1A TRIM21 SPATA6 LRRC41 GAS2L2 CCT6B ACACA DHX30 RAF1 PPARG NUP210 FCRLA HSD17B7 ENOSF1 EMILIN2 ARFIP2 TRIM5 CNGA4 TRIM22 RRP8 TIMM10B EFR3A PTCD3 IMMT MRPL35 IQCA1 ILKAP PER2 RAMP1 SCLY PTPRE RAN PRKAA1 CARD6 RAP1GAP2 CLUH INPP5K MYBBP1A RPA1 SERPINF1 UBE2G1 EEFSEC TBC1D14 TMEM128 COQ3 PNISR SEC61G LANCL2 FIGNL1 GRSF1 IGJ ANKRD17 UTP3 ITGB4 WBP2 H3F3B UNK TRIM47 ZRANB2 EIF5A KDM6B CLEC10A GUCY2D GPS2 XAF1 DLG4 HRSP12 VPS13B MATN2 REEP2 PCBD2 SDF2 FLOT2 ERAL1 PRMT7 NIP7 TERF2 VPS4A MTSS1L HSPA12B ANKEF1 PCED1A BTBD3 PCNA NXT1 POLR3F RIN2 PTPRA DAP3 KIAA0907 ATP1A4 NES ARHGEF11 RAB25 FCRL2 DCAF8 SYT11 IGHMBP2 ACY3 MTL5 MMACHC DPH2 TOE1 NASP MUTYH CTNNBL1 LPIN3 ZSWIM3 RBM38 VSTM2L OSER1 SERINC3 PPP1R3D RP11-445H22.3 DMGDH AP3B1 ZBED3 INADL SLC14A2 FBXO44 RSG1 CASP9 DCTN4 PDE6A ATP8A2 MTUS2 ZMYM5 USPL1 XPO4 TPTE2 POMP CDK8 ALOX5AP HMGB1P5 WASF3 GPR12 CHRM3 MYH10 PEMT SCO1 MPRIP CHI3L1 MYBPH PIK3C2B DSTYK CHIT1 SLC41A1 LGR6 TMCC2 CCNA1 COG6 SPG20 EPSTI1 POSTN RFXAP TPT1 GPALPP1 STOML3 KL RFC3 STARD13 MORC4 BEX2 GNG5P2 TBC1D8B TCEAL4 BEX1 FAM104A SLC39A11 EPHB2 SRRM1 BTBD2 PRAM1 SUV420H2 ZNF414 PDE6B HSPBP1 CSNK1G2 ANKRD32 CNDP2 MACROD1 WDR74 LGALS12 RTN3 RARRES3 MYH11 FOPNL MED10 PDZD2 MORC2 LARGE MYO18B SLC2A11 C1QTNF6 FAM83F SEC14L4 ZDHHC8P1 GIMAP6 GIMAP4 ADCK2 MKRN1 AGAP3 KRBA1 ZNF767 ACTR3B BTG1 C12orf29 ATP13A3 SFTPD TMEM254 TMTC1 KRAS IPO8 LARS IMPA1 LRRCC1 E2F5 CA1 CCDC59 SWAP70 ARNTL LYVE1 AMPD3 MICALCL SBF2 MICAL2 RRAS2 HSD17B4 ZFC3H1 TEX15 TMEM66 RNF122 DPF2 MEN1 C14orf1 GSC C14orf159 UNC79 NUMB CATSPERB COX16 TTC9 MED6 EIF2S1 LOXL2 ELP3 ADAMDEC1 CTIF MBD2 IER3IP1 MRPS36 CCNB1 CDK7 CD180 IRAK2 CAMK1 THUMPD3 VHL BHLHE40 ARL8B EDEM1 CHL1 MEIS2 DPH6 KATNBL1 EMC7 GSTM1 PRPF38B REG4 TSPAN2 GSTM5 GSTM3 VAV3 PSRC1 PTPN22 SORT1 WNT2B PTGFRN LAMTOR5 NOTCH2 TRIM45 CEPT1 CD101 AP4B1 NAPG SPIRE1 PPHLN1 FKBP11 ARF3 TMEM106C SLC38A2 PLEKHA8P1 YWHAQ KIDINS220 GRHL1 ROCK2 RSAD2 MYCN LPIN1 CMPK2 IAH1 LDHA IL6ST FST NAV1 CDC73 TIMM17A CRB1 RPS15A NARS KIAA1468 FBXO18 RBM17 IL2RA ANKRD16 ECHDC3 IL15RA CCNH HRH4 TMEM241 KCTD1 CABLES1 DOCK2 EMP1 SOX5 KLRD1 KLRC1 C12orf39 LRP4 MYBPC3 DDB2 ACP2 FAM127A RAB33A RBMX2 MST4 PIWIL4 PUM1 SPOCD1 YARS PHC2 CDCA8 GNL2 AGO4 HOOK1 CYP2J2 BTF3L4 ZCCHC11 PRPF38A DSC2 RNF138 ELP2 DSC3 DSC1 DTNA TPGS2 DAGLA SLC43A3 TIMM10 DHX34 APLNR FADS2 TMEM258 TCN1 C5AR2 TMEM165 CLOCK PDGFRA GGACT COL4A2 CLDN10 DZIP1 UBAC2 ARGLU1 BIVM ERCC5 TPP2 KDELC1 CARS2 ARHGAP32 STT3A ETS1 SLC37A2 TMED7 APC NREP WDR36 OSTF1 RFK UBQLN1 NAA35 C9orf40 ANXA1 CTSL TMEM2 AGTPBP1 GOLM1 PSAT1 ISCA1 ADAM19 HAVCR2 CCNJL TAOK3 USP30 SDS FBXO21 TBX3 OASL HRK RNFT2 P2RX4 CCDC64 DTX1 TRAFD1 DMTF1 TMEM243 CCDC146 TMEM60 POM121C CD36 PNPLA8 HILPDA RINT1 SRPK2 KCP TES MDFIC MTO1 BAI3 ANKRD6 HTR1B KHDC1 KIAA1009 SYNCRIP SNX14 NT5E AKIRIN2 ORC3 LCA5 MAP3K7 PRR5L LMO2 PHF21A NAT10 EHF PRRG4 CAPRIN1 ATP5G2 DNAJC14 CD63 PRPH AVIL AMHR2 GDF11 GLS2 ITGA7 TESPA1 FAM186B RDH5 AGAP2 BLOC1S1 CDK4 TROAP TSPAN31 TFCP2 COQ10A PAN2 ESPL1 KRT7 ZC3H10 HNRNPA1 SLC26A10 ACVR1B OS9 MIP KCNH3 LTV1 MAP7 CD164 LACE1 NHSL1 AHI1 HEY2 PKIB SMPD2 MICAL1 REPS1 STX11 TEC PRADC1 SEMA4F CCT7 EGR4 RAB11FIP5 SMYD5 DYSF CCDC142 KCNMB4 USP15 GNS CPM MDM2 KLHL36 MPHOSPH6 KIAA0513 DYNC1LI2 FBXL8 FHOD1 CCDC102A SLC9A5 AGT ZNF670 PCNXL2 KCNK1 URB2 EGLN1 COG2 ABCB10 NTPCR TAF5L GLUL STX6 RNASEL DHX9 KIAA1614 CEP350 NPL FAM129A PIGC ACBD6 LAMC1 RC3H1 GPR55 SP110 MRPL44 DOCK10 TTLL4 USP37 ITM2C SERPINE2 DNAJB2 WNT10A TMBIM1 CYP27A1 EIF4E2 ARMC9 CAB39 COX5B REV1 TSGA10 MFSD9 TMEM127 EDAR TGFBRAP1 GCC2 MRPS9 C2orf49 ANKRD36 EPC2 ARHGEF4 ISCU ALDH1L2 STAB2 USP44 SCYL2 CKAP4 PLXNC1 APPL2 PWP1 DRAM1 KIAA1033 SLC41A2 VILL FLNB NEK3 VPS36 RNASEH2B CKAP2 LECT1 TBC1D4 THSD1 BORA LRCH1 SUCLA2 RCBTB1 MED4 PHF11 RPL13AP25 COG3 LMO7 ITM2B SPRY2 NUDT15 EDNRB RCBTB2 LCP1 SETDB2 SCRN1 C7orf25 TNS3 CHST12 IGF2BP3 GPNMB RAPGEF5 RAC1 KDELR2 NUPL2 IL6 ZDHHC4 AOAH BZW2 TBRG4 DDX56 HUS1 NACAD DBNL CCM2 MYO1G TTYH3 CIDEB RP11-84C10.2 TTC5 ZFHX2 MTHFS ADAMTS7 ABHD17C IREB2 ALPK3 TM6SF1 CIB2 CALCOCO2 RSAD1 NMT1 MYCBPAP SRSF1 VEZF1 TACO1 TEX2 DCAF7 LIMD2 BRIP1 KAT7 RTP4 ACTL6A NDUFB5 MRPL47 TRA2B SCN2A 7-Mar ERMN GALNT5 TANK BLK SKIL EPRS HLX VPS45 IL10 KCTD3 RPS6KC1 RASSF5 CBWD2 IL1RN SMPD4 WDR33 CCDC115 SAP130 BIN1 IMP4 HS6ST1 UGGT1 GYPC STAM ABI1 YME1L1 DNAJC1 NIPSNAP3A LRRC8A CDK9 TXN ODF2 KIAA0368 TOR1B C9orf78 SMC2 KLF4 TOR1A RALGPS1 FAM129B ST6GALNAC4 TMOD1 DAB2IP STXBP1 SLC2A8 ANGPTL2 CDK5RAP2 ZFP37 SLC31A2 SLC31A1 TLR4 ZNF189 STX17 PRPF4 FPGS USP20 ATP6V1G1 TEX10 GARNL3 MRPL50 DPM2 TSTD2 HEMGN PSMB7 NR5A1 C9orf156 RABEPK GOLGA1 XPA NCBP1 ANP32B PDCL RPL35 CTSV LMX1B ARPC5L ENPP2 DSCC1 DERL1 MYC NOV IL33 TMEM261 RANBP6 POLR1E PLAA IL11RA UBAP2 APTX RNF38 TLN1 SIT1 DNAJB5 SPAG8 DCTN3 CD72 TMEM8B GRHPR ALDH1B1 HINT2 ARHGEF39 DENND4C RPS6 CNPY3 FOXP4 PPIL1 KLC4 KIF13A ZSCAN9 PIM1 GMPR CMTR1 TFAP2A YIPF3 TMEM14B TMEM63B FRS3 TJAP1 CAPN11 HIST1H2AB KIAA0319 IRF4 SLC22A23 TUBB2A LRRC1 GCM1 BPHL RIPK1 TUBB2B UQCC2 HMGA1 TCF19 FLOT1 IER3 MDC1 PGBD1 ATAT1 TPMT RNF144B NRM MTCH1 VARS2 TAF8 FAM8A1 C6orf52 FGFBP2 CPEB2 FHDC1 TLR2 TTC29 MYO7A FCHSD2 ARRB1 SLCO2B1 PRKRIR ANKRD42 IL18BP NUMA1 CCDC90B SYTL2 RAB30 CREBZF LRRC32 PRCP NARS2 RNF121 MRPL15 PI15 GGH SLCO5A1 TGS1 SDCBP NEK1 DDX60 SORL1 TMPRSS4 BUD13 TRPC6 MMP7 MMP27 DCUN1D5 YAP1 TRIM29 SLC37A4 POU2F3 RDX PPP2R1B FDX1 C11orf1 FXYD6 ARHGAP20 FXYD2 TMPRSS13 CASP1 CASP5 ALKBH8 MAP2K5 SQRDL CTDSPL2 SLTM THBS1 MAPKBP1 NUSAP1 NDUFAF1 KIF23 ITGA11 CASC5 HAUS2 RTF1 PARP6 RPLP1 PAQR5 LRRC49 TUBGCP4 RMDN3 ITPKA UACA SMAD6 PLCB2 TMEM62 PAK6 ADAM10 DUOX1 CYP19A1 ZNF280D SEMA6D BCL2L10 RSL24D1 SPTBN5 GCHFR BCAR3 TTLL7 FNBP1L CCBL2 GTF2B RABGGTB IFI44L GIPC2 ARHGAP29 IFI44 SLC44A5 RPL7P9 DBT RTCA IFT172 EPT1 CGREF1 HADHB KHK ADCY3 PPM1B PNPT1 DYNC2LI1 SMEK2 THUMPD2 CYP1B1 RAB1A ACTR2 PREB SLC5A6 PREPL SLC3A1 EMILIN1 FBXO11 ATRAID CENPO LRPPRC DTNB ACTR1A TMEM180 CYP2C8 MYOF LOXL4 STAMBPL1 CH25H ATAD1 KIF11 CUZD1 TACC2 DUSP5 CALHM2 ARL3 CEP55 KIF20B ENTPD1 EXOC6 RBP4 DBR1 DNAJC13 ANXA7 FAM149B1 NCOA4 TIMM23 ASCC1 ZNF365 ADAMTS14 RPS24 TET1 DNA2 AOX1 ATIC SMARCAL1 BARD1 STAT4 MSTN CARF ASNSD1 METTL5 SSB NAB1 CDK15 PPIG FASTKD1 MDH1B HECW2 IDH1 OLA1 CIR1 SSFA2 FAM117B WDR12 ABI2 ITGAV SLC40A1 SLC35A5 DIRC2 SENP7 COX17 PARP9 MNS1 USP8 SECISBP2L TMOD3 SPPL2A GLCE SHF APH1B VWA9 CILP PARP16 PPCDC SEMA7A UBL7 ARHGAP24 FAM13A HERC3 HERC6 HERC5 C4orf21 AP1AR COPS4 HNRNPD PRKG2 RASGEF1B SEC31A AGPAT9 FGF2 BBS7 KIAA1109 BMPR1B RAP1GDS1 LARP1B MMRN1 PDE5A PRDM5 NAAA NUP54 CXCL9 BMP2K G3BP2 11-Sep FRAS1 SCARB2 CCNG2 CNOT6L USO1 SHROOM3 ANXA3 PPA2 CENPE GSTCD INTS12 ENPEP CASP6 LEF1 HADH EGF PAPSS1 SEC24B PPP3CA SLC39A8 FBN2 MAPK8IP3 RGS3 GUCD1 RNF185 PARVG B4GALNT3 PDE6H ERP27 ETV6 GABARAPL1 KIF21A CPNE8 YARS2 FGD4 ALG10 FAM60A AEBP2 METTL20 ETNK1 ZCRB1 TMEM117 PRICKLE1 C1RL NDUFA9 CLSTN3 KLRG1 VAMP1 TAPBPL CD27 RBP5 PEX5 PIANP AMIGO2 SCAF11 COL2A1 LLPH RPL14P1 9-Mar GLIPR1 PHLDA1 TMEM19 DUSP6 POC1B TMTC3 LUM SNRPF AMDHD1 NEDD1 SYCP3 GAS2L3 SLC15A4 TDG RITA1 SDSL MMAB GLTP GIT2 TCHP FAM222A NUPL1 MTMR6 SLC46A3 SLC7A1 LNX2 SUOX CCDC65 SLC39A5 TARBP2 RDH16 ACVRL1 GPR84 NABP2 N4BP2L1 CELA1 SMARCC2 BRCA2 KANSL2 CERS5 MAP3K12 ITGB7 GALNT6 CSAD LMBR1L C12orf10 ESYT1 TMBIM6 ANKRD52 ZNF740 WDFY2 HNRNPA1L2 LPAR6 ESD RB1 SBNO1 MORN3 SETD1B VPS33A VPS37B RHOF DENR DIAPH3 SLAIN1 RBM26 MBNL2 ABHD13 RAB20 GRTP1 CUL4A CDH24 REM2 CBLN3 TSSK4 NOVA1 FITM1 TMX1 FRMD6 PELI2 RTN1 C14orf37 SLC38A6 NAA30 DCAF5 RAB15 WDR89 ESR2 STON2 EFCAB11 GPR65 PTGR2 JDP2 AK7 SLC24A4 FBLN5 C14orf79 WARS WDR20 NIPA2 HERC2P2 SLC12A6 DUOXA1 MFAP1 TCF12 SORD SERF2 ZSCAN29 DUOX2 LYSMD2 SLC27A2 FGF7 HDC BNIP2 GTF2A2 SRP14 BAHD1 DISP2 CDAN1 TLE3 ANP32A COMMD4 UBE2Q2 PSTPIP1 ETFA BCL2A1 HMG20A SCAPER TSPAN3 WDR61 NCOA2 NEIL1 MAN2C1 DNAJA4 MESDC1 TPM1 IGF1R ARRDC4 PIF1 USP3 BBS4 PML ADAMTS17 LINS ULK3 PCSK6 SCAMP2 HAPLN3 POLG FANCI ABHD2 WDR93 TICRR NTRK3 DET1 MFGE8 ZNF710 UNC45A MCTP2 FURIN IQGAP1 CRTC3 EFTUD1 SEC11A 12-Sep GLYR1 PMM2 SLC5A2 ITGAX TGFB1I1 C16orf58 ARMC5 PARN FTO UQCRC2 CDR2 IGSF6 ARHGAP17 MYLK3 NKD1 DHX38 TXNL4B ZFHX3 CLEC18B CPNE2 NLRC5 KATNB1 KIFC3 ADAMTS18 NUDT7 GCSH CMTM3 CMTM2 CDH11 NOL3 MAP1LC3B MBTPS1 ZCCHC14 TLDC1 OSGIN1 IRF8 RHOT2 ZSCAN32 RPS2 NDUFB10 PDPK1 TIGD7 DEF8 TCF25 GALNS GAS8 MED9 NCOR1 COPS3 GID4 ZNF287 KSR1 CIRH1A RANBP10 CTRL DPEP3 GFOD2 NOB1 PRPSAP2 MYO19 DDX52 RASL10B UNC45B PCTP TOM1L1 C17orf80 TOB1 VPS53 SGSM2 NPEPPS SKAP1 LRRC46 SCRN2 SSH2 RHBDL3 ARSG ABCA8 G6PC3 CLTC C17orf64 BCAS3 PTRH2 SS18 TAF4B AFG3L2 SLMO1 IMPA2 GNAL SLC39A6 RPRD1A C18orf21 GALNT1 ADCYAP1 GAREM ESCO1 OSBPL1A GATA6 C18orf8 PELP1 NPC1 SLC14A1 ARRB2 ZMYND15 WRAP53 MINK1 SAT2 ASGR1 PIK3R5 TP53 CCDC40 ARHGDIA TMC6 SLC16A3 CARD14 TTYH2 RAB40B EIF4A3 CSNK1D ANAPC11 TBCD FN3KRP NARF RPTOR FOXK2 TRIM65 CBX8 SECTM1 RNF157 AZI1 WDR45B CBX4 RNF165 DYM ELAC1 MBD1 SMAD4 TNFRSF11A ZCCHC2 FBXO15 CBLN2 PMAIP1 LEPREL4 NT5C3B FAM134C PIP4K2B ERBB2 MIEN1 PNMT ARL5C IGFBP4 FKBP10 TXNL4A CACNA1A hsa-mir-1199 SAMD1 BRD4 SLC39A3 NFIC TPGS1 PPAP2C PRDM15 PFKL FEM1A VAV1 MVB12A CIB3 SH3GL1 DUS3L DPP9 DMRTC2 CCDC97 TMEM91 ZFP14 SIRT3 IFITM3 ATHL1 COL6A1 IFNAR1 SOD1 COL6A2 SIK1 TRPM2 SCYL1 TMEM50B APP DOPEY2 URB1 AKT1 EMP3 SAE1 NTN5 LMTK3 GEMIN7 WTIP ADAMTS10 RNPEPL1 CAPN10 MYO1F ERVK3-1 NLRP12 CACNG8 ZNF787 C19orf52 CARM1 EVI5L SLC47A1 PSMB6 GPR32 SIGLEC10 ZNF473 FAM71E1 RPS11 RPL13A CTU1 NOSIP IGLON5 RCN3 ZNF614 SLC2A5 RERE MMEL1 PRDM16 PADI3 FHAD1 EPHA2 ARHGEF19 EFHD2 PEX14 PGD SH3BGRL3 CNKSR1 RPL11 ZNF593 C1orf216 KIAA0319L EVA1B PLK4 MAP3K6 GPN2 SYTL1 WDTC1 NBPF3 HSPG2 ITGB3BP SERBP1 BCL10 CYR61 PRKACB PIGK TINAGL1 ADC RPS8 KIF2C PTPRF BEST4 MOB3C LMO4 MTF2 SLC44A3 IGSF3 ZNF697 CTTNBP2NL STRIP1 PSMA5 FNDC7 C1orf162 CD53 CELSR2 ITGA10 GPR161 ALDH9A1 ATP1B1 TIPRL NME7 POGK MPC2 CREG1 DCAF6 GPA33 TBX19 UCK2 TMCO1 XCL1 XCL2 POU2F1 MAEL ILDR2 MGST3 ADCY10 RFWD2 PVRL4 UFC1 PPOX FCGR2A NUF2 RGS5 SDHC PFDN2 USP21 PRCC FCRL5 RRNAD1 MRPL24 PIGM CASQ1 ISG20L2 CRABP2 HDGF ABL2 XPR1 RGS16 TOR1AIP1 HMCN1 RGL1 LYPLAL1 PRUNE RORC TUFT1 SF3B4 ECM1 ZNF687 TARS2 CGN SNX27 SETDB1 ADAMTSL4 MCL1 CTSK RFX5 PI4KB PIP5K1A ANP32E FAM63A ANXA9 SELENBP1 CERS2 ENSA AC027612.6 SEMA6C MRPL9 ARNT POGZ C1orf56 OAZ3 HORMAD1 GOLPH3L GABPB2 IKBKE DTL DYRK3 EIF2D INTS7 VASH2 TAF1A SMYD2 SUSD4 DUSP10 HHIPL2 TP53BP2 ATP8B2 ADAM15 JTB RAB13 S100A8 TPM3 NUP210L SNAPIN SLC27A3 UBAP2L SLC39A1 HAX1 CREB3L4 EFNA3 AQP10 KCNN3 C1orf43 GATAD2B ILF2 RIT1 INTS3 PKLR HCN3 ACTA1 C1orf131 GALNT2 TTC13 SCCPDH LYST MLK4 CEP170 ACP1 SNAP47 SRP9 NVL SDE2 DEGS1 FBXO28 ARF1 CNIH4 ITPKB GUK1 CDC42BPA CNIH3 C1orf35 MBOAT2 PARP1 PSEN2 PYCR2 LBR WNT9A EPHX1 REN SOX13 ETNK2 PPFIA4 PLEKHA6 PTPN7 SYT2 ARL8A GDF7 PDIA6 RHOB ATP6V1C2 HNRNPLL GALM CAMKMT EML4 CALM2 CHAC2 RPS27A WDPCP VPS54 ASXL2 ETAA1 SNRPG ABHD1 MEIS1 CIAO1 ZNF514 SNRNP200 MRPS5 ANKRD53 TPRKB EXOC6B SFXN5 TEX261 DQX1 DUSP11 ST6GAL2 NPHP1 MALL THNSL2 RALB TMEM177 NT5DC4 RABL2A SLC20A1 FBLN7 RP11-395L14.17 ZC3H8 LIPT1 FAHD2B LYG1 AFF3 UBXN4 SPOPL POLR2D AMMECR1L PKP4 SLC4A10 SCRN3 KIAA1715 CDCA7 DLX1 UBR3 PHOSPHO2 GULP1 FAM171B HSPD1 CCDC150 METTL21A UNC80 PTH2R NBEAL1 KANSL1L SPAG16 SUMF1 RHBDD1 ACKR3 HES6 ESPNL ANKMY1 COPS7B DIS3L2 CPNE9 FANCD2 TAMM41 VGLL4 RAB5A FAM134A CTDSP1 RQCD1 STK11IP GMPPA EAF1 DYNC1LI1 RBMS3 OSBPL10 POMGNT2 ACKR2 FAM198A CSRNP1 SLC25A38 ITGA9 GOLGA4 CTDSPL STAC IQSEC1 CAND2 RPL32 PTPRG SHQ1 SLC25A26 UBA3 ARL6IP5 TMF1 LRIG1 LIMD1 ZNF660 NFKBIZ NXPE3 MYH15 PHLDB2 ABHD10 PLA1A RABL3 ADPRH IGSF11 ATG3 NR1I2 BOC SRPRB TMEM108 MED12L EIF2A OSBPL11 TRPC1 NCEH1 FAM86B2 LPP TMEM44 KIAA0226 AMT TCTA NICN1 VPRBP MANF STXBP5L EAF2 ILDR1 MUC4 SLIT2 EIF2B5 ECE2 DGKQ FIP1L1 SLC26A1 LYAR CENPC CORIN ATP10D OCIAD2 SLC10A4 SCD5 PLAC8 ENOPH1 TRMT10A KLHL8 SNCA PYURF TBCK CAMK2D CISD2 DDIT4L ANK2 TIFA SPATA5 CCNA2 METTL14 USP53 SETD7 NAF1 1-Mar 1-Mar RPS3A RNF175 PDGFC CBR4 CYP4V2 ROPN1L NDUFS6 6-Mar NKD2 SRD5A1 MYO10 FAM105A RPL37 SKP2 OSMR PLK2 GZMA PIK3R1 LHFPL2 SSBP2 ANKRD31 IQGAP2 CRHBP RASA1 GIN1 PPIP5K2 PAM BDP1 GTF2H2 SLC30A5 BTF3 FBXL17 SPATA9 TSLP TNFAIP8 FEM1C COMMD10 ATG12 MEGF10 YIPF5 ARHGAP26 DDX46 TIMD4 RNF145 C1QTNF2 FBXO38 PCYOX1L TNIP1 G3BP1 ZNF300 N4BP3 NHP2 RMND5B BOD1 TENM2 KCNMB1 FAM50B MYLK4 TBC1D7 FARS2 GFOD1 CDKAL1 PSD2 LRRTM2 ZMAT2 GFRA3 KLHL3 TRIM7 TRIM41 HIGD2A FAM193B PLA2G7 TNFRSF21 RNF44 MUT RASGEF1C DOK3 ABT1 PPP1R18 DAAM2 PRIM2 LGSN FGD2 SCUBE3 ANO7 CRIP3 TCTE1 RPL7L1 NFKBIE TPBG IRAK1BP1 PHIP MMS22L PNRC1 PM20D2 RARS2 SCML4 TBC1D32 RNF217 ARHGAP18 ABRACL SLC18B1 MTFR2 SLC2A12 SHPRH AIG1 DYNLT1 TIAM2 TMEM181 PNLDC1 WTAP ZMYM4 VIP C6orf211 SLC22A3 VWDE GNA12 C7orf50 SDK1 WASH2P CCZ1B C7orf26 RBAK CREB5 EGFR CDCA5 IGFBP3 PURB AC004453.8 SRCRB4D MDH2 POMZP3 GBAS CCT6A PSPH ZNF92 ATXN7L1 TMEM168 C7orf43 SLC12A9 GIGYF1 TRIM4 MEPCE ZAN TMEM209 AGBL3 ZC3HAV1L TMEM140 TLK2 EPHA1 NOM1 NCAPG2 SHROOM2 RAB19 C7orf55-LUC7L2 TMEM27 SH3KBP1 LANCL3 CASK KDM6A SPIN2A MSN CCNB3 HDAC8 SLC16A2 ZNF157 ZNF182 CHST7 KRBOX4 NDUFB11 ZNF41 ZMYM3 TAF1 GPR174 NONO CCDC120 LPAR4 EBP OGT SNX12 ITGB1BP2 IL2RG ACRC ZNF711 DIAPH2 NXF3 PRPS1 CXorf57 FRMPD3 DOCK11 GPC3 RBMX MCPH1 MFHAS1 FBXO25 FAM58A NSDHL ZNF185 CETN2 RPL10 CSGALNACT1 ATP6V1B2 CCDC25 HMBOX1 CHRNA6 GNRH1 BIN3 DOK2 SLC25A37 CHMP7 DOCK5 STAR PROSC ERLIN2 PXDNL ST18 TACC1 GOLGA7 PPAPDC1B GINS4 WHSC1L1 DNAJC5B ADHFE1 MRPS28 LACTB2 TERF1 RPL7 SLC26A7 ATP6V0D2 SYBU MTDH LRP12 EBAG9 RSPO2 POLR2K MAL2 EIF3H UTP23 NDUFB9 TATDN1 FAM83A ZNF7 ARHGAP39 SLC39A4 NAPRT1 VLDLR AK3 UHRF2 NFIB PLIN2 HAUS6 CDKN2B CDKN2A C9orf72 ZCCHC7 FBXO10 SIGMAR1 CBWD5 CEP78 NTRK2 IDNK AUH HIATL1 C9orf3 ZNF462 INIP UGCG SNX30 STOM GSN MRRF NR6A1 CRB2 ALAD ASTN2 WDR31 POLE3 SURF4 GBGT1 SURF1 SURF2 SURF6 MED22 REXO4 RPL7A GTF3C5 ASB6 PTGES2 NTMT1 CIZ1 SLC25A25 SH3GLB2 FAM73B PTGES LCN2 LRSAM1 GPR107 C9orf142 INPP5E SEC16A DPH7 NOTCH1 NACC2 PROSER2 USP6NL COMMD3 MSRB2 PDSS1 FAM171A1 FAM188A RSU1 ST8SIA6 PARD3 ZEB1 NRBF2 CDHR1 POLR3A HERC4 C10orf11 CAMK2G GLUD1 HTR7 RPP30 FRA10AC1 ADD3 DNAJB12 EIF4EBP2 PLEKHS1 TCF7L2 MKI67 INA FUOM LRRC27 MTG1 PAOX GSTO1 TAF5 PPRC1 ITPRIP CNNM2 PDCD11 ADAM12 RGS10 BTBD10 ADM GAS2 LIN7C IMMP1L PGAP2 TUT1 ZNF214 ZNF215 HSD17B12 APIP DGKZ EIF3M TNKS1BP1 SERPING1 SSRP1 SLC43A1 PTPRJ C11orf49 ARFGAP2 CELF1 C11orf73 CCDC81 SESN3 ENDOD1 CCDC82 KLHL35 TENM4 SERPINH1 CAPN5 INTS4 PAK1 RPS3 ZC3H12C TTC12 NCAM1 NPAT ATM AASDHPPT GLB1L2 SLX4IP LAMTOR1 P4HA3 GRIK4 ST14 HYOU1 ADAM33 CSRP2BP DAK MTA2 TMEM138 FADS1 ROM1 EML3 INCENP MS4A3 PLCH2 FRG1B CPSF7 MS4A2 B3GAT3 EI24 CCDC15 CHEK1 FEZ1 ESAM KIRREL3 MPZL2 SIDT2 TMEM25 TAGLN DUSP15 COMMD7 KIAA1755 SPATA25 DSN1 SOGA1 LSM14B YTHDF1 CABLES2 ORAOV1 TRPT1 NUDT22 FERMT3 PLCB3 MRPL49 CDC42EP2 FAU TM7SF2 VPS51 TBX6 PPP4C ALDOA FAM57B DOC2A HIRIP3 TAOK2 TMEM219 HMGA2 CNKSR2 KLRF1 CLEC1A MPP7 C10ORF68 ITGB1 ANXA8L1 CTF1 CWC15 FCGR1A ARID5B DCUN1D2 TMCO3 TMEM218 TIRAP N6AMT2 LATS2 SAP18 LPHN3 KIAA1328 FAM124A CTAGE5 HNMT LYPD6B PDCD4 ADRA2A GPM6A WDR17 VEGFC CCDC102B CD226 CNDP1 FSIP1 DLG2 RGS18 PRSS23 MTMR12 CCT5 FAM173B DOCK1 DIXDC1 DLAT PIH1D2 C11orf57 TIMM8B IL18 TEX12 PTS PIP4K2A C2orf50 FOXO1 CRIM1 SEC24D ABCB9 RILPL2 DHX37 UBC ITPR1 TKTL2 PRSS53 SLC7A11 CCRN4L ENKUR CACNA2D4 DCP1B CACNA1C KCNA6 THRB NGLY1 OXSM UEVLD TMEM86A C12orf45 C12orf23 BTBD11 UBE3B ANK3 IPMK RAD9B PLBD2 DLG5 SLC2A13 GXYLT1 TWF1 DIP2C EIF4E MAGI1 TEX30 CSNK1G3 SRFBP1 AKAP6 FAM177A1 MBIP MIPOL1 EXT2 TMEM18 KCTD14 NDUFC2 ME3 NUBPL NEK7 FER VIPAS39 ANKRD50 UPF2 CDC123 SCLT1 CCDC3 C4orf33 FRMD4A PTPRO EPS8 ACAD8 THYN1 VPS26B NCAPD3 VTI1A QDPR FAM160B1 TEX9 QTRTD1 MMAA ZNF827 NR3C2 AKR1C6P AKR1C2 DPYSL4 VENTX ADAM8 KIN PIGF ANKAR INPP1 MFSD6 RNF144A ASAP2 ADAM17 FLI1 KCNJ1 TMEM45B WWC2 CENPU ACSL1 SLC25A4 AMN1 BICD1 SAV1 CCDC122 SERP2 NBAS ZNF385D GUF1 SACS CCDC175 PABPC3 CENPJ FBXO4 C5orf28 CCL28 PARP8 GFRA1 CACUL1 DST BEND6 TIAL1 BAG3 GLT1D1 SCHIP1 LIX1L NBPF11 AP1S3 RABGAP1L CCDC74B TMEM56 MZT2B FAM168B PTPN14 AC093838.4 MGAT5 TMEM163 GPATCH11 GEMIN6 TMEM178A POU4F1 RNF219 CYSLTR2 ARL11 SETBP1 ARL14EP EPG5 PSTPIP2 ATP5A1 HAUS1 C18orf25 SPC25 PDK1 SPON1 PDE3B TCF7L1 TGOLN2 SH2D6 KCNK13 UHMK1 ATG10 POC5 SPOCK1 FAM151B TADA1 CWF19L2 JMY HOMER1 XRCC4 ZNF547 ZNF773 ZNF776 ZNF256 SUV39H2 DCLRE1C OLAH RPP38 NMT2 ZSCAN1 ZNF837 USP12 ARL5B-AS1 CCDC50 CAMK4 TRIM36 ZFP36L2 PAN3 PLEKHH2 PFKM TMEM123 IGSF10 SPEF2 SPARCL1 MBNL1 NADK2 GPD1L GJA1 CLEC4F SLC30A6 PELO RASGRP3 SAR1B CATSPER3 FAM21B GPR180 TCTEX1D1 WDR78 ANKRD22 FARP1 IFIT5 PANK1 PRDM8 BMP3 HNRNPDL HHEX UTRN PTPRK GGPS1 ZNF117 RAB3C MARVELD2 RAD17 MED21 PLOD2 STK32B JAKMIP1 GPR125 SREK1IP1 CWC27 MR1 SRP19 CENPH CDYL CARHSP1 BANK1 TXNDC11 DAB2 ACOXL BCL2L11 ANAPC1 CAST SCOC CLGN CETN3 SMARCA5 SYCP2L BMP6 RGPD3 RASSF3 HNRNPU RANBP2 AHCTF1 MERTK TMEM87B NR4A2 CCDC148 PLA2R1 RBMS1 SCN3A CD96 SLC25A27 GPR110 FAM49B ASAP1 TRAPPC8 FAM81B LINC00467 INO80C LPCAT1 PLEKHG4B NMRAL1 UBALD1 TMEM251 ING1 TEX29 ADPRHL1 CMTM7 FBXL2 UBP1 RMND5A CD8A RPIA TUBGCP5 GOLGA8I PTPRD LURAP1L CNKSR3 GTF2E1 CFDP1 ZDHHC7 C7orf31 JAZF1 CMIP PID1 TRIP12 FBXO36 CEBPG KCTD15 ZNF599 MCOLN2 LGI4 DDAH1 SREK1 CHD1 ANKFN1 DGKE HS2ST1 MSI2 CACNA2D1 ZUFSP HS3ST3A1 GDPD1 NUS1 SEMA3D PPP2R5E GRAP SLC5A10 AK5 C17orf103 CABYR IMPACT ANKRD29 C6orf57 THY1 DNAAF1 C16orf74 TBCEL ANKH FAM105B UBASH3B ROBO4 ROBO3 TBRG1 NRGN FAM134B GPR15 TOMM70A ABI3BP ANGPT1 PITPNC1 CC2D1B CERS3 PRKCA LRRK1 CEP112 GAL3ST2 ABCA9 ABCA6 ABCA10 ABCA5 ENPP3 UCHL1 MIA3 DISP1 TNIK TDH FAM167A NEIL2 PGM5 OBSCN LONRF1 TRIM11 ENAH CCSAP SH3RF1 GBP5 BUB3 CCDC173 MMP21 FAM69A ATP5G3 CNTNAP3B MAGED4 SRSF12 SORBS2 TCEB1 LY96 CEP170P1 PSMA8 TMSB4Y CXADR BTG3 C21orf91 CHODL NCAM2 L3MBTL4 PDE1C RABGEF1 MRPL39 JAM2 ATP5J GABPA ADAMTS1 ADAMTS5 TSEN2 SLFN13 WNT7A XPC C17orf50 CCDC174 FGD5 FLCN DPH3 OXNAD1 PLCL2 CXXC1 SKA1 PPP4R1 APCDD1 PIEZO2 CCDC144B MPPE1 CCDC144CP USP43 RAB6B EME1 EPHB1 ACSS1 ANKRD40 ZNF18 VOPP1 APOOL DKK2 CYP2U1 FBXL18 PROM2 UNC93B2 AK9 KLF10 PTPRN2 AZIN1 ATP6V1C1 TMEM55A OTUD6B CDK19 GTF3C6 MARCKS TTC39B AGPAT5 MMS19 PI4K2A MARVELD1 ZFYVE27 GOLGA7B TRMT44 SLC25A28 HSPA13 SAMSN1 USP25 GRAMD3 ZCCHC10 C16orf87 MOV10 RHOC PPM1J DBI SLC16A1 HEATR3 TRIM74 NIFK OXA1L SLC7A7 LARP1 CNOT8 LRGUK SETD9 MIER3 NUP205 ZKSCAN2 C9orf85 PIK3AP1 RBM45 C10orf12 TTN VSIG4 PDIA4 KDM8 OTOA KCTD18 FAM126B ALS2CR12 TMEM237 FZD7 SPAG17 DEPTOR RNF20 PPARGC1B ELMO1 SLC26A2 LSM11 MED7 RRAGA ACPL2 RASA2 RMND1 SLA TMBIM4 VBP1 RAB39B CLIC2 AFF2 MICU3 GRIP1 VPS37A KIF5A TMEM185A PSD3 C9orf41 MCU ELMSAN1 TTC18 GNA14 FAM161B GNAQ MMP16 ADK KCNMA1 BATF DCK ADAMTS3 DPY19L4 NDUFAF6 DRAM2 C8orf37 PPEF2 C15orf26 WHAMM N6AMT1 RWDD2B USP16 CCT8 MAP3K7CL BACH1 TSPAN7 TIAM1 SCAF4 RPGR CDK20 PCGF6 ANKRD9 SFR1 SORCS3 SFXN2 C14orf2 FUT6 TDRD9 FGF18 PCDH1 SH3RF2 UQCRB MTERFD1 PTDSS1 PPP2R2B RPL30 FAM122C SUPV3L1 FAM122B EEF1A1 FBXO43 HKDC1 HK1 TYSND1 PHF6 CD109 LRFN2 PRG3 UBE2L6 ZDHHC5 MED19 ZFAND3 NPTN KAT6B SAMD8 RAB11FIP1 GLYATL2 UTP14A AIFM1 MAPK13 BAG4 MS4A1 TBC1D31 WDYHV1 ATAD2 FBXO32 NSMCE2 ZNF689 PRR14 FBRS FRRS1 PHKG2 HIAT1 SASS6 ITGAD MALSU1 VPS8 GALK2 B3GNT7 MPV17L BUB1B PDE6D EIF4A2 BRPF1 RPUSD3 TATDN2 GHRL SEC13 FAM92A1P1 EXOG NTAN1 NMNAT2 ZFYVE9 ATP2B2 SMG1 FCHO2 RBPMS TIMP4 SYN2 NRG1 C1orf27 CPT2 NECAP2 LRP8 PAXIP1 SSBP3 CLDN12 MMP14 FZD1 GATAD1 SUSD3 RP11-66N24.4 TMED6 CLEC18A DHRS4 ARMC12 DDX19B ST3GAL2 FUK IL34 DHRS1 CACNA1D ARSE KIT AASDH ZNF19 CACNA2D3 RNF111 CCNB2 FAM81A MYO1E APPL1 AFAP1L1 TSC22D3 DSCR3 DYRK1A KCNJ15 ERG ETS2 TSPAN18 LCA5L SLC35B2 TMEM164 MX1 CREB3L1 C2CD2 TAB3 SLC38A10 C9orf43 ZNF618 C9orf91 SVOPL SNX22 UBN2 BRAF PSMG3 WDR19 SLC37A3 AP3S2 FMNL2 RPS4Y2 GAREML SPPL3 DRC1 RAB28 FAM213B TNFRSF14 PANK4 C12orf43 PEX10 RER1 RADIL SKI WIPI2 LDLRAP1 AGAP1 KRTCAP3 PAFAH2 BRE WDR66 MRPL17 DUSP2 UBXN11 PTPDC1 GALNT14 NCK1 HPD RHPN1 TPRG1L LRRC43 AAED1 XDH XKR8 CNNM4 EYA3 DZIP1L FANCC MRAS WASF2 ABHD3 ESYT3 FAIM FAM46B CLSTN2 COLEC12 RNF207 CUL4B GPR153 SLC13A3 GPRASP2 AUTS2 SHROOM4 HIST1H2BD CDC25C HIST1H4H MITD1 EIF5B RIBC1 TMSB15B C2orf62 CNOT11 TSPAN33 NRG2 AHCYL2 B4GALT5 CD1D CD1A SPATA2 CD1C SNX29P1 FAM86C1 CD1B DNAH3 CD1E NCF1 CPA5 TSR2 PPP1R9A ZC3H18 ZFAND2B GDPD5 DYNC1I1 PFKFB1 ALAS2 TMED4 PPP1R15B COPG2 C11orf30 AGPAT6 PKD1L1 ZSCAN12 TAGLN2 ELK4 SLAMF8 SLC45A3 DUSP23 RNF166 NBL1 F11R USF1 SPATA2L NIT1 DEDD ZNF276 NPM2 EDA FGF17 CDA PINK1 B4GALT3 DMTN ADAMTS4 FAM160B2 NDUFS2 SLC5A11 FCER1G TOMM40L MPZ CCAR2 CACHD1 CDC42SE2 RAPGEF6 EPB41 MIS18A ALG8 FBXW5 C21orf59 SYNJ1 PAXBP1 IFNAR2 MRPL10 IFNGR2 GART SON DONSON SV2A LAD1 CSRP1 C1QC ATP5G1 RCAN1 UBE2Z C1orf51 SNF8 CLIC6 CCDC24 RUNX1 CBR1 CBR3 C2orf81 TUBBP5 MORC3 CHAF1B HLCS SCUBE1 ARHGAP27 ADPGK PTMS PADI4 ADIPOR1 CYB5R1 PSMD4 ATP13A2 M1AP PSMB4 BTG2 HK2 C1R ALDH4A1 STARD9 THEM4 TCHH UBR1 AMFR MED8 RGL4 ISL2 RSPRY1 CCDC17 GPBP1L1 NAE1 TMEM69 GPR114 CCDC135 ACE TEPP UROC1 EFCAB14 SPON2 CHCHD6 CTBP1 LRRC36 ANKRD18CP TPPP3 ZDHHC1 ATP6V0D1 AGRP ZFYVE28 RLTPR C16orf86 FAM131B RGS12 PSKH1 ZYX ABR FAM115D LYPD5 CCDC117 ZNF230 CCDC107 ZNF222 NPR2 ZNF890P ZNF221 ZNF233 ZNF235 GNE TNFRSF13C ARHGAP35 PTGIR CALM3 DFFA CCDC28B IQCC TMEM234 BSDC1 ZBTB8A ATAD3B SSU72 UBE2J2 ZNF362 CPAMD8 NR2F6 ANKLE1 CCDC58 VMA21 KALRN CILP2 FAM86C2P ABCG1 TFF3 TMPRSS3 UBASH3A RSPH1 SLC37A1 PDE9A WDR4 NDUFV3 PKNOX1 CBS U2AF1 HSF2BP RRP1B PDXK G6PD CSTB RRP1 AGPAT3 TRAPPC10 GAB3 C21orf33 ICOSLG AIRE C21orf2 ZNF66 LRRC3 ITGB2 FAM207A RALGDS FTCD SPATC1L LSS VAV2 MCM3AP C21orf58 PCNT DIP2A S100B PRMT2 CLDND2 ZNF208 ADAMTS13 CACFD1 SLC2A6 ZNF761 FCN2 C9orf116 ZNF714 GPSM1 C19orf47 HIPK4 C9orf117 TOR2A ST6GALNAC6 SHKBP1 RDH13 ZER1 ZDHHC12 PKN3 SPTBN4 BRSK1 COX6B2 PPAPDC3 TAOK1 MED27 DEDD2 SIK3 MPZL3 AMICA1 NEK8 TLCD1 PCSK7 SAFB CD3G S100A1 CHTOP CXCR5 ZBTB7B FLAD1 SHC1 VPS11 NLRX1 ADAR IL6R UBE2Q1 CRTC2 ANO10 FDPS RUSC1 GBAP1 FAM189B PAQR6 PMF1 SLC25A44 LMNA CCR5 NBEAL2 CCDC12 PTH1R UBQLN4 PPP1R35 GPATCH4 STAG3L2 FCRL3 FGFR4 NACC1 HK3 LY6K IER2 ZNF394 CPSF4 LY6E VPS28 TONSL PTGER1 MUM1 RECQL4 LRRC14 ZNF333 COL26A1 PPP1R16A FOXH1 ORAI2 ALKBH4 SH2B2 C5orf45 SQSTM1 MGAT4B RPL8 MAML1 PGLYRP2 LRWD1 FBXL13 NAPEPLD SCGB3A1 PSMC2 MFSD12 XXbac-B444P24.10 USP41 TUBA3FP YDJC CCDC116 DVL3 AP2M1 ABCF3 PCYT1A FBXO27 DMKN U2AF1L4 BDH1 THAP8 ZNF382 DUSP14 LRRC56 PLXDC1 PGAP3 IKZF3 FDXR SAP30BP ACOX1 PRPSAP1 CYGB SRSF2 ZNF577 TMEM143 CCL5 TBC1D3G CCDC155 ALDH16A1 ITGA5 SIGLEC11 ZNF385A SIGLEC16 MPP3 NAGS LSM12 EMC10 JOSD2 SHANK1 FAM171A2 DBF4B PLCD3 FMNL3 RACGAP1 LARP4 GRASP RAVER1 SYCE2 SPC24 LEMD2 ALOX15 TREML1 ADCY10P1 ZNF653 MED11 CXCL16 SCIMP BCL6B ASGR2 TNFSF13 SENP3 FGF11 EIF4A1 RPL26 CCDC42 POLR3K SNRNP25 WDR90 JMJD8 CCDC78 SPSB3 C16orf59 CCNF TBC1D24 AMDHD2 CCDC64B PAQR4 FLYWCH2 ZG16B ZNF75A ADCY9 SHANK2 CLPB NEU3 CYB561A3 PPP1R32 ASRGL1 UBXN1 C11orf48 TTC9C TAF6L NXF1 STX5 SLC25A45 RPL29 DCP1A SYVN1 ZFPL1 RPS6KA4 LRP5 TPCN2 PDZK1IP1 TAL1 CMPK1 BEND5 ELAVL4 COA7 ZYG11B SLC1A7 C1orf123 MAGOH ACOT11 PARS2 C1orf177 USP24 PPAP2B NOL9 KLHL21 ZSWIM5 GMEB1 SLC45A1 SEPN1 AK4 JAK1 RAVER2 CTRC LZIC RBP7 FBLIM1 SLC25A34 AKR7A3 DRAXIN DHRS3 MATN1 LAPTM5 SDC3 PEF1 SYNC RBBP4 KIAA1522 TSSK3 TMCO4 UBXN10 CAMK2N1 ALPL TTLL10 SCNN1D MXRA8 C1orf86 MEGF6 IL23R DIRAS3 NFIA OMA1 MYSM1 TM2D1 USP1 FUBP1 NEXN DNAJB4 ELTD1 LRRIQ3 TYW3 SNX7 B3GALT2 FAM102B HENMT1 AKNAD1 C1orf52 WDR63 GBP2 ATXN7L2 GBP4 ZNF326 HFM1 GFI1 AGL VCAM1 EXTL2 SLC30A7 ZNF281 ARPC5 NLRP3 ZNF496 TRIM58 IGSF8 DDR2 PEA15 PEX19 NCSTN VANGL2 SLAMF6 OLFML2B FCRLB FCGR3B KLHDC9 C1orf74 FLVCR1 FAM71A ATF3 RBM15 DENND2D AXDND1 IER5 SNED1 BPNT1 SPATA17 C1orf115 BROX NBPF8 ACP6 MT2P1 KIF26B TFB2M CNST PPP1R21 KLHDC8A PM20D1 PKDCC OXER1 HAAO B3GALNT2 MAPKAPK2 FAIM3 PIGR CAPN2 MRPL55 C1orf145 WDR26 REL PUS10 PEX13 KIAA1841 TRIM17 RFTN2 DISC1 CAPN13 MEMO1 DPY30 TYW5 C2orf47 PQLC3 ARL5A FAM84A CLHC1 PRORSD1P FRZB DUSP19 CCDC104 NUP35 CCDC138 C2orf48 FBXO41 ALMS1P C2orf44 SMC6 CCDC74A H3F3A ADCK3 SLC16A14 ZNF2 SGCB SPATA18 NOSTRIN SGPP2 INHBB XIRP2 BBS5 SMARCAD1 HPGDS PDLIM5 OTUD7B STPG2 RPRD2 ANKRD23 CTSS MSX1 PACRGL BNIPL TNFAIP8L2 LYSMD1 SCNM1 VPS72 ERCC3 RNF149 IWS1 BOLA3 CDC42EP3 S100A11 DHX57 ARHGAP25 S100A9 S100A12 TGFA TDRD10 CCNYL1 FZD5 DCAF16 C1orf189 NPPC GNPDA2 PAQR3 NIPAL1 ANTXR2 HELQ MRPS18C CGGBP1 FAM175A GPR155 DAPL1 PMVK PBXIP1 PYGO2 HIPK1 DCST2 DCST1 COL6A3 C1orf106 YY1AP1 KBTBD8 EOGT APOA1BP NBPF10 POGLUT1 SLC22A15 ATP1A1 SLC15A2 EIF4E3 PROK2 LRRC58 FSTL1 ELF3 TMEM183A TMEM169 IGFBP7 TRIM46 KRTCAP2 CXCR1 ARPC2 CCT3 TMEM79 SSR2 RNF25 STK36 ADORA1 SRGAP2 NEK10 CCDC141 KIAA1524 EOMES CWC22 AZI2 TGFBR2 ANKZF1 HDAC11 TRAT1 FBLN2 GLB1L STT3B CHCHD4 NFASC FCRL1 SGOL2 SERPINI1 CLASP2 SUCLG1 NUAK2 SPTA1 PRKCI MNDA PYHIN1 IFI16 AIM2 EFHB EIF5A2 RPL22L1 PPM1L ICA1L SNHG16 CTLA4 ICOS RYBP PPP4R2 CD200R1 GTPBP8 C3orf17 SPICE1 KIAA1407 CDS1 WDFY3 COX18 PTPN13 C4orf36 THOC7 ATXN7 PSMD6 PRICKLE2 ADAMTS9 PPM1K FAM194A GMPS TIPARP CCNL1 PTX3 HESX1 SLMAP RPL9 SMIM14 RPP14 ABHD6 DNASE1L3 C3orf67 RBM47 APBB2 IL17RE IL17RC CRELD1 PRRT3 PCOLCE2 U2SURP MTMR14 TTC14 CXCL3 CXCL5 PPBP PF4 MTHFD2L CXCL1 RCHY1 CPA3 GYG1 HPS3 TOPBP1 RYK SNRK UCN ZNF513 SLC4A1AP PLB1 SPDYA KIAA1143 KIF15 WDR43 ZDHHC3 CDCP1 CLEC3B LZTFL1 FYCO1 CCR1 LRRC2 ELP6 DTX3L ZNF148 NMNAT3 SMIM12 ZMYM6 TPRA1 YEATS2 ZC3H12A MEAF6 SNIP1 DNALI1 POLR2H LIPH TMEM41A RPN1 SENP2 HEYL IFT122 RFC4 RPL39L BAP1 TKT PRKCD RFT1 SFMBT1 GNL3 PBRM1 UVSSA FAM208A ARHGEF3 SLBP LRPAP1 ZDHHC19 SLC51A UBXN7 RNF168 PIGX MFI2 S100P ABLIM2 EXO5 CLDN19 C1orf50 ERMAP ZNF691 AIMP1 SGMS2 METAP1 DNAJB14 H2AFZ EMCN SLC9B1 SLC9B2 BDH2 PGRMC2 CDC25A CAMP ZNF589 PLXNB1 CCDC51 ATRIP SHISA5 SPRY1 BSN APEH INTU RNF123 HSPA4L MFSD8 C4orf29 CAMKV MON1A MST1R RAD54L2 TEX264 GRM2 DUSP7 POC1A PPM1M WDR82 C4orf3 PRSS12 NDST3 HMGB2 SAP30 MAD2L1 ANXA5 MAP9 GUCY1A3 FBXO8 CEP44 HPGD TMEM144 FAM198B NAA15 IL15 FAM160A1 ARFIP1 KIAA0947 HHIP ANAPC10 ABCE1 OTUD4 LSM6 TMEM184C PRMT10 ITGA2 MOCS2 EDIL3 TMEM161B ELOVL7 NDUFAF2 ZNF474 LMBRD2 NIPBL RNF180 GPR98 SLC25A46 STARD4 PGGT1B F2RL2 CCDC112 ANKRD33B CMBL C5orf63 PRRC1 F2RL1 AGGF1 WDR41 NDUFS4 SCGB3A2 ESM1 GRPEL2 ARSK RHOBTB3 GPX8 TIGD6 SERINC5 CASP3 PRIMPOL ERAP1 ERAP2 CMYA5 KIAA1430 RICTOR PAPD4 EBF1 ANKRA2 UBLCP1 UTP15 TLR3 KLKB1 NSA2 GFM2 TERT CCDC127 FOXQ1 C6orf195 ACSL6 8-Sep SHROOM1 GDF9 UQCRQ LEAP2 SLC35A1 MB21D1 TXLNB CITED2 CREBRF DCBLD1 SFXN1 SAMD3 TMEM200A IL22RA2 PDSS2 STXBP5 IL31RA ANKRD55 RAET1E PI16 DAGLB KIAA0895 STK17A TRA2A FAM183B GALNT10 SAP30L RPS14 MYOZ3 COG5 C7orf60 GPR85 SLU7 RP9 PTTG1 CAMLG BMPER RELL2 KCNK5 KIF6 ZNF12 SLC29A4 STEAP1 CDCA7L MIOS KIAA1324L USP49 INTS4L1 SYTL3 IQUB HEY1 ZNF704 FABP5 SHH TAGAP COL1A2 CHMP4C BRI3 LMTK2 CTSB DLC1 ADCY1 C8orf48 SUN3 C7orf57 PEX2 RAD21 MED30 TNFRSF11B PHKG1 SPIDR ORC5 HEATR2 DEFA4 OSGIN2 DEFB1 SUN1 OXR1 FAM86FP GPR146 GPER1 UNCX TMEM184A NOS3 MICALL2 CA3 INTS1 CDK5 SLC4A2 FASTK TMUB1 C7orf55 PHAX ALDH7A1 FOXK1 COX6C OSR2 YWHAZ BAALC FZD6 CTHRC1 SLC25A32 DCAF13 DCSTAMP TP53INP1 INTS8 KIAA1429 FREM1 GEM PDP1 TMEM67 KIAA0196 RPP25L FAM219A C9orf24 SNAPC3 KIAA1161 NUDT2 TMEM65 PSIP1 CCDC171 UBAP1 SYK NIPSNAP3B ABCA1 NFIL3 LETM2 METTL2B FXN TMEM71 MAMDC2 CPA6 ALDH1A1 KDM1B HGSNAT GKAP1 KIF27 C9orf64 HNRNPK RP11-213G2.3 SVEP1 TRPV6 ANKS6 FBP1 TMEM246 ZHX1 CXorf22 CYBB DYNLT3 WBSCR27 MID1IP1 NCF1C KIAA1958 PIGA OR1Q1 STRBP GAPVD1 C9orf89 WNK2 ATP7A ZNF367 NLGN4Y HDX NDUFB6 NOL6 AQP3 TRMT10B VCP PIGO STOML2 BRWD3 SLITRK5 MELK OTUD1 ARHGAP12 FAT3 HECTD2 SLC7A3 FBXO33 DDX26B ZNF488 SPTSSA ANXA8 WRN 8-Mar TSHR CFL2 SUGT1 GTF2A1 ZCCHC24 PGM2L1 SLC16A9 FOLR2 INPPL1 GJB2 CRYL1 REEP3 SKA3 MICU2 C11orf82 PCF11 LRR1 RPL36AL DNAAF2 C10orf10 C10orf25 ZNF22 KLHDC2 EML5 NEMF RPUSD4 ARF6 TTC8 TMEM63C NOXRED1 CDX2 AKR1E2 KBTBD6 FAAH2 NUDT5 DACT1 BEND7 ATP5C1 PRPF18 TAF3 VSTM4 VDAC2 COMTD1 SLC18A2 PDZD8 ZNF503 DACH1 FAM175B QSOX2 FAM204A NSD1 PRDX3 ENOX2 GHITM CLEC1B SNAPC4 TMEM52B PMPCA SDCCAG3 AK8 C9orf9 TSC1 GFI1B HPRT1 LOH12CR1 FAM69B ZMYND19 STOX1 RET DDX21 BMS1 STK32C KIAA1462 FUNDC2 TMEM55B METTL17 NDRG2 ARHGEF40 NSMF ZNF219 CASP7 PPP1R36 BTNL9 C10orf118 VWA2 METTL3 SALL2 TRUB1 ZFYVE1 FAM35BP FRAT1 UBTD1 E2F7 ARHGAP42 ISCA2 GYLTL1B PACSIN3 TTC7B SLC39A13 PSMC3 RAPSN AGBL2 TC2N CPSF2 SMCO2 MOAP1 IFI27L1 IFI27 CLMN PDZRN4 PTER CACNB2 PTPLA ARL5B SMCO4 KIAA1731 TAF1D ABTB2 R3HCC1L AMOTL1 HTRA1 LIPC CEP57 TCP11L2 SPRED1 GPR176 JAM3 CMTM5 hsa-mir-7162 GLB1L3 ADAMTS15 GPT2 AMN RAB8B IKBIP RPUSD2 HIF1AN NDUFB8 ZFYVE19 SPINT1 FBN1 AVPR1A DEPDC4 LRTM2 BRD7 CKB TRMT61A BTRC POLL BAG5 DPCD LARP6 API5 ZNF319 HPS6 SENP8 NOLC1 ALKBH3 COPS2 SGPL1 FRS2 CCT2 PCBD1 ARIH1 C16orf71 COX11 ZNF202 FAM227B STXBP4 CYYR1 CUL5 MYRFL WBP1L C10orf32 C2 PLEKHF1 ANAPC16 SMPD1 APBB1 NUDT13 C11orf65 TRIM44 ILK TAF10 TPP1 DCHS1 NETO1 MSS51 CYB5A USP54 RAG1 C11orf74 ATP9B PPFIBP2 CYB5R2 KIAA0355 SERPINB8 TUB RIC3 IDH3A CRABP1 PLD4 ZMAT1 XRRA1 TRIM66 RNF169 RPL27A ST5 CDYL2 TMEM130 PRTG CENPN AKIP1 ATMIN C16orf46 TMEM41B LEO1 ZNF143 TMX3 MFAP4 WEE1 MAPK7 PRKCB HDGFRP3 NDST2 MCM7 CCDC68 CLEC4E ZNF3 CLEC4D ZSCAN21 RIMKLB A2ML1 TK2 TMED3 SEC11C TMEM135 IQCD NDEL1 CENPV RRAD FAM96B HSP90B1 BLCAP CHRFAM7A ATF7IP2 TVP23A NGFRAP1 TMPRSS5 COG1 PLEKHA7 ZNF606 ZCCHC18 B2M ZNF592 CASC4 HTR3A NNMT ACSM1 AP1G1 SLFN5 CATSPER2 STRCP1 ZNF667-AS1 C16orf45 KIAA0430 SAAL1 YPEL4 PPIB LDHC FAM96A LDHAL6A FAM111A KIAA0101 KIF7 LDHD PLIN1 PEX11A TMEM170A MESP1 ANPEP RBPMS2 NAV2 ANKDD1A C18orf54 DCTN5 TERF2IP PLK1 CLPX ZBTB39 TAC3 MYO1A TMEM194A NAB2 VPS39 STAT6 PATL1 XRCC6BP1 ELFN2 STX3 MRPL16 PIP4K2C MTMR10 YWHAB C15orf48 SCG5 NYAP1 TSC22D4 MS4A6E MS4A7 MS4A14 DIS3L CCNDBP1 EPB42 SMAD3 MAP1A RCCD1 AKTIP MAPRE2 EVA1C MARS MBD6 CNPY4 PDIA3 NUDT21 NKX3-1 SGSM1 RP11-93B14.6 DUSP18 TEF MEI1 PBX3 GNGT2 PHB SNRPD1 TTC16 SAMD14 PIP5KL1 TMEM92 FAM102A ACSF2 GOLGA2 TRUB2 COQ4 SLC27A4 URM1 CERCAM DOLPP1 ENDOG C15orf39 SP2 COQ7 GPRC5B CRK FBXO22 TBC1D2B NOD2 SNX20 LOXHD1 KATNAL2 HDHD2 ZNF91 CCL23 IGF2 RNF214 CDK12 DPEP2 DUS2 POP5 ENGASE RBFOX3 ATP5L CD3D TBC1D16 ENTHD2 MYO5B ACAA2 STIM1 RRM1 TRIM68 FN3K PRRT2 ZNF23 IRGQ ZNF226 ZNF229 ZNF180 PPP2R3B ZNF668 ZNF646 VKORC1 LPO CA4 SMG8 TPM4 RAB8A GPX4 MIDN JSRP1 FAM129C KLHL26 GATAD2A MVD CDT1 TRAPPC2L ANKRD11 SPATA33 SGK494 PROCA1 RPL13 ZNF641 CACNB3 DHRS13 TP53I13 KMT2D CORO6 RHEBL1 TUBA1A TUBA1C ZNF610 ZNF528 ZNF701 SERTAD3 NCKAP5L RAB4B GPD1 C19orf55 CYP2S1 AXL NFKBID TMC4 LAIR1 TTYH1 LENG8 LAIR2 ZNF526 TRAPPC9 KIR3DL1 NLRP7 ZNF146 ZNF283 PPP1R14A SPINT2 YIF1B DNAAF3 PSCA DAPK3 EEF2 TMIGD2 CHAF1A UBXN6 HDGFRP2 PLIN4 SEMA6B ZNF444 NXN FAM57A GLOD4 MFSD3 GPT KIFC2 SLC43A2 RILP SERPINF2 WDR81 SRR TSR1 TRPV3 HSD11B1L CYB5D2 C19orf48 KLK1 AC018755.1 ZNF83 KRT80 KRT1 ACER1 OTUB1 RCOR2 ANGPTL4 CD320 SPRYD3 IGFBP6 SOAT2 ZNF558 NDUFV1 CDK2AP2 NUDT8 PRDX2 ZNF232 MIS12 CD300C CD300A HID1 ICT1 ATP5H TMEM88 EVPL SRP68 MGAT5B TMC8 TK1 TMEM68 RP11-25K19.1 TMEM99 GHDC ITFG3 ZNF598 RAB26 MLST8 E4F1 DNASE1L2 ECI1 AC009065.1 CASKIN1 ABCA3 KCTD5 SRRM2 ZNF597 NLRC3 SDHAF2 DDB1 VPS37C VWCE RAB3IL1 BEST1 FTH1 BSCL2 POLR2G SLC3A2 HRASLS5 C11orf84 ATG16L2 C2CD3 TRANK1 TTC21A RPSA CTNNB1 ULK4 FADD LTBP3 NAALADL1 SAC3D1 BATF2 SF1 MAP4K2 CCDC88B SCARA3 PBK SCARA5 PNOC COPS6 PAFAH1B2 ANKS3 NUDT16L1 KIAA1586 RAB4A OR2W6P SETD5 VASN FAM83B THAP9 RNF187 HOOK3 MAPK1IP1L DDIT4 RBPJ LMBRD1 ZCCHC4 PTGDR TTC39C GLYCTK HIST1H2BI GNG4 UBTD2 POLR2J3 NKIRAS2 DNAJC7 C14orf183 IRF2BP2 NT5DC2 SMIM4 HIST1H2AE COA6 KIF5C MGAT2 BMI1 THAP11 MMADHC PDHB PXK HIST1H1E PCMTD1 KCTD6 MPLKIP ACOX2 IRF2 CX3CR1 XIRP1 DEGS2 SCN11A ARF4 2-Sep FILIP1L MFSD2A DTYMK TAP1 ING5 ATG4B BDKRB2 MLKL CMAHP RFWD3 RHOH KLHL30 COG7 CDC40 STIP1 SCNN1B HR TXNDC2 RAB31 REEP4 TNXB BMP1 ATXN2L PHYHIP POLR3D FEN1 SDPR SOGA2 HEXIM2 FNTA SERINC2 TRAPPC11 COL3A1 GFRA2 ING2 CDKN2AIP SNRNP48 TMEM223 SLC20A2 TMUB2 STAT3 ZSWIM1 NBPF9 ADAM9 AXIN2 NDUFS5 VWA3B ZNF30 UGT3A2 FAM84B LDLRAD4 KCTD19 SLC16A4 IL7R TMEM208 LRP1B AHCYL1 DNAJC21 PKIG FAM178B SEMA4C CNNM3 GSTM4 TET2 TCTN2 SHOX2 PPIP5K1 TSPAN5 ABHD15 ZBTB5 CHTF8 ADAL LCMT2 SNTB2 IL12A ZNF507 STX18 NSG1 ZBTB49 GFM1 TPTE2P5 DDX19A ATOH8 ANKRD49 SFTPB USP39 TNIP2 C2orf68 TMEM150A RNF181 VAMP5 BTNL3 LRRC28 MAT2A ENHO ZNF608 SLC35G2 INPP5D LETM1 TMEM129 PPIC SPRY3 CEP120 STXBP6 MFF LGALS9 JMJD7-PLA2G4B CPLX1 PXDC1 SIGLEC7 E2F6 FEM1B COMMD8 ATP5I UQCRFS1 MFSD7 COL4A3 MAP2K1 HNRNPH1 IRS1 MECP2 UPF3A ROR2 AR DHRSX C8orf46 HSPBAP1 ASMTL SLC25A6 CHST14 PARM1 CSNK1G1 FAM110B ARMC4 AFAP1L2 ZNF354A ATF5 UBE2V2 ZBTB43 CPT1C PCSK9 XPO6 GSG1L MN1 APEX2 NSMCE1 CCDC126 IL13 RP11-231C14.4 RAB3B CD2BP2 RSPO1 RGS14 TBC1D10B LMAN2 GCSAML RAB24 PRELID1 THBS3 CA5B SLC50A1 EFNA1 CXCL10 NPIPB3 SH3TC2 CXCL11 ZRSR2 NMD3 ADRB2 RP11-220D10.1 B3GALNT1 GPRIN1 MRPL1 SHE PGM2 P2RY12 C22orf15 KIAA1024 SLC33A1 SNUPN CRADD SIN3A ARL13B RNASE2 RNASE3 PTK2 PTAFR PTPN9 RNASE6 NPR1 KCNK9 IL8 SCN9A RASSF6 SDC2 CD52 MMGT1 TM2D2 HTRA4 PLEKHA2 CLIC4 SLC38A11 GPR183 CCDC8 METTL15 ZEB2 PCBP1 HINT1 DTWD2 VPREB1 CLIC3 INO80E DFFB NFU1 ANTXR1 CKAP2L C15orf40 FAM103A1 APLF BOLA2B RGPD8 HIC2 LUZP1 HEXDC BUB1 SPNS1 LRRC45 CHRNA5 STRA13 AGPAT2 ASPSCR1 GP9 FASN CNBP MT1E DUS1L GPS1 RFNG DCXR ZNF32 LDB2 RAC3 NRG4 LIMS1 C15orf27 NLGN1 TAPT1 UGP2 HNRNPF BTD CSGALNACT2 ROBO1 AVEN P2RY1 TRIM56 AHSP WNT10B CALML6 REPS2 SYAP1 ITGAM TPST1 TOR1AIP2 TM4SF1 OTUD3 OTUD7A GUSB BRD3 KLF13 ZFPM2 ZNF764 ZNF747 ZNF768 TAS1R3 TMEM42 MAP3K2 PUSL1 SF3B5 ZNF35 TIGD4 IFFO2 NLGN2 MYO7B CHD3 TMEM154 MYRIP ALCAM YWHAG UBE2E3 CNTROB TRAPPC1 KCNAB3 FAM153A SIMC1 TMEM192 RP11-423H2.1 ZNF778 NIPA1 FOXD4 GPR25 UBE2E1 HNRNPA3 SIK2 RNF150 CCDC144A RP11-262H14.4 CR848007.2 CHRNB1 GYPA USP38 SLC16A5 NANP ANKK1 ADPRM PWWP2A USP47 PDCD6IP ZNF212 FAM161A ZNF282 GLB1 C14orf142 FAXDC2 CRTAP ELP5 CMTM8 GABARAP LGALS9B STX8 CDK1 UBB NFRKB FABP4 PRDM10 B3GNT2 FOS TMED10 SETMAR SMAD1 SP7 FAM115C LRRN2 SLC30A1 DCLK2 ZNF804A GPRC5C TMEM182 KRT8 ADORA2B MGMT METTL7B KRT86 HARS NFXL1 DENND5B CD14 DNAJC18 SPATA24 RALGAPB WIBG MZB1 SLC23A1 NPAS2 KRT72 LONRF2 NUDT9 HSD17B13 PA2G4 ELOVL6 PFKFB3 ARL6IP1 SERPINB9 SMAGP IRX1 CDH2 EMB DLGAP1 STAT2 NUDCD2 IRF2BP1 HSPA4 COMMD5 SGCD GTSF1 DPY19L2P2 ZNF16 ARMC10 RNF34 ACYP2 TRABD TMEM133 ATF7 RASA4B SOCS6 MURC ZNF296 HOXB9 TTLL6 BOP1 POLH KIF5B AKAP13 CDCA4 CHCHD7 HTRA3 FOXN2 USP32 CEL PPM1D GPR27 AC093323.3 KBTBD2 MINA TRIAP1 LILRP2 LSM3 LILRA3 KIAA0232 MTSS1 TMEM43 RNF139 RPS9 PLA2G1B CYTL1 TSEN34 TRH GSTA4 MSANTD4 NDUFA3 OSCAR PAQR8 NUDT6 TPT1-AS1 TANC2 DNAJC24 ZNF160 ZNF415 PRKCDBP CEACAM3 PDGFD S1PR1 PYGO1 LRRC8E PKIA XKR6 TSNARE1 FPR2 FPR1 FEZ2 SOX7 C11orf24 FAM86JP CCBL1 MTM1 SIGLEC17P TRMT61B INSR MFN1 GIMAP8 NRTN KCNMB3 FUT3 ATP6V0E2 PRKCE JAGN1 RLN3 TADA3 SOCS5 C1GALT1C1 C9orf16 MORN4 ZNF672 ZNF692 NAIF1 RBKS TMEM126A TMEM126B TRIM8 NETO2 CDC42BPG SCAND1 JUNB C10orf35 TMEM37 LRG1 SHCBP1 SOSTDC1 NPTX1 FAM98B RP11-1055B8.7 ZNF439 ZNF440 GAA CANT1 ZDHHC16 CHST11 EXOSC1 PGAM1 CHD7 ESCO2 KRT19 LURAP1 CLCN5 TPPP KCND3 APLN KRT13 PDE7B MRPL36 ZNF581 NAT1 ZNF524 MCC ZBTB26 DSEL POLR1C ASXL1 ZNF562 ZNF318 ZNF561 MAP1LC3B2 WIPF2 HOPX LRRC8C RSL1D1 LRRC8D PPID COL24A1 ETFDH RXFP1 LPAR3 PTGER4 TBCA ECEL1 BCL2L1 PLRG1 ZNF584 DNAI2 NMUR1 CLSTN1 CXXC5 ZNF274 PIK3CD PTCRA SLC25A33 ENC1 SPSB1 P2RY6 BPTF S100Z ZIK1 GPR82 RP11-443P15.2 GPR34 PLEKHG5 ATF7IP C20orf201 RGS19 TCEA2 ANO5 HDAC3 GPHN VAT1L TMEM51 CAMTA1 LGALS4 LRRC34 SPATA5L1 GATM SYCE1 RASGRP4 NHLH1 SLFNL1 BCL2 RHNO1 CTPS1 UTF1 KNDC1 METTL18 TTC40 COL8A2 PWWP2B ZNF540 FBXL14 EXOSC10 ZNF570 NINJ2 MLLT3 FAM90A1 RRM2 TRAPPC12 RPS21 C3AR1 RNMTL1 PTEN RPS7 RNASEH1 PRNP CYP4F11 TLN2 LGALS9C TVP23B ZNF217 SRGAP2C SCG2 ATPAF2 CYP4F22 PPIH LRRC48 ZNF57 C20orf196 JMJD1C SYNPO MAL ZNF554 RAB33B THOP1 ANKRD20A4 LAMB2 USP19 QARS ORMDL3 SERF1A KLF11 SMN1 EIF2AK3 MOB3A KRCC1 NME6 CYCS CD8B SLFN12 SLC9C1 FRMD3 SNTB1 MTBP TEFM MRPL13 MALT1 PRL ISG20 MBOAT1 ID4 CXCR6 CEBPB AZU1 TPSAB1 PAIP1 CLEC7A C5orf34 C1QTNF4 SERHL NEGR1 ZNF131 MACROD2 DPAGT1 BSG HINFP CERS6 SPTLC3 COPRS TP53RK B3GALT1 CLEC12A BPGM POP7 ALG14 SUCLG2 STARD5 RCAN2 IL16 GNB2 CCDC11 FAM195A PDZD3 C2CD2L ARNT2 GNG12 PRSS27 SYNPO2 CLP1 TTC36 MYEOV2 GTPBP2 FGGY IL17D PRSS30P TCEAL1 ZNF24 MANEA RAB40A AGXT AFF1 FIBP CARNS1 BANP PPP1CA HCFC1 CTSW NIPAL4 PDE3A RASGRP1 KLHL6 CHCHD1 MRPL52 SMPDL3A RND1 RAD9A EFEMP2 AGAP5 C17orf66 TAF15 FAM21C TMEM134 ZMAT3 ZFAND4 THEMIS ZNF738 SLFN11 CORO1B FUT10 LRRC20 MUS81 PURG TMEM217 ZNF596 COL6A5 CFL1 TMCC1 NAA16 EFCAB12 FAM192A RAB43 CBWD1 RAB37 DCP2 ZBTB8OSP2 SNX32 RPL38 CYP7B1 OVOL1 RARG CES4A CES3 SSH3 CES2 PDP2 SP3 KRT2 DMXL1 METAP1D ZNF621 EGFL7 NADSYN1 DHCR7 AQPEP NBEA RNASEH2C MYEOV ANKRD13D MYD88 OXSR1 SLC22A13 PHF8 LCLAT1 MIR4435-1HG XKR3 AC007318.5 KAT5 SH3RF3 GXYLT2 DCAKD ARPP21 TADA2B CCDC96 ADRBK1 RELA EVC2 ZNF680 HECTD4 FAM222B BNC2 HPSE COQ2 C10orf131 HSPA6 TRMT112 LRRN3 KDM2A ADCK5 MRP63 NOC3L ESRRA RHOD COMMD1 RAPH1 MTX1 PARP14 CYSLTR1 PARP15 CKS1B ABCD2 AHSA2 ABLIM3 MAB21L3 RP11-683L23.1 KIAA1919 VANGL1 GLRX IQCB1 GOLGB1 ZNF483 PLAC8L1 SLC2A14 GPR137 SNCG MMRN2 MZT2A TNKS ZNF449 ZBTB21 PPP1R3B FAM86B3P STOX2 MAP3K11 TRIB1 KCNK7 SFT2D3 C1QB C1QA OLR1 DAG1 DAB1 ARV1 NAA20 MINOS1 EHBP1L1 THAP2 RNF26 PPP1R14B SSSCA1 SMARCC1 ZNF417 PTPRM FKBP2 VEGFB PEAK1 TNFRSF10D MST1 TNFRSF10C GMPPB MOB1B ZNF622 CSPG4 SNX33 NABP1 NUDT18 GPR113 CHD2 XCR1 CCDC106 CCR9 CCDC41 SULT1B1 NUDT4 PC SCAI NMNAT1 LRFN4 TRAPPC3L SLC19A1 RCE1 UQCRH EIF1AX CXorf23 PSMD1 HEG1 C11orf80 TOMM20 AP000769.1 AGFG1 STAT5B CD7 CNP JUP TDRD12 EIF1 ENDOV RNF213 TIGD3 PLK3 NET1 DPY19L1 RP11-97O12.7 PHOSPHO1 ZNF791 PHC3 GPR160 CBX2 SPTBN2 GOLIM4 RBM4B USMG5 HOXB2 C1QTNF1 3-Mar SWSAP1 SLCO4C1 RBM4 PIFO XXYLT1 UBXN2A LRRC63 TCAP CCS NRROS CEP19 KLHL15 FBXO45 GNG5 FAM3C2 SLC25A30 CD34 CTSF PIK3R6 RP11-1407O15.2 MSRB3 MRPL45 LEMD3 C16orf91 SOCS7 TLR10 TLR1 TLR6 FAM174A RGMB FAM53A CYB561D1 ZDHHC24 RP11-23P13.6 TRMT10C SELP CTU2 AGAP8 FAM21D MGA C12orf66 PIGG PRPF8 ADCY6 REP15 PITPNA DDX23 ZNF80 ZNHIT2 ZBTB4 TNK1 ZHX3 PHLDA3 SLC16A11 SLC16A13 PODN STAG3L3 SLC6A19 SNHG11 PMS2P2 C11orf45 EXO1 RALGAPA1 WBSCR16 RP11-313P13.4 C20orf166-AS1 LIG4 GTF2IRD2B ATP2A2 ZWILCH RPL4 SNAPC5 C12orf76 ZCCHC12 CNTNAP2 GALNTL6 LINGO2 BBS1 DENND4A GCSAM ANKRD36C MFSD4 PELI3 TMEM81 MRPL11 IL20RB AKIRIN1 MSL2 ZNF497 CMKLR1 ANGEL2 UGT8 KY IQCK SLCO2A1 ZNF266 SLC29A2 BRSK2 B3GNT1 TMEM167A SH3PXD2B RP11-79L9.2 KIAA1551 LARP7 FGFBP3 NR1D2 BRMS1 RPL15 C4orf32 HRAS WDR49 SRP72 PCP2 RIN1 THAP6 CEP135 FZD4 CD248 BTC PDZK1 EMR1 DENND6A PDE12 GLMN DNAH12 YIF1A CNIH2 AMY1B NLRP6 NDUFA11 RSRC1 CATSPERD RAB1B METTL15P1 PTDSS2 C19orf70 C3orf33 SEZ6L2 ASPHD1 KCTD13 P2RY14 AMZ1 GPR171 FUT1 DHX36 AC026271.5 FBXW8 KLC2 SLC22A1 CTBP2 CHST2 ZDHHC14 ATR FAM211A-AS1 UBE2C GK5 VCPIP1 DES PDIK1L SPSB4 RAG2 TRAF6 ZNF654 TVP23C MRPS22 PACS1 MARCKSL1 SH3BP5L TMEM51-AS1 YPEL2 ABO PSMD2 PPM1E FAM131A CSRP2 INHBC PARL DDIT3 PCCA DCTN2 ZNF408 CTDSP2 CKAP5 ARHGAP1 MED16 ATG13 C1orf127 CHST1 GOLGA8A VWA3A TP53I11 APITD1 DOLK PHYHD1 CATSPER1 CCNE2 PHYKPL GRAMD2 ZNF519 LSM1 BANF1 CHRNA7 TMEM9B NRIP3 PTPN2 SCUBE2 EIF1AD SMAD2 EIF3F ZNF25 ARL10 CLTB LPL RFESD CCDC14 TBC1D10C SART1 PPP2R2D MCTP1 POLD4 LRRC25 DPP10 CLCF1 TSGA10IP UBQLNL LIPT2 KCNE3 CABP4 ALG10B DRAP1 LONRF3 UCP3 UCP2 C11orf68 PAAF1 MRPL48 RAB6A P2RY2 FOSL1 ERCC4 SUGCT CCDC85B TMEM70 LINC00476 RPS6KB2 RMI2 TOM1L2 GOLGA8EP ZNF77 GPR156 LINC00116 C1orf172 B3GNTL1 MLXIP BAK1P1 RWDD4P2 NR2F1 AURKAIP1 TTLL11 TOMM5 LINC01106 RP11-121M22.1 SLC35E3 ZNF169 RUVBL1 SFN MSRA CCDC168 CTDNEP1 ETV4 FAM172BP SWI5 GAPT BAIAP2 CALCB AC004840.9 CREG2 RPL7AP66 ZDHHC21 TSPEAR PLEKHF2 CTD-2369P2.2 A2M ARL4D AC127496.1 DOK7 LRRN1 UBE2O ORAI3 UNC119B DENND2C PLEKHD1 TUBB6 LYSMD3 B3GALT6 ZNF613 RP1-146I3.1 NUPR1 JAKMIP2 RPL23P2 MBLAC2 TPRN KCNE1L ZNF683 SLC35A4 AIM1L IP6K1 SSNA1 CSTF3 YES1 CHMP6 DLEU1 UFSP1 TMEM39A TCP11L1 CCDC57 HSF5 SPHK1 BNIP3 MYPOP ATAD5 SMIM19 ZNF404 RTTN C10orf111 ACBD7 ANAPC2 ZBTB8OS CYCSP34 SLC35G1 SLC25A53 IDSP1 ZNF135 FOXN3P1 RP11-404O13.5 COX8A RPL37AP8 ZSCAN2 B3GNT4 CDC26 CRLF3 RNPEP EID2 EID2B RIMS2 KCMF1 DNAJC30 SPRYD4 VPS37D CLEC14A SYNE3 CLK2 LPCAT4 SLCO3A1 ZNF575 WDR25 CCDC101 PLA2G16 DIRAS1 PHLDB3 PRR15 GNG7 KIAA2018 CNTD1 CTD-2368P22.1 KBTBD11 B3GNT5 LMNB2 RMDN1 MEX3C RNF152 MYO1D C20orf197 LRRC37A BDNF SCAND2P CCDC121 ACSF3 BOK ZNF843 TTTY14 C8orf59 PFN4 CDK5R1 C15orf56 RUFY1 BASP1 LRRC37A3 RP11-629O4.1 AC009951.1 FKBP9L VSIG10 IRX5 METRNL FAM91A1 WSB2 TYMS PXMP2 TCEANC PNMA1 MAMSTR C18orf56 ANKLE2 C8G EFCAB5 GCNT4 TOB2P1 MUC20 THAP4 NFATC2IP FAM89B SHMT1 DPP7 SEC24C SMCR8 HCG4 MTHFR C19orf18 DEAF1 MTX3 TMEM80 SIX5 FBXO46 ZDHHC13 SLC38A9 ACER2 WDR73 POLE FAM109B SCN4B DSCAML1 RHOG EPS8L2 MRVI1-AS1 ANO6 ZBTB34 LINC00982 NUDT4P1 FAM210A TALDO1 ULK1 NAP1L4P1 RIMKLA RPS6KA3 B3GNT8 PUS1 PCNPP5 CHD9 OR2T33 PDDC1 AP006621.1 TRIM72 MAN1B1 KCNA3 FZD8 FBXO39 KCNA2 TOP3A CASKIN2 ZBTB38 BEND2 C8orf31 DLGAP1-AS1 AC024940.1 RPL13AP3 CCDC71 RP11-551L14.1 TIMM22 HIC1 PPFIA3 MAGEF1 UMODL1 RP11-218M22.1 SAMD9L ZFAS1 AC006001.1 PAWR TGIF1 MIEF2 NAP1L5 NIM1K CD19 OR2T8 NR2C2 GPR4 ACOT4 PTRF ARIH2 RBM44 ZBTB33 IRX3 SLC25A22 RABEP2 ATOX1 TBL1XR1 SAMD12 CD163 C18orf32 PIDD ZNF491 RPLP2 GSG2 JUN CSTF2T PGBD5 GBA CASC2 ACAD9 IL17RA PNPLA2 MBOAT4 AGTRAP CD163L1 THAP5 EFCAB4A SUMO4 DNAJC28 NAALADL2 CD151 POLR2L FAM20C PVRL3 ANXA2R KIAA0195 FLII SOX12 HNRNPA0 CTD-2201E18.3 ZCCHC3 CDKN2AIPNLP1 RP5-1061H20.4 RP11-606P2.1 CHID1 PCDHB9 ZNF620 ZNF518A TMEM187 CACYBPP2 CCDC23 ZNF619 C12orf68 AP3S1 GRB2 ZBTB41 UBE2N SPATA31C2 ARL6IP6 ZNF354C MAMDC4 CENPBD1 BET1L RPS27 RIC8A IMP3 ASB8 ODF3B DPY19L2 GPR150 FAM211B DMAP1 FAM26E IMPDH2 ALS2CL MLF1 PRSS42 NDUFAF3 C2orf69 GRAMD1C STAP2 ULK4P3 TWF1P1 TSSK6 BOLA1 PDE4DIP DDX10 GOLGA8Q NDUFV2 RP1-232L22__B.1 DALRD3 ZNF114 FAR2P2 ZNF518B ZNF366 LCORL PARD6G SH2B1 ZC3H12D VN1R1 KDELC2 PLEC SH2D4B RNF212 PRSS36 ZNF543 GALNT11 WDR6 GEN1 TMPRSS9 AQP11 TMEM11 ZNF354B KCNG2 ZFAND2A PLEKHM3 ZNF223 FAM220A DDC8 BEND3 RP11-567M16.3 NT5DC1 RPS3AP5 AC006111.1 LINC00843 GLDC COX14 H3F3AP6 MCMDC2 TUBAL3 CTD-2192J16.15 P4HTM DTX3 KLHL11 NECAP1P1 CTXN1 SLC25A20 CA8 CD28 EPM2AIP1 MAF CTNNBIP1 GTPBP6 ERN1 GPR35 ACTG1P1 RP11-455G16.1 ARMC10P1 ZNF713 PARP10 DYNAP SUZ12 NSUN3 KCTD12 DHFRL1 RP11-169K16.8 RPP25 GRINA GLULP4 THBD GP5 COX5A FAM132B FAM219B ZHX2 CPNE7 CD300LB MPI ADORA2A-AS1 TRIM73 OPLAH TMEM52 EFCAB13 MSC APOLD1 FAM101A EXOSC4 DPY19L3 TAF7 ZNF852 PFAS HYI C17orf62 ZNF552 LINC00086 GAK ZBTB7A TUFM C1orf173 RMI1 CTC1 AC097658.1 FBXO34 LINC00324 SEPW1 EIF3K MRFAP1L1 SNX18 AURKB C14orf39 MRFAP1 C3orf38 TMEM107 LL0XNC01-131B10.2 RRS1 EXOC3L1 RCC2 IGSF22 AC012074.1 C9orf106 DPM3 C12orf42 CYC1 PER1 HTR1F RP11-349N19.2 TMTC2 HES7 FARSA SPTY2D1 RP11-458F8.3 SAMD4B GIMAP7 EDC3 TCAIM FUCA1 PXT1 GGN HNRNPCL1 TMEM125 ZNF664 SIGLECL1 CALR MAGED1 RP11-111M22.2 LDLRAD3 CDH4 RP11-429E11.3 RAD23A GADD45GIP1 MEIS3P1 C17orf96 PTPN11 CTGLF12P NSUN7 ZCCHC5 FAM156B WSCD1 RAB39A CLK3 HLA-DQB1 GATA2 ARID3B HMGN2P46 PACS2 ELMOD2 EGR3 C1orf101 GPC5 VWA1 LINC00174 GEMIN4 HNRNPCP5 FJX1 KLHL28 MKRN3 ZBTB18 AL109806.1 C14orf28 ALOX12B EIF3J-AS1 SHARPIN LBX2 DNHD1 SLITRK4 GCC1 CIITA ZFPM1 ALOX15B PLD6 CDC42EP4 DGKZP1 ZBTB42 LACC1 MAF1 FCER1A KIAA1875 PCED1B RP11-169K16.9 APOBEC3B PIPOX CDH5 PCBP1-AS1 MYADM MROH1 SERTAD2 RBM15B C1orf200 AKAP5 NKPD1 GIPC3 AC025335.1 CITED4 ABCA13 NLRP11 TIGD5 PDXDC1 PHC1P1 ZNF154 R3HDM2 B3GNT3 ITLN1 NRXN1 SEPHS2 GPBAR1 ZNF784 ZNF648 C14orf119 CCR8 GOLGA8J BBS10 FIZ1 PUF60 SSC5D DCTPP1 ZNF771 PPP1R14BP3 RP11-1319K7.1 CRIPAK TSHZ1 PSTK SOCS4 ZADH2 RP11-756P10.3 ZNF48 C3orf80 TMEM150B C10orf91 ANKRD18A TMEM86B 1-Sep TRNAU1AP EXOC3 CSNK1A1L ACTA2-AS1 LYNX1 RPS12P23 MED14 FAHD1 TDRP RCC1 MYLPF RP1-278E11.3 TPT1P10 PRKRA HERC2P3 ZNRF2 RRH ZNF816 FGD6 GPR144 OAZ2 PNPLA1 CCDC43 C17orf104 FZD2 TIGD2 HCLS1 MTURN ZNF609 PAK2 CCDC66 EMC3-AS1 ATP5EP2 MCFD2 LINC00304 HARBI1 C11orf71 GAS1 HMHA1 CTD-3064H18.4 ZNF571 GLIPR1L2 FAM73A KCNE1 NRIP1 BHLHA15 RNF182 C9orf139 TSPYL5 FUT7 HIST1H2AC EIF2S3L SRP9P1 SKIDA1 HIST1H2BC MB21D2 SSTR2 ZNF594 PCGF5 PRF1 MAB21L1 YOD1 AC007362.1 EXOC5P1 TMEM64 RP11-290F5.2 CHRM4 SHISA2 S1PR5 CTD-2547E10.2 GPR157 PIPSL CHST13 WDFY3-AS2 SRSF8 SLC36A4 ZDHHC20 ZFP3 MAP3K15 PPA1 PSMG4 MAP6D1 ZNF443 PDIA3P1 CXCR2 GREM2 SSR4 CAPS2 ZNF792 CUEDC1 SCRIB KCTD2 D2HGDH OXTR CMTR2 FAM83H ZNF572 ST20 PITPNB TCEAL8 LRRC57 OR52N2 MRPL14 GPR137C BBS12 ZFP82 LSMEM1 NQO1 AEN FKRP TRAPPC5 RPH3AL SLC25A42 FCRL6 METTL23 ANKRD34A SLC26A11 HIGD1A OR52N4 MAPK15 EHMT1 RP11-429J17.2 SDCCAG3P2 F2R HLA-V ZNF707 MUC16 NPM1 FER1L6-AS1 PJA1 DHTKD1 PENK C4orf50 HIST3H2A ZNF746 POLR2A RP4-682C21.2 TMEM132C MTHFD2P7 TMEM136 FRAT2 TMEM102 TMEM132E ZNF322 FAM211A CTAGE10P HSP90AA6P DDX60L SYNE4 OGFOD3 XXyac-YRM2039.2 AATK DDN SAGE1 ZNF467 ZNF678 TMEM45A RAP2B ZBTB2 RNF135 ACBD4 SGSH RPL24P4 FANCB SETD2 C6orf223 TMIE MEX3D MRPS23 GPR135 SLX1B P2RY13 TNFSF15 ZFP41 PHLDA2 ATG9B GPR88 HKR1 PLAG1 YIPF6 ZBTB20 C3orf58 C5orf30 AMIGO1 GPR3 SIAH2 COPG1 BAI1 LINC00471 SLC9A9 LSM10 KCTD9P2 RELL1 RFX7 SLC35C1 TIGIT RNF41 SLC2A4 IBA57 CLDN7 ZNF329 ZNF101 C5orf24 AP003774.4 ADO COA4 PRKAG1 GINS3 OR52K2 CCDC149 MRPS11 SNRPE RTKN2 PNMAL1 CHST15 TRPC2 IDH2 Z83851.3 TMEM259 WRB TNRC18 TMEM30B DEXI RP11-69E11.4 NOP10 FAM89A KCNIP1 TDRKH ZNF708 IST1 ERCC6L2 MRPL41 CREB3L2 P2RY8 TP53TG1 UNC5C TSEN54 RGMA UBA7 MRPS16 FAM159A RAD51B LDOC1 ARL6IP4 EXT1 SHMT2 MOB2 HIST2H4B HHIPL1 ATP6AP2 CYB5D1 FAM153B BACE2 UBE2E2 SYNM C22orf26 FIGN IZUMO1 B4GALNT4 AP1S2 C8orf33 DCAF4L1 SPACA6P ZSCAN22 SGK223 KCNJ14 FBXL6 C1S CRIP1P4 KBTBD3 YBEY CLN8 PLCXD1 NXPH4 RPL27AP5 CACNB4 DNM1P46 TRAPPC6B PGBD4 NPLOC4 TSHZ2 CAPN12 EXOC7 KPNA2 WASH6P NCF1B XKRX BGN ORAI1 ABHD17AP5 CEP97 FES GLRX5 FAM104B MXRA7 LIMK2 MFSD5 ADI1 RWDD4 SPNS3 CLEC4G SATB1 HIST1H3I RP3-341D10.1 NXPH3 CSF1R EPHB3 ACTL10 C2orf82 HS3ST4 TRAK1 HIST1H2AJ TSPAN10 PLCB1 SKA2 NDN FAM156A LINC01006 TTC3 PPP1R27 BRICD5 GALR2 IGIP TSKU ANXA2 RGS6 HOXB4 SLC35D3 PAQR7 PAPPA MAFA NGRN GRID1 RPS17L HCAR2 CCDC87 C1orf116 TMEM198B CRIP2 DDX28 FUNDC2P2 ACBD3 C16orf72 RRP7B VMO1 ALG12 LCK COL18A1 RBM10 RP11-181G12.2 GPR97 RP11-558O12.1 GLUD2 RPL35A ZNF721 LENG9 C21orf90 C11orf54 CCDC75P1 CEP63 SRPR EWSR1 ODF3L1 HMGN4 SPATA13 GJC1 CNOT10 MTA1 ZNF662 CADM1 ZNF320 C12orf60 PYCR1 LSMD1 SPNS2 C19orf59 AP2A2 TPM3P8 SLC8A1 SLC25A21 ABAT SLC25A10 CAMK1D RGPD6 LYSMD4 WBP2NL AFMID GATSL1 GAS6 NEB BEGAIN GPC6 ARHGEF37 CSMD1 PTGDR2 CEP57L1 GPR19 RP11-863K10.7 RABIF TMEM119 FANCF CALN1 RP11-49C9.2 SMDT1 HSP90AB3P RUVBL2 GDPGP1 CTNNA3 WT1-AS RIMBP3C CTD-3193O13.9 C21orf67 PTTG1IP DDX41 PLGLB1 DAZAP2 15-Sep RP11-556K13.1 CECR6 AC005037.3 ZNF623 SPDYE4 CCDC125 BCOR JRKL KIAA2026 FHL3 C19orf71 CCDC159 RPS7P1 RIPK4 LRIT3 NPIPA1 SF3A3 TRIM61 OR7E38P RP11-958N24.1 URAD SSTR3 GTF2H2C ASB7 TREX2 GPR132 MX2 EP400 MEX3B PI4KAP2 FAM46C COA5 UTP11L PSMG1 PRR14L KLRC4 HIST2H2AA3 SERHL2 PCBP3 SETD3 TNFAIP8L3 ZNRF3 HMGN3P1 TANGO2 HIST2H3D RP11-347C12.2 SFXN4 FAM167B MRPL54 ZNF438 HMCES CCR3 DGCR6 RP1L1 ZNF530 NDUFB1 KLHL25 PP13439 TRMT12 GUSBP1 BMP8A ALYREF FAM101B EFHC2 NOG UPP1 TRIM52 LHFP CMTM4 TMEM50A NPBWR1 ASCL2 TBK1 CBX6 MACC1 MRC1L1 TBL3 KREMEN1 TRAIP CHEK2 AIFM3 ZNF703 SLC35F3 C9orf66 TUBA8 NPIPA5 RBM12B CCR4 LIN9 BTBD9 NUDT14 MAATS1 PNMA3 FAM3B ZNF730 KIRREL IQGAP3 TOB2 SCN5A ARSI UTY NPIPA7 TTC32 DNAH2 SH2D1A DUSP5P1 HTR7P1 HIST2H4A PRKX SETD8 KCNH8 SMTN NPW COA3 NPB ST6GALNAC3 PTP4A2 ACTG1 DENND5A DIABLO VPS33B TBX1 ADAP2 RP5-821D11.7 UQCR10 FAM120C BRD7P2 TREML3P EIF3C CLDN5 NIPSNAP1 RPL7AP28 LRTOMT KCNQ3 ADRA2C NR2C2AP FAM132A CRELD2 SCFD2 UBE2F KCNJ12 GPR173 PPP1R2 TSPYL2 GOLGA6L4 PGP C22orf46 SNRNP35 IRAK1 CMSS1 OLIG1 PCDH9 ACOT1 OAF ALDH1A3 HIST2H2AC KCNK12 HIST2H2AB POU6F1 TM2D3 TSSC4 TACSTD2 CLECL1 PRKD1 CCSER1 ZDHHC23 MROH7 RPL23AP82 SRPK3 HIST1H2AK EFNA5 HIST1H1B SPATA32 PKP3 MAP7D2 CSF1 ACTRT3 PLA2G6 MAML2 C21orf128 A3GALT2 SS18L1 TOP1MT COPB2 THAP7 AP001062.7 KNTC1 CCR10 WDR27 TXNRD2 FOXO4 PTP4A3 FOXD4L1 TMEM255B PROS1 HDDC3 BEX5 ZFP1 C6orf58 DUSP8 AC132872.1 SOCS3 SLITRK6 PIWIL3 LPAR5 XPOT TMEM173 PDE4B SNN RPL7P26 NELL2 KRBA2 MED12 ZNF93 9-Sep CDCA2 GSTT1 AMER1 ZBTB40 HIST2H2BE C11orf89 5-Sep EIF4ENIF1 LRRC26 SERINC4 RNLS APOBR FAM110C ATL3 NDUFA12 RP11-480I12.4 RPS17 SMIM10 TCTE3 UBE2G2 OSBP2 UNC93B5 HIST1H2AH ZBTB7C APOO PRR16 TMED9 CYCSP45 TMEM186 SDR42E1 RBM33 ARMCX2 PIGW BTBD6 H1FX RBM43 SUMO3 IMMP2L TCEAL2 JAG2 FMNL1 NUTM2A PTRHD1 LCN12 WT1 ZFP90 FAM227A NOC4L USP18 NDUFA6 SORCS2 TMEM121 TMEM106A SIVA1 BRI3BP DGAT1 ROBO2 AP3M1 F8 CA13 UBOX5 MAFF BRF1 SLC2A3P2 SEMA4B CIB1 NELFA SLC24A3 EFCAB10 AC000068.5 FLRT2 INTS5 RPS27L MANEAL ADSSL1 ANO9 FAF1 FAM43A NDNL2 HSF1 C6orf120 TBC1D3F PURA HIST1H2BL INPP5J MIXL1 MFSD6L LRRC37B DDX51 NOMO2 LINC00482 SIGIRR NRBP2 PRSS57 IFITM2 WASIR1 TNFAIP2 ZNF445 PGBD2 WBP5 RAB11B PRMT3 GP1BA PRPF39 PPIL6 ZNF74 KIAA0825 UBALD2 CDNF NOTUM KLHL33 RBM11 CD24P4 ZBTB37 IL3RA CCDC137 RGPD2 ARL15 CDK10 TMEM105 SOCS1 TCN2 GAS2L1 ATP6V0A2 PARK2 C14orf80 HGS TNFAIP8L1 RAD51D MAPK11 SP140L TARSL2 SMYD3 METTL7A IFNLR1 SH3BGR FAM174B C19orf68 TMEM179B GPRIN3 PARPBP STAC3 ROR1 SDHAP1 MUC1 C17orf70 IRF7 L3MBTL1 BRCC3 SV2B C11orf35 PDE6G PRKG1 NR2F2 DLK1 TLCD2 LSAMP AHNAK2 OLFML2A SP1 WASH3P ACTBP7 MRPL40 FAM212A PDIA2 PCGF3 LMLN P4HB PSMD13 PBX1 NDUFA4L2 SHC4 CTD-2287O16.1 ZFP36L1 UBE2L3 BRWD1 PMEL SNAI3 ZBTB3 EP400NL PRAME MYBL1 RP11-645C24.2 C16orf52 DRG1 ANKFY1 YTHDF3 ZNF696 ADARB2 SRL IFIT1 CXorf38 KCNQ5 ADAMTSL5 MORF4L1 WDR53 DMWD SLC52A2 PIGP IKZF1 PCYT2 NAT8L BCAP31 ARL17A RPL12P4 GNB1L RP4-592A1.2 DNAH14 EVI2B NPIPB4 ZNF829 THNSL1 TRIM69 ATP6V0C IFITM1 LAMP1 FFAR3 TAS2R60 POMK C16orf54 KLHDC8B SETD4 PTCH1 RTN4RL1 PAGR1 RNPC3 ZNF267 IRS2 C7orf61 BICD2 CCIN TMLHE GRK1 SDHAP3 RASA3 F8A3 LRCH3 NDUFA13 ZNF566 AC084219.4 ZNF529 ZNF284 DLEU7 KRT73 MATN1-AS1 AIDA C15orf41 CD300LF RP11-887P2.3 KRT5 GSAP AGBL4 CYP2R1 LRRC70 ANKRD46 PIP5K1C CYP4F2 ZBTB6 C2orf76 POLR3C AC013271.3 LILRP1 WWOX CIDECP CCDC84 BCL9L POLR1D KIF18B ZNRF1 FFAR4 SAPCD2 EDARADD CYP4F12 1-Mar 1-Mar LCE5A BLOC1S4 ZNF749 KLHL32 AC016757.3 MKL2 BTLA ZNF17 NBPF12 KDM4D GPAT2 TOR3A PPP1CC ZNF555 MST1P2 NAP1L3 CA5BP1 PRELID2 BACE1 GOLGA6L17P RGS9BP RXRA ANKRD37 C9orf47 NUDT17 ZNF75D KRT10 GOLGA8R CD300E CCDC30 NKRF GLDN FCAR KPNA4 ZNF501 ZNF197 SPATA12 FAM228A NAP1L2 AQP7P1 RPS23 GNG2 BTN3A2 PCLO INSIG1 ANKRD20A5P ZNF396 TMEM222 CLCNKA ARHGAP30 10-Sep FAM86B1 CYP4F3 XKR5 SMYD4 FOXD2 GPATCH8 CEACAM19 NF2 C6orf1 SPATC1 UBE2H MIR22HG HPDL KTN1-AS1 KATNA1 ARAP1 KIF24 PDE2A LRRC16B PRG2 PRR5 ZFP91 C17orf58 BCDIN3D EEF1GP1 LYRM7 DTX2P1 CCDC73 MST1L BCR MPPED1 TPI1P3 FSCN2 SPIN4 SPIN2B HYAL3 VSIG10L ANXA8L2 CXCR3 ZNF397 ZSCAN30 TPCN1 LILRB4 TNFRSF4 KRT17P2 KRT16 HEXIM1 LINC00846 TRABD2A PDZD7 POFUT2 MAPT ERCC6L TMEM17 TNFRSF18 RTN4RL2 ZDHHC17 P2RY4 ZNF395 ZACN CHCHD2P9 PPARA TMEM232 EFCAB6 KANK3 EMID1 PKD1L3 RHD ESPN PTRH1 GPR141 TMEM216 RPS19BP1 RP11-187C18.3 C3orf70 TEAD1 OR2AK2 PLCD1 ENTPD5 MITF NAP1L1 LILRA5 CMC1 LYPD6 AKR1C1 SPATA21 MRPS21 RNF220 KIAA1598 ZNF546 TSPYL4 MT1X GCNT1 SESTD1 FNBP1 DYNC2H1 MAGED4B BCAM RSBN1L WDR86 EPOR FAM9C TAF9B PCDHB13 MAGI2 CHP1 RDM1 FPR3 C11orf96 KCNJ11 CDHR4 COL4A1 RPL7P48 GJA4 PTMA HSPA14 SIRT7 CTC-471F3.4 IFT140 TLR5 USP7 NANOS3 NHLRC1 PLEKHN1 TERF1P2 ZNF385C MAGEH1 TET3 ZNF286A ISG15 EXD3 TCL6 C17orf97 ZKSCAN4 RGPD1 DHRS4L2 SAMD11 VMAC TMSB4XP8 WHAMMP3 B3GALTL SPRY4 TRPV2 RP11-723O4.6 C2orf88 TMEM203 KBTBD12 THSD4 GABRD AMY1C TCEA1 NHEJ1 FANCA SECISBP2 C9orf153 HSPE1P11 SEMA4D DNAH17 MCRS1 TMEM72 SCXB FANCM ZNF70 CARD9 PEAR1 ZFP69B SOWAHD ZFP69 TMEM220 HIST1H1C TMEM256-PLSCR3 EIF4EBP1 CCDC157 TTC24 FAM122A RNFT1P3 SHISA7 CLEC17A LCN10 LDLRAD2 C2orf66 ARHGAP11B HS6ST1P1 PMS2CL CYHR1 COL14A1 DNER KLHL17 PLA2G2C ZSCAN23 RP11-405L18.2 HIST1H2BG RINL C17orf99 OR7D2 TPRG1 RP11-43F13.1 C1orf204 MORN2 CXXC11 MEIS3P2 S100A3 UBQLN2 RILPL1 ZNF490 CLCN1 NWD1 ARL4C TMEM221 TREML4 RAB42 WNT7B C11orf95 PMS2P10 GPR89B MESP2 EYS C6orf132 MAPK12 COL4A5 AGRN NHS FAM166A TMPPE ZNF626 HEPACAM2 ZC3H6 LINC00265 LAMTOR4 PRKAR1B NUTM2B HNRNPU-AS1 NCR3LG1 DCUN1D3 ZNF793 TUBB4B AGAP4 CTD-2228K2.5 COMMD6 HYKK C15orf62 RUFY4 ZNF383 HES4 ZNF669 C19orf35 LRRIQ4 CENPP PLSCR1 C3orf62 ZNF559 SBK1 GTF2F2 FAM92A1 FOCAD AC092171.2 PRR19 ZP3 H3F3C JAKMIP3 GOLGA6L3 PDCD1 GPR21 TCTEX1D4 SELL CHM BLOC1S5 SRP72P2 CERKL WASF4P ACTBP11 IER5L H2AFX INSC C19orf54 C22orf34 RP1-273G13.2 COL25A1 FAM83G SRSF10 HBA2 DUSP28 C15orf52 NBR1 RALGAPA2 NDOR1 NKAIN2 PAQR9 C12orf55 NPIPP1 CLN3 FAM72B ASAH2 SUMO2 NANOS1 GOLGA8M LDOC1L DPYD S100A16 PTAR1 FAM154B RHCE PARVB TEKT4P2 SLC4A5 UROS ZDHHC9 ZBED6CL QRFP SMIM15 FAM221A TMEM120B FSIP2 RBM34 NOXA1 TMEM198 BCL2L15 FZD9 TMSB4XP2 SPRED3 SKOR1 ZNF548 MTF1 ZNF322P1 TMEM201 NHLRC3 ZDHHC11 FAM26F CNR2 LINC00910 SLX4 ENTPD8 RPL14 BEND4 RPSAP47 ZNF563 RPL10AP2 FBF1 KLRG2 ASTL GPR179 MSL1 CTD-3088G3.8 LRRK2 FAM196A TRMT2B PTPLAD2 C1orf192 USP32P1 FAM120AOS RP11-427H3.3 NOC2L MSANTD1 DHFRP1 NELFB HIST1H4D LRRC66 ZNF292 HUS1B KCTD21 ADAT2 AC138783.12 FAM35DP ZNF567 NDUFA4 ANKDD1B ALKBH2 RNFT1 RNF222 RELN FAM111B APOD H1F0 LITAF VSTM1 TMEM120A ARID2 RIMKLBP1 SF3B3 BLOC1S3 SP6 ANKRD34B NKAPL UBE2Q2P1 CLDN4 ZNF573 CRYM-AS1 GRAPL FAM47E HN1 ZNF527 TNRC18P3 S100A13 ZNF33A PCDH18 ZNF600 BTBD8 DPY19L2P1 MAOA PAX8-AS1 C15orf61 NUGGC TSPYL1 PNRC2 C22orf43 FHIT FAM150B ZKSCAN3 RRP7A LIN54 RP11-797H7.5 FAM53B S100A14 KAZN SLC35E2B RPS2P46 FAM179A TMEM194B GSPT2 C8orf76 HMGB1 SPATA41 ZFP92 USP32P3 NCR1 OR2L13 BLOC1S2 SYCP2 ZNF724P IL1RAP PAX5 SPOCK3 ZNF699 TDRD7 C16orf93 KIAA0895L HLA-DRB1 MYT1 AC005831.1 AKR1C3 SPATS2L ZNF250 WDSUB1 ZNF79 S100A4 PLEKHG4 FAT4 KIF19 ZNF681 HIST1H4A ACADSB STK40 RPS2P4 TMEM63A CTSE SEMA4A MPHOSPH8 RNF216P1 EEF1A1P5 GREB1 SIRPB2 ZNF766 RYR1 SRGAP3 HIST1H2BB FAM217B TUBB LCOR SUPT5H XPNPEP3 ZNF107 PPIA ZNF471 ZNF836 ZNF493 GTF2IRD2 SUPT3H NIF3L1 AC005154.6 ATP2A1 HLA-DRB9 RP11-497H16.5 IARS HIATL2 POM121 ZBTB44 GIMAP5 HIST1H2BO STK31 NLGN3 ZKSCAN7 CD55 CPNE4 AC021860.1 ZNF565 NTNG2 WDR5 LONP1 C9orf163 TRRAP NUDT11 SRGAP2B FUT4 ASB13 HIST1H2BM ZNF34 ZNF781 ZNF140 INCA1 ZNF774 PTPN1 EVL ZNF658 EPHB4 PRTN3 ZNF765 ZNF124 XRCC6 S100A5 LINC00176 PPP1R26 TSC22D2 ASMT NPIPB15 ZNF569 ARMCX4 YRDC ZNF777 PIK3R4 ZNF775 ZNF605 TRAPPC2 RFX8 MYL6B ZNF799 FGF16 SIAH1 C20orf96 IPO4 NCOR2 SULT1A1 ARL9 PRPF40A GDAP2 TCEAL3 ANAPC7 TPK1 SLC6A9 AFAP1 NACA HIST1H3C C1orf186 MYO18A SPTSSB C17orf59 MAN2A2 MME FAM72A CACNA1H LINC00610 SULF2 HBG2 LAMA2 PLXNB2 AJAP1 XRCC2 MYO6 MKL1 HDAC2 ZNF782 POTEF ZNF846 RIMBP3 TCF4 ACN9 HRH1 RABL6 GPR89C ZNF136 GOLGA6L20 ZKSCAN5 ZNF502 TRAPPC4 AC004057.1 TTC30B TECPR2 TLR7 FAM180B LINC00173 ZFP62 Z98881.1 ERI2 TOMM7 HSH2D TRPV1 ZNF33B PDXDC2P ZNF512B AMZ2 ZNF431 NF1 VKORC1L1 ZNF418 DAPK1 HLA-DQA1 COL27A1 CXorf24 GM2A HIST1H2AI S100A2 SNHG17 ZNF700 ANKRD20A1 CD47 TLE1 MAML3 HIST1H2AG STRN3 ZNF239 CTB-134H23.2 CTBP1-AS2 ZSCAN16 MVB12B C6orf106 ADA ARID5A PPTC7 TOMM20L RGPD4 NHLRC2 ZFP28 KIAA1211L CBWD3 SCN8A LAMB3 KPNA5 ANKRD36B ARHGEF12 HCAR1 ZNF252P PDLIM7 FLNA AC009093.1 RPS26P11 RIMBP3B SRGAP1 FAM3C NOP9 SLC39A10 RP11-425I13.3 CASP4 AP2A1 PCDHB16 HIST1H3E ZNF585A FUT11 ANXA4 LAGE3 WDR5B NPIPB9 WDR45 METTL9 ZNF138 ZNF429 ZNF470 SERTAD1 ZNF100 CXorf40B ZNF398 ZSCAN25 ANXA6 ZNF441 GMFB SIGLEC15 ZNF420 ZNF763 ZMYM1 DTHD1 HIST1H4C RP5-874C20.3 MAFG OR2T32P ARRDC1 KIAA1671 IGF2R GAL3ST4 RP11-573D15.8 DYNC1H1 PCBP2 ZGPAT SLC25A29 PGAP1 SRC ZNF682 ZNF772 ZNF257 PCNXL3 ADAM32 ACSL5 AL133458.1 LRRC8B RP11-452G18.2 ABCB8 HIST1H3J SND1 ZNF785 SULT1A2 NEK5 PSMD12 BX936347.1 PIWIL2 FLJ27365 C20orf112 C9orf169 SLC22A4 ENTPD4 C1D TBC1D9B HIST1H4J FAM110D SERPINA1 TPSB2 KANK2 EIF4BP6 C6orf141 CCL4L2 GTF2E2 IL27 RAD54B ZNF165 SYNGAP1 RP11-589F5.3 FITM2 BLM RP11-366L20.2 ZNF720 DDI2 AC060834.2 SVIL TRIM33 LRP10 PELI1 ZNF833P ZNF655 MRPL21 LYPD2 UAP1L1 BNIP3P1 ZNF98 FBXL22 ZNF786 ZNF517 ZNF675 SLC22A5 DACT3 ADARB1 ZNF860 HTT OR6N1 C5AR1 HIST1H3D VEPH1 SHPK GGT3P IPP MAP3K5 OGDHL CYP2F1 GSTK1 HNRNPAB OR2L5 STMN3 HIST1H2BH PDGFA GYPE COL13A1 SPN ZNF695 RP11-170L3.7 PCDHB11 ZNF628 SLC2A10 ZNF665 RPF2 SLC28A3 FAM177B MIB2 MYO5A C5orf56 GZMM ATG7 RP11-460N11.2 SIPA1L1 TTC30A SSPO ELANE RAB40C PIGN COL4A6 ZNF624 HHLA3 RPS17P2 HOXA4 TOPORS BCO2 GPX1P1 ENTPD6 ENPP1 CCDC154 FAR1 C5orf42 AC022532.1 ZNF841 MFAP5 ZNF615 CXorf40A CDC42SE1 MPEG1 SERPINB2 DPP4 PDCD1LG2 ZNF433 DNAH10 TBC1D3 SPTAN1 NMB HIST1H2BE ZNF595 PARVA KLHL14 FAM114A1 RPE ZNF460 CR1L PHF2 RPS26 PTMAP2 PSAP S100A10 WDR96 RPL37A TXNRD3 CFD MCMBP EME2 KLHDC1 ZNF81 TAF13 ZNF780A ATAD3A FAM118B ZNF461 CTC-301O7.4 CCDC180 SLC9A8 OCLN HIST4H4 ZNF181 AL358813.1 HIST1H2BF SLC22A20 FAM212B ZNF44 GPAA1 ADAMTSL2 SGTB ZNF790 FAM49A MYO1C MDS2 NKIRAS1 MEIG1 KIF13B ADH5 HIST1H2BK TEAD4 SPG7 HIST1H4K C2orf27A ZNF677 ERO1L F8A1 ZNF823 ZNF311 ZNF347 PLCG2 FCHSD1 ZNF71 S100A6 RPL12 DNM3 ZNF121 MPZL1 VPS13A MBP AKAP17A GOLGA6L9 LEKR1 C1orf122 SNHG12 CLEC9A KEL NOL8 IRAK4 CCDC151 DLGAP2 MRPL42 ENTPD7 FCGR1B ZNF335 RPS4X AGAP9 ZNF273 ZNF84 MAK16 ZNF667 AVPR1B SIRPA GRK6 PRIM1 5-Mar RP11-347C12.1 SULT1C4 ZBTB14 CD2AP NUP62CL SFI1 ZNF649 ZNF248 SNX29P2 CHSY3 TOR4A LPAR1 OR2L3 HIBCH ZNF544 TMEM229B RP11-267J23.4 SOWAHC ZNF770 AC135178.1 ZNF849P ZNF876P NPIPB6 HMGN5 MIER1 PPIAL4C MAN1A2 SVIP ZNF251 DDRGK1 TFDP1 CLEC4C ZNF607 ZNF334 HSD17B11 SZT2 SULT1C2 ZXDA RPS6KL1 CACNA1E QRICH1 CSF2RA FKBP1C DDX42 RP11-98J23.2 RPL23A SLC29A3 ANTXRL STYX UBL5 HELZ TMEM116 UCKL1 CARD11 ZNF485 PEG3 SDAD1 BMS1P9 ZKSCAN8 FAM109A HIST1H4F HYLS1 MYL4 HIST1H4I ZNF442 ZNF813 PIM3 ASNA1 ASPH HIST1H3A SPRED2 WWP2 HIST1H2AL GFPT1 UVRAG ZNF26 ITSN2 NTRK1 BZW1P2 MGEA5 MT1F FAM115A ZNF69 TXNRD1 NRARP ZNF583 OR14L1P ZNF568 ZXDB ZNF480 ZNF587 TPM2 FLVCR1-AS1 ZNF280B SH3BGRL2 ZNF808 ANKRD35 YTHDF2 NBR2 TMA16 HLA-DRB5 ATL1 CNGA1 MAFK HIST1H4E C1orf228 ZNF43 GPN1 ZNF28 ZNF511 C20orf203 ZNF627 KCNRG WDHD1 RP11-598D12.4 ZNF789 CTNND1 DDX39B SH2D1B ARC AC073343.1 NUDT16 TLK1 LRBA C3orf35 MMP17 BAZ1A COPS8 PPIAP22 CCDC69 MDM4 RYR2 AC004878.3 ZNF534 KLHL9 NCOA6 STK39 ABHD17AP2 C6orf89 CALM1 FAM19A2 TTC37 TUSC1 PAPSS2 C3orf27 SLC9A6 FAN1 EIF1AY MT-ND6 IPO9 CEP290 SSBP3-AS1 MT-CO2 C1orf85 FAM179B DLL1 ANKRD13B ECI2 UNC13B C19orf45 MT-CYB LDB1 PPP1R14C CTR9 SMOC1 F5 MSRB1 ZNF652 SMURF1 RP5-857K21.11 GPATCH3 GATSL2 CDC42BPB PLXNB3 OXCT2 RPL10A COLGALT2 MT-ND2 RCSD1 FAM169A ZNF830 GRIN3A MT-ND5 CNOT7 TMEM184B MTOR SCAMP5 ZNF521 ALPK2 LRIG2 MT-CO1 PNP GK FOXJ3 ZNF358 SFT2D1 CD247 CHAMP1 INPP5F ARHGAP11A SUCNR1 HMGN2 SELM UBE2J1 GJC2 OPA1 DENND4B RYR3 ZNF277 MT-ND3 KTI12 DUSP27 SELT TOX CES1 CD3E RUSC2 FICD OSTC R3HDM4 TSEN15 LTN1 RUNDC1 CCDC152 MIR4461 C9orf96 GRK5 TYW1 DCAF12 SFMBT2 PNMA5 ITPRIPL1 MT-ND4 SMC5 MT-ND1 PRMT6 SHISA4 CIPC CAPZA2 MT-ATP6 TOP1 PRC1 BHLHB9 MAP3K3 L1CAM SREBF2 C1orf174 RASGEF1A C9orf114 RPL39 DZIP3 KIAA0753 DCLRE1A ATG9A NOS1AP APRT GPRASP1 TBKBP1 MAGEE1 CCDC167 MT-CO3 ZFP2 L3MBTL3 DMD MFAP3L NAGA SMG5 KIAA1279 TGM2 ARMCX6 PJA2 RORB SGMS1 MIR103A2 MIR425 MIRLET7D RNU4-82P RNU5E-1 RNU5F-1 SNORD9 SNORA31 RNA5SP195 RNU5A-1 RNU6-1010P RN7SKP173 RNA5SP307 SNORD104 RNA5SP383 RNU1-134P SNORA73B SNORD103A RNU5D-1 SNORA71D RNU6-1099P RNU6-1017P SNORA33 RNU6-226P RN7SKP180 RNU4-1 SNORD14E SNORD46 SNORA65 SNORA68 SNORA55 RNY4P7 RNU6-312P SNORA71C SNORA16B RNVU1-6 RN7SKP78 RNU6-593P snoU2_19 RNU6-60P RNU1-59P RNU1-133P RNU6-828P RNU6-384P SNORA5C SNORD117 RNU5E-4P RNU4-9P RN7SKP80 RNU1-60P RN7SK SNORD6 RNU6-8 RNU1-16P RNU6-652P RN7SKP292 RNU1-122P RN7SKP269 RNA5SP283 RNVU1-20 RNU4-2 MIR421 AL353898.2 RP11-498P14.5 RP11-98D18.9 AP001007.1 ZNF525 AC012358.7 AC074019.2 AC105020.1 AC015969.3 AC020907.2 BTBD7P1 FAM32B INF2 PDCD4-AS1 FAM83H-AS1 AL137059.1 RHOT1P2 AC007690.1 AC083799.1 AL353671.3 OR2L2 EFCAB2 COX20 CHML IBA57-AS1 C1orf95 TATDN3 C1orf132 CR1 C6orf99 LINC00862 RAET1G C1orf53 GPR52 RP11-296O14.3 FCGR3A OR6K3 CENPW MSTO2P FAM229B FANK1 METTL10 DDO CCDC162P ADAMTSL4-AS1 PPAPDC1A HIST2H2AA4 HIST1H3H HIST2H2BF FAM231D FAM72C HIST2H2BC NBPF16 NBPF20 ABHD17AP1 NBPF24 PFN1P2 ATP1A1OS RBM20 C6orf164 C6orf163 SNHG5 RP11-451M19.3 GDI1 PCMTD2 SOX18 LIME1 HSP90B3P SAMD13 FAM127B C1orf141 EFCAB7 C9orf37 RP11-290F20.1 LCN8 IFIT1B LIPN LIPJ TRPC5OS AL359195.1 RP11-465L10.10 LINC00963 RP11-247A12.2 FOXO6 TCEAL5 SYS1 RP4-545K15.3 INPP5B RPA4 NEU4 MAFB TRAF3IP1 RP1-153P14.8 CHIC1 GIGYF2 RUFY2 NHSL2 GGTA1P PHACTR4 ASAH2B AGAP6 CTGLF11P TIMM23B ZDHHC18 C10orf128 BMS1P5 CXorf65 AGAP7 AGAP10 SYT15 BMS1P1 TMEM57 ZDBF2 RPL12P1 DAXX BMPR2 TCEA3 PFDN6 RING1 HSD17B8 RXRB OXLD1 RP11-713P17.3 COL11A2 HLA-DOA HNRNPCP2 BRD2 HLA-DMA TAPSAR1 COL5A2 PSMB8 TAP2 SPIN3 RP11-622K12.1 TNRC6C-AS1 FLJ45079 HLA-DRA COL15A1 NOTCH4 PBX2 AGER RNF5 AGPAT1 DFNB59 PRRT1 FKBPL MRPL38 SMIM5 CYP21A1P STK19 CD300LD DXO SKIV2L C9orf129 NELFE ZBTB12 SDHD EHMT2 C1orf134 LAYN SLC44A4 NEU1 C6orf48 HSPA1B HSPA1A HSPA1L LSM2 VARS VWA7 CARD16 MBD5 MSH5 C6orf25 LY6G6C LY6G6F ABHD16A LY6G5C RP11-1E11.1 POTEKP CSNK2B GPANK1 C6orf47 APOM BAG6 DGKK PRRC2A AIF1 NCR3 LST1 NFKBIL1 ZNF814 MICB ZNF551 MICA ZNF805 HLA-C CCHCR1 CDSN CTD-2514C3.1 DHX16 C6orf136 MRPS18B PPP1R10 ABCF1 PRR3 LILRB3 DDR1 RP11-304F15.3 LINC01123 GNL1 HLA-E TRIM39 RP11-638F5.1 ZNF468 TRIM15 ZNF616 TRIM10 PPP1R11 AC115618.1 HLA-J ZNRD1-AS1 PTCHD2 HCG9 GNB2L1 HLA-G TBC1D8 AC068538.2 HLA-F ZFP57 CRHR1-IT1 RPS26P8 AKT1S1 FAM153C GABBR1 CASC10 STARD7-AS1 MAMDC2-AS1 TRIM27 MALRD1 AC083899.3 CTC-308K20.1 RANBP17 CTD-3232M19.2 KM-PA-2 RP11-15J10.1 ZNF204P CBWD6 CTD-3065J16.6 TTC25 MRPL53 RP11-204M4.2 MROH6 ATXN2 DCTN1 AC011484.1 PNMAL2 TCTN1 FAM216A ZBTB48 FAM201A AC092653.5 GPR20 MZT1 CXorf31 ZNF155 C11orf83 FBXO48 FAM221B CD177P1 ATP6V0E2-AS1 CD177 ZNF783 ZNF425 C12orf73 PCDHGA1 AC006486.1 ARHGEF34P TRIM13 C19orf69 PRSS1 SPIRE2 AC139712.2 RP11-830F9.6 CCL4L1 CCL3L1 PABPN1L RP11-863P13.4 PKHD1L1 CTC-425O23.2 SLFN12L FLJ00104 RP11-693J15.5 SLC35B4 SYCE1L TMEM231 FAM71F2 CCNI2 HSP90AA4P COX17P1 C4orf47 TRIQK SDHAF1 AC016586.1 PSENEN LINC00654 ZBTB10 C4orf46 SCGB2B2 LGR4 FAM106B PSMB10 VIT TTLL10-AS1 RPSAP58 E2F4 PDE7A TMEM170B MUC12 RP11-352D3.2 SNX2 NT5M SARNP GPR56 IPO7 PRR13 TECPR1 CFI SAMD9 KRT6A CNEP1R1 KRT81 EXOC3L4 TP53TG3D ATP6AP1L CCDC85C AC007000.12 AC004980.7 C2CD4B RGL3 NAP1L4 RP11-345J4.8 TMSB4X TMEM256 CHKB-AS1 CPT1B RP11-497H16.6 SMN2 SERF1B POM121B DYNLL1P1 HMGN1 STAG3L1 MUC19 DENND6B AREGB EIF3CL RP4-610C12.4 AF064858.6 LCMT1 MFSD2B CDPF1 LIN52 RP11-706O15.7 RP11-706O15.5 RP11-706O15.1 SMIM11 DPF3 CYP2D7P LYRM5 C17orf107 ITSN1 ITPRIPL2 DENND1C RP11-1212A22.1 CRLF2 CRYZL1 RP9P C5orf51 CATSPER2P1 ARRDC5 LOH12CR2 RP11-333E13.4 PPAPDC2 KLRC2 KLRC3 C16orf96 LINC00487 CLEC6A RFPL3S C1QTNF9B-AS1 RPS3AP47 C1RL-AS1 ZNF316 SRRM2-AS1 PDPK2 ONECUT3 OLIG2 C21orf62 C21orf49 RNPS1 HSP90AB2P RP11-689P11.2 NYNRIN DNAJC19 CTA-373H7.7 DEFA1 DOK6 HN1L IGLL3P ZDHHC11B LINC01002 RP11-503N18.1 EGFEM1P GOLGA8O TMEM191C HERC2P9 HBA1 AC023490.1 HBM ATP10A AP000525.9 HNRNPA1P4 CTD-2308N23.2 HCP5 HLA-H HCG27 COL6A6 H1FX-AS1 RAB12 HLA-A PTPLB WDR52 LNP1 VGLL3 PRSS50 TRIM71 ZCWPW2 ANKRD28 COLQ METTL6 AC022007.5 SETD5-AS1 RNU1-27P SNORA2A SNORA80B RNU1-1 RNU6-32P RNVU1-18 SNORD101 RNU6-213P RNU6-890P RNU6-48P RNU6-36P RNU6-4P SNORA50 RNU6-5P SNORD63 RNU6-574P RNU6-611P RNU1-2 SNORA54 SNORD59A SNORA7B RNU1-106P SNORA14B RNU6-1157P RNVU1-15 RNU6-125P RNU6-1005P SNORD20 RNU6-878P SNORA2B RNU6-2 RNU6-925P SNORD15B SNORA19 RNVU1-14 RNU6-9 RNU6-1237P SNORA66 MIR25 MIR647 MIR635 MIR631 Z95704.1 MIR570 MIR621 MIR573 MIR623 MIR186 MIR222 MIR590 MIR553 MIR568 MIR27A MIR221 MIR223 MIR628 MIR589 MIR23A MIR644A MIR643 MIR616 SNORD78 SNORD94 SNORD12C MT-TL1 SNORD83A MT-TF MT-TV MT-RNR2 MT-TI MT-TQ MT-TM MT-TW MT-TA MT-TC MT-TY MT-TS1 MT-TD MT-TK MT-TG MT-TH MT-TL2 MT-TE MT-TT MT-TP GPX3 C11orf31 GNRHR2 AKR7L STK38L SACM1L MT-RNR1 TSN MIR320E AC118278.1 SLC48A1 IGKJ5 IGKJ4 IGKJ3 IGKV4-1 IGKV5-2 IGKV6-21 IGKV3D-20 IGKV1D-13 IGKV3D-11 IGLV4-69 IGLV8-61 IGLV4-60 IGLV6-57 IGLV10-54 IGLV1-51 IGLV1-50 IGLV1-47 IGLV7-46 IGLV5-45 IGLV1-44 IGLV7-43 IGLV1-40 IGLV5-37 IGLV1-36 IGLV3-27 IGLV3-25 IGLV2-23 IGLV3-21 IGLV3-19 IGLV2-18 IGLV3-16 IGLV2-14 IGLV3-12 IGLV2-11 IGLV3-10 IGLV3-9 IGLV2-8 IGLV3-1 IGLJ2 IGLC2 IGLJ3 IGLC3 KB-1572G7.3 IGLC7 TRGJ2 TRGJP2 TRGC1 TRGJ1 TRGJP TRGJP1 TRGV10 TRGV9 TRGV8 TRGV5 TRGV4 TRGV3 TRBV6-1 TRBV4-1 TRBV7-3 TRBV9 TRBV6-5 TRBV6-6 TRBV5-5 TRBV7-6 TRBV5-6 TRBV5-1 TRBV4-2 TRBV19 TRBV20-1 TRBV23-1 TRBV24-1 TRBV25-1 TRBV27 TRBV28 TRBJ2-1 TRBJ2-2 TRBJ2-2P TRBJ2-3 TRBJ2-6 TRBJ2-7 TRBC2 TRAV2 TRAV3 TRAV4 TRAV5 TRAV6 TRAV8-1 TRAV10 TRAV12-1 TRAV8-2 TRAV8-3 TRAV13-1 TRAV12-2 TRAV8-4 TRAV13-2 TRAV14DV4 TRAV9-2 TRAV12-3 TRAV8-6 TRAV16 TRAV17 TRAV19 TRAV20 TRAV21 TRAV22 TRAV23DV6 TRDV1 TRAV24 TRAV25 TRAV26-1 TRAV27 TRAV29DV5 TRAV26-2 TRAV36DV7 TRAV38-1 TRAV38-2DV8 TRAV41 TRDV2 TRDJ1 TRDC TRAJ5 TRAJ3 IGHA2 IGHE IGHG4 IGHG2 IGHA1 IGHG1 IGHG3 IGHD IGHM IGHJ6 IGHJ2 IGHJ1 IGHV6-1 IGHV1-2 IGHV1-3 IGHV4-4 IGHV2-5 IGHV3-7 IGHV1-8 IGHV3-9 IGHV3-11 IGHV3-13 IGHV3-15 IGHV1-18 IGHV3-20 IGHV3-21 IGHV3-23 IGHV1-24 IGHV2-26 IGHV4-28 IGHV3-30 IGHV3-33 IGHV4-34 IGHV3-38 IGHV4-39 IGHV1-46 IGHV3-48 IGHV3-49 IGHV5-51 IGHV3-53 IGHV1-58 IGHV4-61 IGHV3-66 IGHV1-69 IGHV2-70 IGHV3-73 IGHV5-78 MIR374B PRR22 TAS2R19 TAS2R15 TAS2R14 TAS2R13 SNORD17 SNORD89 SNORA16 SNORD12 SNORA53 SNORD69 RNVU1-13 SNORD19 RNVU1-19 SNORA45 SNORD58 KRTAP16-1 RP11-592N21.1 AL161915.1 AC084018.1 CTAGE1 C17orf51 DKFZP667F0711 FAM127C ST13P5 RPL15P3 RPS26P3 RNF208 AC011841.1 MT-ND4L MAP10 AC016747.3 POU5F1B RPS26P6 AC120194.1 BTF3P12 PTTG3P ZNF580 AL590762.11 ZNF611 SYT3 NUP62 COX20P1 AURKAPS1 RP11-365D23.4 DENND1B RPL5P5 AC064852.5 C1orf220 RP4-765C7.2 AL021068.1 RPL29P7 SFT2D2 FGFR1OP HMGB3P6 LPAL2 RP11-288H12.3 RPL31P11 FAM106A SCAF8 